{"obs_dim": 24, "act_dim": 2, "actor_log_std": [0.009126787073910236, 0.04570229724049568], "court": {"width": 8.23, "net_y": 11.885, "margin": 0.3, "net_margin": 2.0}, "layers": [{"type": "linear_layernorm_tanh", "W": [[0.09843865782022476, 0.15022806823253632, 0.005266604013741016, 0.025172369554638863, 0.13337750732898712, 0.03369569405913353, -0.008374074473977089, 0.043350160121917725, -0.08318815380334854, 0.016525084152817726, 0.053639404475688934, -0.029027339071035385, 0.028111502528190613, 0.13935165107250214, 0.03512337803840637, -0.0724523738026619, -0.17040176689624786, 0.13554567098617554, -0.003971336875110865, -0.11453332751989365, -0.07081511616706848, 0.08094972372055054, -0.06798230111598969, -0.050265055149793625], [0.0073353624902665615, 0.13651032745838165, 0.009703749790787697, 0.0010015484876930714, -0.15544168651103973, -0.050166599452495575, 0.07908806949853897, 0.06874187290668488, 0.07235093414783478, 0.02072073332965374, -0.03370983526110649, 0.124916210770607, 0.0043317899107933044, 0.0015936163254082203, -0.05473335459828377, 0.11959823220968246, -0.1973317712545395, 0.0452583022415638, -0.07274271547794342, -0.0011667785001918674, 0.02349899709224701, 0.10460028797388077, 0.11552810668945312, -0.00023213263193611056], [-0.04879561811685562, -0.006260278169065714, 0.12435648590326309, 0.12580548226833344, 0.07243932038545609, 0.05732853338122368, -0.01652204990386963, -0.08600294589996338, 0.047632649540901184, 0.12257418781518936, -0.04863766208291054, 0.08664587885141373, 0.008015351369976997, 0.1331387311220169, 0.043062299489974976, 0.056241732090711594, -0.008932458236813545, -0.05245000869035721, -0.023842046037316322, 0.07353304326534271, -0.1040775403380394, 0.014854627661406994, 0.04279220104217529, 0.02130822278559208], [-0.03381795436143875, 0.11675940454006195, 0.1015281155705452, -0.051764972507953644, 0.14807642996311188, -0.05644000694155693, -0.16089265048503876, -0.03251071646809578, 0.03558047115802765, 0.11328896880149841, -0.16389915347099304, 0.046783801168203354, -0.054427262395620346, -0.06865998357534409, -0.09133853018283844, -0.1952473223209381, -0.019223270937800407, -0.03377411514520645, -0.0704493299126625, 0.17217177152633667, 0.19329887628555298, 0.1327362060546875, -0.20266787707805634, 0.0060532777570188046], [-0.07794306427240372, -0.02816339209675789, 0.05897817015647888, 0.00918093603104353, -0.11311300098896027, -0.07278872281312943, -0.12494134902954102, -0.0025017603766173124, 0.003639523871243, -0.040544625371694565, 0.1791631579399109, 0.13734911382198334, 0.07657225430011749, 0.036645568907260895, 0.04812788590788841, 0.0019145243568345904, 0.040857475250959396, -0.10767093300819397, -0.14111237227916718, -0.06166962906718254, -0.058361586183309555, 0.0442940890789032, 0.02564050629734993, 0.032023780047893524], [-0.005494540557265282, -0.02775873802602291, -0.05160548537969589, 0.0520746074616909, 0.028677355498075485, -0.014732643961906433, 0.07688355445861816, -0.04742341488599777, -0.14823658764362335, 0.12126950919628143, 0.036098912358284, 0.10438578575849533, -0.2955617308616638, -0.14650852978229523, 0.0007275656680576503, 0.0871758684515953, 0.048305973410606384, 0.09331847727298737, -0.08063729107379913, 0.13704197108745575, 0.0372919999063015, 0.010961334221065044, -0.20970873534679413, 0.007868386805057526], [-0.12301813811063766, -0.09948042035102844, -0.09846412390470505, 0.048031020909547806, 0.19027629494667053, 0.1295408457517624, -0.16120442748069763, -0.032584503293037415, 0.06495942175388336, 0.03193800151348114, -0.07197362929582596, -0.039970435202121735, -0.006763245444744825, 0.06959989666938782, -0.027676640078425407, 0.030757468193769455, 0.002091590780764818, -0.10041391104459763, -0.03594367951154709, -0.1169440895318985, -0.10933061689138412, 0.15337537229061127, 0.11419110745191574, 0.01391669549047947], [0.06204131618142128, -0.17779229581356049, -0.024926241487264633, -0.014868279919028282, 0.10420475900173187, -0.1415385752916336, -0.00973614864051342, 0.0210119616240263, 0.005680383183062077, -0.0067901150323450565, -0.144464910030365, 0.04750349745154381, 0.0543389618396759, 0.023379359394311905, 0.003162739099934697, 0.015831774100661278, 0.042613618075847626, 0.09777022153139114, 0.0024693189188838005, 0.2556070387363434, 0.0037741551641374826, -0.10530372709035873, 0.16466368734836578, -0.05289623886346817], [-0.006135747767984867, 0.027787329629063606, -0.007047714199870825, 0.15696795284748077, 0.03373967856168747, 0.033096473664045334, 0.09375870227813721, -0.1271388679742813, -0.06710926443338394, 0.025804664939641953, -0.10409864783287048, -0.03650684654712677, 0.08303216099739075, -0.08708689361810684, 0.052818071097135544, 0.061377014964818954, 0.010762658901512623, -0.01180522982031107, 0.021149028092622757, 0.019157521426677704, 0.018508531153202057, 0.18246273696422577, -0.1292753666639328, -0.0340188592672348], [0.15073826909065247, 0.2074659764766693, 0.020712835714221, 0.032376572489738464, 0.09317254275083542, -0.10916835069656372, 0.045309700071811676, -0.02652358077466488, -0.0390213243663311, -0.0032207590993493795, -0.008348504081368446, 0.06198389455676079, -0.02825935184955597, 0.07496505975723267, 0.037590041756629944, -0.06974982470273972, -0.0810195803642273, -0.11879049986600876, 0.05503605678677559, 0.03116612881422043, -0.08320832997560501, 0.04641759395599365, -0.020750196650624275, 0.11302368342876434], [-0.01893443800508976, -0.12535178661346436, -0.007509464398026466, 0.011981473304331303, -0.11895187944173813, 0.0028934802394360304, 0.07970178127288818, -0.18834219872951508, -0.1603132039308548, 0.03079746663570404, 0.0959819108247757, 0.04395844042301178, -0.12163147330284119, -0.183773472905159, -0.02933589369058609, 0.029062388464808464, 0.08731526881456375, 0.10935007035732269, -0.0019346900517120957, -0.08907302469015121, 0.1703164130449295, 0.012821771204471588, 0.07202266156673431, -0.023241708055138588], [-0.14468450844287872, -0.11800363659858704, 0.16834042966365814, 0.07186601310968399, 0.010271934792399406, -0.13120137155056, -0.13991178572177887, -0.14734117686748505, -0.0565619058907032, 0.11931740492582321, 0.037288252264261246, -0.1546352654695511, -0.08580557256937027, 0.01705641858279705, 0.027156557887792587, 0.09792973101139069, -0.07466191798448563, -0.10839030146598816, 0.05992651730775833, -0.046330079436302185, 0.09333852678537369, -0.1817592978477478, 0.011711673811078072, -0.023879284039139748], [0.049317941069602966, 0.047815319150686264, -0.07366254180669785, 0.1365111917257309, -0.04536902531981468, -0.058592937886714935, 0.08057816326618195, 0.035381898283958435, 0.0711858794093132, -0.06426113843917847, 0.018995244055986404, -0.037760037928819656, -0.13809581100940704, 0.07747871428728104, 0.1453886181116104, -0.023709027096629143, 0.0315360501408577, -0.13956357538700104, 0.04748660698533058, -0.04239485785365105, 0.12248637527227402, -0.026958998292684555, 0.04274405166506767, -0.14401909708976746], [0.0046121589839458466, -0.13929277658462524, -0.12049723416566849, -0.015932157635688782, 0.11641912162303925, -0.10231367498636246, 0.013048077002167702, -0.10070575028657913, 0.0748957023024559, 0.1950194388628006, -0.030516374856233597, -0.1753779947757721, -0.08725393563508987, 0.0828709527850151, 0.06064971163868904, 0.020172644406557083, 0.13222451508045197, -0.17148470878601074, 0.13365471363067627, -0.004968114662915468, -0.2002909779548645, 0.019115310162305832, 0.06453774869441986, -0.08738598227500916], [0.08537955582141876, 0.030283832922577858, 0.07878745347261429, -0.050621796399354935, -0.017305921763181686, -0.04597968980669975, -0.060288552194833755, -0.042811986058950424, 0.02400100789964199, 0.06426029652357101, 0.04367059841752052, -0.0429876334965229, 0.08320198953151703, -0.04958585649728775, -0.094047911465168, -0.12880754470825195, -0.050328921526670456, -0.06429670006036758, -0.005214664153754711, -0.017189884558320045, 0.051547907292842865, -0.05552252382040024, 0.0267647597938776, -0.07464101165533066], [-0.015940921381115913, -0.09083213657140732, -0.0036183749325573444, -0.035423580557107925, 0.06976250559091568, -0.051599226891994476, 0.05170673131942749, 0.1113414615392685, -0.2356441766023636, -0.11043607443571091, 0.07748383283615112, -0.07761023193597794, 0.17573392391204834, 0.14320839941501617, 0.03481830283999443, -0.09539821743965149, 0.02349700964987278, 0.030378831550478935, -0.11546654999256134, 0.06970112025737762, 0.018976697698235512, -0.04025720804929733, 0.012571120634675026, -0.03312151879072189], [0.05086309835314751, 0.0809452161192894, 0.08022687584161758, -0.0433906726539135, 0.007371592801064253, -0.07106930762529373, 0.10651969164609909, 0.2116522341966629, -0.045017387717962265, 0.09188701957464218, 0.03083980269730091, -0.007381865289062262, -0.0006373559590429068, 0.016465038061141968, 0.025955192744731903, 0.04788648337125778, 0.07399919629096985, -0.10638141632080078, -0.049548517912626266, -0.12672926485538483, 0.05800672620534897, -0.03386664390563965, -0.1415141522884369, -0.035172875970602036], [0.00699221296235919, 0.014553711749613285, -0.054662082344293594, 0.009102003648877144, 0.07955477386713028, 0.04095964878797531, 0.0663222149014473, -0.038632459938526154, 0.007717328146100044, 0.1450996696949005, -0.12257713824510574, 0.10378578305244446, -0.06885542720556259, 0.1281837522983551, 0.09854617714881897, -0.03557184711098671, -0.013390184380114079, -0.008445736952126026, 0.04826347902417183, 0.18569302558898926, -0.13769114017486572, -0.05923713371157646, -0.06083529442548752, 0.02491137757897377], [-0.10561459511518478, 0.09146168828010559, -0.08026526123285294, -0.01924057863652706, 0.04738946631550789, 0.09652377665042877, -0.029063550755381584, -0.03118397668004036, 0.13950985670089722, -0.015586408786475658, -0.09201186150312424, -0.004145766142755747, 0.036644596606492996, -0.06327465921640396, -0.17677639424800873, 0.0019645150750875473, -0.0722007155418396, 0.09615610539913177, -0.03879048675298691, 0.017043597996234894, -0.08024675399065018, 0.09912437200546265, 0.007099773269146681, 0.04711923003196716], [0.1821223795413971, -0.013922026380896568, -0.0944412350654602, 0.0668327584862709, -0.002771905390545726, -0.1451205164194107, 0.023949092254042625, 0.15603306889533997, -0.22020770609378815, -0.021539807319641113, -0.10775239020586014, -0.011193503625690937, 0.05457514151930809, -0.047437481582164764, 0.07099445909261703, -0.03406761214137077, 0.09567287564277649, -0.07773540914058685, -0.0718650370836258, 0.14967243373394012, 0.025475306436419487, 0.07047224789857864, -0.071738101541996, 0.05471856892108917], [-0.164390429854393, 0.02318214811384678, 0.04247867688536644, -0.03581591323018074, -0.06641646474599838, -0.003715171944350004, -0.1305871307849884, 0.04561477527022362, 0.03468479588627815, -0.06411998718976974, -0.07725650072097778, 0.18685771524906158, 0.09470301866531372, 0.06275302171707153, -0.02771279402077198, 0.02964078262448311, -0.017885679379105568, -0.04035604000091553, -0.15257173776626587, 0.0017609556671231985, 0.0034005269408226013, -0.0987127274274826, 0.00938744843006134, 0.17224830389022827], [0.04993465915322304, 0.03133496642112732, 0.0008598238346166909, -0.01764485239982605, -0.20707859098911285, 0.04242927208542824, 8.592667290940881e-05, 0.027973879128694534, -0.09305144101381302, 0.12227451056241989, -0.050533369183540344, -0.025094734504818916, 0.0005770483403466642, 0.10213275998830795, -0.05740221217274666, -0.09576685726642609, 0.021044569090008736, 0.15192115306854248, 0.00798103865236044, 0.09512095153331757, -0.07803568989038467, 0.007743893191218376, 0.17427203059196472, -0.021804936230182648], [-0.28469982743263245, 0.11208641529083252, 0.014645848423242569, 0.0036151965614408255, -0.046149272471666336, 0.03305627778172493, 0.0448988638818264, 0.028761379420757294, -0.028303135186433792, -0.010727135464549065, -0.22995176911354065, 0.037903182208538055, 0.0542856864631176, -0.1557907909154892, 0.15661756694316864, -0.028682978823781013, 0.1339218020439148, -0.029472148045897484, 0.03366176411509514, 0.019885163754224777, 0.08200681954622269, -0.08456091582775116, -0.09905052930116653, -0.029028845950961113], [0.10340439528226852, 0.1285867840051651, 0.06058580055832863, 0.0770614743232727, 0.05282092094421387, 0.025158623233437538, -0.24414977431297302, -0.038004688918590546, 0.02104714699089527, -0.14694856107234955, -0.026237886399030685, 0.1320270299911499, -0.017266850918531418, -0.13868026435375214, 0.00214657885953784, 0.06712432205677032, 0.19644321501255035, -0.040844038128852844, -0.10520772635936737, -0.21433371305465698, 0.011218090541660786, -0.03294819965958595, 0.03311139717698097, -0.037683676928281784], [-0.05915456265211105, 0.014324486255645752, 0.031326573342084885, 0.052508652210235596, -0.0309568140655756, -0.06080542504787445, -0.07898684591054916, 0.0949949398636818, 0.0031751508358865976, -0.04466540738940239, 0.21213409304618835, -0.04393859580159187, -0.1039687767624855, -0.05990820378065109, 0.0853056013584137, -0.0038967032451182604, -0.07238274812698364, 0.154130756855011, -0.10795698314905167, -0.0006244754185900092, -0.06605425477027893, -0.16351251304149628, -0.06784845143556595, 0.08294780552387238], [-0.08949346840381622, -0.13906383514404297, -0.04212449863553047, 0.023413484916090965, -0.021718142554163933, -0.045295216143131256, 0.03878083825111389, 0.009923492558300495, 0.07947919517755508, -0.07761171460151672, 0.008747557178139687, 0.09940510243177414, 0.007103626150637865, -0.004897291772067547, -0.061227645725011826, -0.03498797491192818, -0.12447429448366165, 0.06751278042793274, 0.06618301570415497, -0.06745774298906326, 0.1688886135816574, -0.05749107152223587, 0.1373760998249054, -0.07001776993274689], [0.18620546162128448, -0.0670953169465065, -0.11790958046913147, 0.02607949823141098, 0.23432467877864838, -0.052729733288288116, -0.02358374185860157, -0.0093279629945755, -0.005212034098803997, 0.04262243211269379, -0.036395687609910965, 0.15737493336200714, 0.006822674069553614, -0.11014905571937561, -0.003739000763744116, -0.21957603096961975, 0.13056081533432007, -0.1087866723537445, 0.08936180919408798, -0.05575639009475708, -0.02691207081079483, -0.004900861065834761, 0.09871157258749008, 0.007353208493441343], [-0.0007964881951920688, -0.21177758276462555, 0.06779542565345764, -0.09224461764097214, 0.03440658748149872, -0.030461158603429794, 0.11780078709125519, 0.04960518702864647, 0.06814698129892349, 0.19856250286102295, 0.026692744344472885, -0.005595546215772629, -0.03583956137299538, 0.024667512625455856, -0.008844357915222645, -0.010289004072546959, 0.07806113362312317, -0.033359430730342865, 0.05864099785685539, -0.17219723761081696, 0.10343576967716217, -0.16999778151512146, -0.08872246742248535, 0.00028755958192050457], [-0.07267680019140244, 0.0567019023001194, -0.021438606083393097, -0.021186184138059616, 0.11895958334207535, -0.13140876591205597, -0.016337471082806587, 0.12831859290599823, 0.09933328628540039, -0.17288333177566528, -0.12286606431007385, 0.03156628832221031, 0.034070368856191635, -0.06728596985340118, 0.07638418674468994, -0.08658760786056519, -0.1527383178472519, -0.030527956783771515, 0.15749800205230713, -0.017105022445321083, -0.0004015411832369864, -0.02706432342529297, 0.05249306187033653, 0.012829174287617207], [0.16171275079250336, -0.03951267898082733, 0.03280194476246834, 0.03766528517007828, 0.04623473063111305, -0.03591987118124962, 0.038971152156591415, -0.12619708478450775, 0.035482026636600494, -0.07073777914047241, -0.060487788170576096, -0.1158648207783699, 0.005753850564360619, -0.165538027882576, -0.00610607024282217, -0.08132591098546982, -0.04665357619524002, 0.05435223504900932, 0.06680675595998764, 0.02799340896308422, 0.10415805131196976, 0.13133837282657623, -0.05016804486513138, -0.09146440774202347], [-0.06247099116444588, -0.0029485439881682396, -0.1168271079659462, 0.11550284177064896, 0.003440610831603408, 0.09082399308681488, 0.010320048779249191, -0.06408362090587616, -0.021603016182780266, 0.022119587287306786, 0.055163923650979996, -0.03220329433679581, 0.03382691368460655, -0.1568220853805542, 0.07449288666248322, 0.008897319436073303, 0.08454255014657974, -0.008318382315337658, 0.1471720039844513, -0.07918065041303635, -0.022367672994732857, 0.05667762830853462, 0.059416308999061584, -0.026273950934410095], [-0.04739154875278473, 0.13801318407058716, 0.0104922940954566, 0.002143711084499955, 0.032234061509370804, -0.07840275019407272, -0.03273007646203041, -0.04576609283685684, -0.11078480631113052, 0.008632997050881386, -0.03913961723446846, 0.014842062257230282, -0.01534881442785263, 0.011734483763575554, 0.002613144926726818, 0.07374223321676254, 0.049101654440164566, -0.0004552404279820621, -0.05304922163486481, 0.09861646592617035, 0.06744123995304108, -0.023976095020771027, 0.07445526868104935, 0.041846420615911484], [0.057553231716156006, -0.008603258058428764, 0.07486509531736374, -0.0235025305300951, -0.05319995433092117, -0.0006053653196431696, 0.039924751967191696, -0.019567376002669334, 0.005069013684988022, -0.08395079523324966, -0.043870359659194946, 0.06513433158397675, 0.032663099467754364, 0.04392873868346214, 0.018192261457443237, -0.0255984365940094, 0.13486793637275696, 0.04898100346326828, 0.1251741200685501, -0.04402163252234459, 0.031016116961836815, -0.13836190104484558, -0.060559313744306564, 0.0014725052751600742], [0.05907386168837547, -0.023617414757609367, 0.10538575798273087, 0.0372786670923233, 0.09483011811971664, 0.015441162511706352, -0.07936842739582062, -0.07636012881994247, 0.06979421526193619, 0.08553672581911087, -0.0614001490175724, 0.05744458734989166, -0.08261123299598694, 0.041349537670612335, 0.10038866102695465, 0.015278700739145279, 0.06667391955852509, -0.15236549079418182, -0.015292419120669365, 0.08651595562696457, 0.12057983130216599, -0.016793852671980858, -0.05898971110582352, -0.05336969718337059], [-0.04502755030989647, -0.007616209331899881, -0.06724458932876587, -0.025501880794763565, -0.024613872170448303, 0.041875287890434265, -0.1246146634221077, -0.17821204662322998, -0.08849475532770157, 0.09628871083259583, -0.022308360785245895, 0.03197913244366646, 0.14897780120372772, -0.0063025509007275105, -0.03076750598847866, 0.03866558521986008, -0.09218356013298035, 0.09417278319597244, 0.06341676414012909, 0.08998558670282364, -0.17516019940376282, 0.0032622467260807753, -0.0783236175775528, 0.05859609320759773], [0.07255178689956665, -0.08684231340885162, -0.0009902711026370525, -0.08891454339027405, 0.19533628225326538, 0.08130121976137161, 0.08003078401088715, 0.12792852520942688, -0.08637785166501999, -0.01950470544397831, 0.004545049741864204, 0.1060197651386261, -0.02788621187210083, -0.03128606826066971, -0.09578315168619156, 0.05077797546982765, 0.0331495963037014, 0.0760282501578331, 0.014459235593676567, 0.12445766478776932, -0.08248709887266159, 0.028268372640013695, 0.03971947729587555, 0.05384012311697006], [0.09460418671369553, -0.12534557282924652, -0.021871140226721764, -0.013487683609127998, -0.013201636262238026, 0.1529190093278885, -0.10748506337404251, -0.03650510683655739, -0.14729084074497223, 0.17564314603805542, -0.09880585223436356, -0.21434658765792847, -0.02232256717979908, 0.156142920255661, 0.02193724736571312, 0.008646252565085888, -0.09975994378328323, 0.026098480448126793, -0.02782970480620861, 0.11641111969947815, 0.1809188276529312, -0.02222081646323204, 0.20907896757125854, -0.03491159901022911], [0.15202492475509644, -0.07536056637763977, -0.04507976770401001, 0.08591508865356445, 0.04194772616028786, -0.041360899806022644, -0.0954400971531868, 0.07560593634843826, 0.03776062652468681, 0.10057397186756134, 0.070464126765728, 0.08907250314950943, -0.201013445854187, 0.05176467448472977, 0.019095702096819878, -0.08590826392173767, -0.0749129131436348, 0.11067433655261993, -0.09276384860277176, 0.010073114186525345, -0.01105122547596693, 0.16042421758174896, -0.05240614712238312, 0.04733049124479294], [0.07988744974136353, -0.0431523323059082, 0.12515586614608765, 0.11291836947202682, -0.023946134373545647, -0.17653673887252808, 0.11050446331501007, -0.003798991907387972, 0.10145525634288788, -0.06952973455190659, -0.18978363275527954, 0.022298192605376244, 0.19793836772441864, 0.07812152802944183, 0.01686016283929348, 0.021147774532437325, -0.10042162984609604, -0.08238295465707779, -0.01092948392033577, -0.12418116629123688, -0.02884848229587078, 0.0007963965181261301, -0.11218197643756866, 0.08690828830003738], [0.11103178560733795, -0.030295420438051224, 0.15999585390090942, -0.03829982876777649, 0.06947343051433563, 0.1641165316104889, 0.01700028032064438, 0.034752484411001205, 0.135452538728714, 0.052919670939445496, 0.07440400868654251, 0.025260718539357185, -0.01646406762301922, -0.07123231142759323, -0.13661567866802216, 0.07283049821853638, -0.12229757755994797, 0.03789402171969414, 0.024289211258292198, 0.20047013461589813, -0.016750812530517578, -0.01752111315727234, 0.03493083640933037, 0.030117643997073174], [-0.03557061031460762, -0.055025339126586914, -0.047470200806856155, 0.08614415675401688, 0.04824572429060936, -0.007517807185649872, 0.07247469574213028, 0.010660486295819283, -0.10997893661260605, -0.1283685564994812, -0.017455441877245903, -0.023876259103417397, 0.018371114507317543, 0.029733404517173767, 0.03878238797187805, 0.0022721586283296347, 0.019636964425444603, -0.013165932148694992, 0.03879634663462639, 0.06066334620118141, -0.06541025638580322, 0.0842989906668663, -0.03392008692026138, 0.020370790734887123], [0.11084494739770889, 0.014216087758541107, -0.06318175047636032, -0.1469651460647583, 0.08349784463644028, 0.07669354230165482, -0.08799677342176437, -0.048362430185079575, -0.03856342285871506, -0.039221469312906265, -0.06458652019500732, -0.013354301452636719, 0.09014493227005005, 0.11710720509290695, -0.14121626317501068, 0.19316382706165314, -0.08057110011577606, -0.0906609296798706, -0.029864156618714333, -0.12814131379127502, 0.06071352958679199, 0.07036300003528595, 0.08118795603513718, -0.038503360003232956], [-0.0778278112411499, 0.00224157958291471, -0.03902053460478783, -0.02732624113559723, 0.018335631117224693, -0.07562469691038132, 0.10794553905725479, -0.1374911367893219, -0.07066579908132553, 0.07786085456609726, 0.03296633064746857, 0.018205551430583, -0.03637466952204704, -0.023066766560077667, 0.11505188792943954, -0.06721356511116028, 0.032558199018239975, 0.03743492066860199, -0.06468771398067474, 0.106349878013134, -0.03382138907909393, -0.09262684732675552, 0.05869732424616814, 0.07193639129400253], [0.0719265565276146, 0.14381499588489532, -0.11132130771875381, -0.0796256959438324, -0.041206058114767075, 0.09585598111152649, 0.10694832354784012, -0.10096967220306396, 0.09689648449420929, 0.019811296835541725, -0.10634282976388931, 0.06515899300575256, -0.03696560487151146, 0.01127453800290823, -0.0709730014204979, 0.023923125118017197, -0.1792413890361786, 0.04708239436149597, -0.06537864357233047, 0.16417935490608215, 0.03500399738550186, 0.06015051528811455, 0.0032786827068775892, -0.051531869918107986], [-0.014161109924316406, 0.05850241705775261, 0.07417473196983337, -0.19012503325939178, -0.0187855064868927, -0.1327987164258957, -0.03271351009607315, 0.08014188706874847, 0.13828623294830322, 0.022924283519387245, 0.03819557651877403, -0.022925781086087227, -0.1213286891579628, 0.019153766334056854, 0.039278771728277206, 0.09350083768367767, 0.1326441913843155, 0.11976277083158493, 0.042090047150850296, 0.030894771218299866, -0.02423962764441967, -0.11395744979381561, 0.179855078458786, 0.1832617074251175], [-0.02867726795375347, -0.16686376929283142, -0.15054936707019806, 0.14522823691368103, 0.15295475721359253, 0.044837117195129395, -0.06277461349964142, 0.15690799057483673, 0.02486261911690235, -0.15367627143859863, -0.030234865844249725, -0.13029225170612335, 0.03573409467935562, 0.03623803332448006, -0.055599816143512726, -0.08508618921041489, 0.054410018026828766, 0.03341018036007881, 0.002431851113215089, -0.027395153418183327, 0.19405151903629303, 0.052229899913072586, -0.010455170646309853, 0.0927613377571106], [-0.09079717844724655, 0.05999382585287094, -0.0656084418296814, -0.11269065737724304, 0.010345114395022392, -0.10726838558912277, 0.05159774795174599, -0.03564608842134476, 0.0061184801161289215, 0.06566570699214935, -0.06840766221284866, -0.006358074955642223, 0.10985145717859268, 0.05227626860141754, -0.10502240061759949, 0.05856916680932045, 0.006442045792937279, -0.09618451446294785, -0.01278169360011816, 0.032804861664772034, -0.11450900882482529, 0.0802859365940094, -0.061852410435676575, 0.11849072575569153], [0.09400495141744614, 0.046023156493902206, 0.017109137028455734, 0.08016182482242584, -0.04527713358402252, -0.09403247386217117, 0.04176272079348564, -0.03896547853946686, -0.025811729952692986, 0.022143006324768066, -0.05658445134758949, 0.12251629680395126, 0.003757261438295245, 0.08554380387067795, -0.1449112445116043, 0.02799825929105282, 0.03972122073173523, -0.05261761695146561, 0.02074516750872135, -0.04920321702957153, -0.1980278044939041, 0.055662889033555984, 0.12425157427787781, -0.04300412908196449], [0.0006022570887580514, -0.11951565742492676, -0.07423638552427292, 0.044357482343912125, -0.003259665798395872, -0.028676297515630722, -0.11031927168369293, 0.11277654021978378, 0.004307301249355078, -0.023184048011898994, -0.009324748069047928, -0.044840507209300995, -0.022935980930924416, 0.06729724258184433, 0.08169552683830261, -0.03492426499724388, 0.14875996112823486, -0.02111642435193062, 0.08414855599403381, 0.07843812555074692, 0.03102615661919117, 0.12007474154233932, 0.05843236669898033, 0.005840442609041929], [-0.04696648567914963, -0.05306966230273247, 0.1306540071964264, 0.07799230515956879, 0.003623346099629998, -0.03400222584605217, -0.07137063145637512, 0.13942135870456696, 0.09422009438276291, -0.03091951087117195, -0.03652879595756531, -0.022005770355463028, -0.10222294926643372, -0.13988804817199707, 0.12291506677865982, -0.37457120418548584, 0.03334863856434822, 0.010171428322792053, 0.007455965504050255, 0.08809496462345123, -0.04644260182976723, 0.015629081055521965, -0.11294879019260406, 0.01163837406784296], [0.008000664412975311, -0.00029129168251529336, 0.0022906328085809946, -0.04163479804992676, 0.0786997601389885, -0.09103774279356003, 0.08918917924165726, 0.04970521107316017, -0.07152404636144638, 0.07837624102830887, -0.06388114392757416, 0.10483373701572418, -0.13954155147075653, -0.16476093232631683, -0.010935213416814804, 0.03226231411099434, -0.14339043200016022, 0.0513450913131237, -0.07764224708080292, -0.14747115969657898, -0.10408347100019455, 0.04597245529294014, 0.012026618234813213, -0.027529338374733925], [-0.0006242018425837159, -0.04182512313127518, -0.14754080772399902, 0.04394375532865524, -0.20152688026428223, -0.08924360573291779, 0.039954058825969696, -0.10119149833917618, 0.12474140524864197, -0.005461094435304403, -0.0990612655878067, -0.09953291714191437, -0.06828218698501587, -0.1075623482465744, -0.17246438562870026, -0.08480750769376755, 0.01842242293059826, -0.05382024124264717, 0.14666031301021576, 0.03880961611866951, -0.01676526665687561, 0.1504930853843689, -0.11135747283697128, -0.026422295719385147], [0.04603010416030884, 0.013959079049527645, -0.029295898973941803, -0.07813501358032227, 0.03423762321472168, -0.17318862676620483, 0.02276112698018551, -0.17404703795909882, -0.045600518584251404, -0.04688270017504692, 0.03557479754090309, 0.10964003950357437, -0.11273352056741714, -0.07142750918865204, -0.07141616195440292, -0.014288852922618389, -0.007759259548038244, -0.02983611449599266, 0.031169626861810684, 0.07600587606430054, -0.08698263764381409, -0.14210474491119385, -0.0355943962931633, -0.03125934675335884], [-0.181150421500206, -0.07176679372787476, 0.1702595204114914, 0.10984408855438232, 0.014103231951594353, 0.045230962336063385, -0.01843390241265297, 0.11301297694444656, -0.028088562190532684, -0.05781270191073418, 0.09159673750400543, 0.09852173179388046, -0.11648241430521011, 0.0040712677873671055, 0.087858647108078, 0.06132565066218376, 0.1035107970237732, 0.07169662415981293, -0.012248873710632324, 0.06763563305139542, -0.005358168855309486, -0.09173746407032013, -0.1583518534898758, -0.14608491957187653], [0.04472867399454117, 0.02919822931289673, 0.12453703582286835, 0.10577113181352615, -0.15320897102355957, -0.18723712861537933, 0.06911816447973251, -0.0215644221752882, -0.09795702248811722, -0.07359595596790314, 0.0509871207177639, 0.007042491342872381, -6.536739238072187e-05, -0.05031689256429672, 0.15587429702281952, -0.04010207578539848, 0.052707988768815994, -0.09665288776159286, -0.11526060104370117, -0.0021631361450999975, -0.060823407024145126, -0.039896782487630844, 0.22378437221050262, 0.05253508314490318], [-0.026532433927059174, 0.11228649318218231, 0.09021802246570587, 0.1005493775010109, 0.012340131215751171, -0.027415897697210312, -0.022977592423558235, 0.04088699072599411, 0.048097364604473114, 0.05270294100046158, -0.02877860516309738, 0.1255597621202469, 0.0321076363325119, -0.04598593711853027, -0.11983178555965424, 0.010241352021694183, -0.04086220636963844, 0.019105087965726852, -0.09658806025981903, -0.05899793282151222, -0.016563167795538902, 0.01815691776573658, -0.04616985470056534, -0.06410662084817886], [-0.07518430054187775, 0.004457421135157347, -0.051039066165685654, -0.0050413766875863075, 0.050423186272382736, -0.06608014553785324, -0.2061205804347992, -0.08035588264465332, 0.15765264630317688, 0.0380466990172863, -0.01345118973404169, -0.11190246045589447, 0.08687374740839005, -0.06707903742790222, 0.0809347927570343, -0.09997568279504776, 0.04318862408399582, -0.01617198996245861, 0.01802891492843628, -0.07771313935518265, 0.021782783791422844, -0.051003940403461456, 0.14065690338611603, -0.07307227700948715], [-0.027935881167650223, -0.03658493235707283, -0.25005704164505005, -0.11653075367212296, 0.10641302168369293, -0.13317061960697174, 0.042046088725328445, -0.02197650633752346, -0.01588037610054016, -0.06594734638929367, 0.009469435550272465, 0.11204134672880173, 0.19015763700008392, -0.07930165529251099, 0.16777460277080536, -0.04054945334792137, -0.012033471837639809, 0.2403741329908371, 0.02516005001962185, 0.048306021839380264, -0.06877271085977554, -0.0013842444168403745, -0.04050102084875107, -0.15792134404182434], [0.0057259537279605865, 0.04776871204376221, -0.011131253093481064, -0.09208767116069794, -0.03810824081301689, 0.034166887402534485, 0.12861765921115875, -0.006693642120808363, 0.11082358658313751, 0.1737407147884369, 0.09962636232376099, -0.08071247488260269, -0.10652824491262436, 0.033569492399692535, 0.05046726018190384, 0.11817073822021484, 0.08664751797914505, 0.06254645437002182, 0.021442797034978867, -0.12198192626237869, 0.0015851386124268174, -0.08502883464097977, 0.05697626248002052, -0.2463686466217041], [0.02777261473238468, -0.04951230809092522, 0.04777543246746063, 0.11939971894025803, 0.020970182493329048, 0.0827389732003212, -0.11364792287349701, 0.07448694854974747, -0.06759440153837204, -0.024937458336353302, 0.16376571357250214, -0.12213900685310364, -0.08039841800928116, -0.12660391628742218, 0.054594736546278, -0.05483149737119675, -0.05909457802772522, 0.057646770030260086, -0.09017717093229294, -0.02369544841349125, -0.0234597846865654, -0.05485018715262413, 0.08640148490667343, 0.07598714530467987], [0.024090398102998734, -0.10797753185033798, -0.023264093324542046, -0.0743885338306427, 0.03778660297393799, -0.018786903470754623, 0.06338097155094147, 0.08915231376886368, -0.041485127061605453, -0.06276648491621017, -0.0602152943611145, -0.04542773962020874, -0.10923320055007935, -0.17517229914665222, 0.03519309312105179, 0.14360029995441437, -0.09122582525014877, -0.0783732607960701, -0.10002754628658295, -0.1045411080121994, -0.008391661569476128, 0.003982127644121647, -0.04694356396794319, 0.1594170331954956], [-0.022081203758716583, 0.05807486176490784, -0.1719091534614563, 0.06356663256883621, -0.09342818707227707, 0.16850268840789795, 0.12149052321910858, 0.09275978058576584, -0.09765408933162689, 0.008762706071138382, 0.013637508265674114, 0.016012266278266907, -0.1064491719007492, 0.05681837722659111, -0.02229638583958149, 0.021157657727599144, -0.061326198279857635, 0.2137453258037567, -0.21542835235595703, -0.03296827897429466, -0.06597104668617249, -0.0677168220281601, 0.019038472324609756, 0.13550975918769836], [-0.058210380375385284, -0.028826480731368065, 0.03395255282521248, 0.040829725563526154, 0.03117314726114273, -0.08250172436237335, 0.1241152361035347, 0.16288086771965027, -0.046925708651542664, 0.01146707497537136, 0.05410877242684364, 0.10512515157461166, 0.015958819538354874, 0.09807976335287094, 0.10268942266702652, 0.0027076888363808393, -0.056238990277051926, -0.0903317853808403, -0.04104084149003029, 0.10538605600595474, -0.04972892254590988, 0.017002442851662636, -0.11946336925029755, -0.12010008841753006], [-0.00864154938608408, -0.19073449075222015, 0.03641115501523018, -0.018613994121551514, -0.09986191987991333, -0.2777632772922516, -0.12252076715230942, -0.11158555001020432, -0.028203507885336876, -0.04317324981093407, 0.08191918581724167, 0.10127628594636917, -0.07657953351736069, 0.037170715630054474, -0.055499494075775146, -0.05958655849099159, -0.1602211743593216, 0.03735899552702904, -0.008048818446695805, 0.04339783638715744, 0.141182079911232, -0.08529924601316452, -0.06613006442785263, -0.16685689985752106], [0.1431361734867096, 0.11554834246635437, -0.044639650732278824, -0.02615036815404892, 0.06392482668161392, -0.05494697391986847, 0.003716223407536745, -0.09139849245548248, -0.04184020683169365, -0.0046419547870755196, 0.014501078054308891, 0.06404535472393036, 0.06273481249809265, -0.021166421473026276, -0.18267782032489777, -0.05595237761735916, -0.10420756787061691, -0.027109764516353607, 0.04062449932098389, 0.15771250426769257, 0.14245930314064026, 0.10824939608573914, 0.05296587944030762, 0.08135133981704712], [-0.07638353109359741, 0.11274620145559311, -0.1451750248670578, -0.04101705551147461, 0.09059120714664459, 0.18207286298274994, -0.02966703288257122, 0.0388413742184639, 0.046537771821022034, -0.10412582755088806, -0.0065462421625852585, -0.10543063282966614, -0.028175510466098785, -0.019283702597022057, -0.1037122905254364, -0.02417558617889881, -0.21470002830028534, 0.007000411860644817, 0.03691767156124115, 0.07604607194662094, -0.10786313563585281, -0.05219850316643715, -0.07055991888046265, 0.01147196814417839], [-0.08063516020774841, -0.005265924148261547, 0.012531038373708725, 0.037793487310409546, 0.19005398452281952, 0.021374134346842766, -0.07147879153490067, 0.02933153137564659, 0.03814873471856117, -0.09640071541070938, -0.047214340418577194, -0.05913476645946503, -0.0046212743036448956, 0.09288088977336884, -0.005325866863131523, 0.03964889049530029, 0.06854906678199768, 0.014596874825656414, -0.0018847603350877762, -0.04383523389697075, -0.13623037934303284, 0.0927044078707695, 0.1374346762895584, 0.08131285756826401], [-0.09741275012493134, -0.08121098577976227, 0.02835068292915821, -0.08178472518920898, 0.17877258360385895, -0.09076869487762451, 0.14800743758678436, -0.07721913605928421, -0.011125251650810242, -0.16418232023715973, 0.03693478927016258, -0.002561981789767742, -0.09282825887203217, -0.11903694272041321, -0.003649870166555047, -0.05348445847630501, -0.21720315515995026, 0.07189928740262985, -0.031077373772859573, -0.061357252299785614, -0.036559440195560455, 0.029252737760543823, 0.11209667474031448, 0.05375075712800026], [-0.06862078607082367, 0.08264860510826111, 0.16018326580524445, 0.07906080782413483, 0.1381443291902542, -0.10910256952047348, 0.0422452837228775, -0.15147040784358978, -0.10713329166173935, -0.10137614607810974, -0.06026231870055199, -0.02023719809949398, 0.033086396753787994, 0.0786656066775322, 0.006847263779491186, -0.050868257880210876, 0.11026376485824585, 0.0615384578704834, -0.08450836688280106, -0.11798086017370224, 0.012206023558974266, 0.06051548942923546, -0.026469916105270386, 0.011202426627278328], [0.02990107238292694, -0.005721700843423605, -0.01070376206189394, -0.1445603221654892, -0.058405280113220215, -0.12021905183792114, 0.04964602366089821, -0.03545011579990387, 0.0010119149228557944, -0.17584779858589172, -0.12309769541025162, -0.14760158956050873, -0.07722108066082001, 0.053608305752277374, -0.1284991353750229, -0.11149518191814423, 0.12125789374113083, 0.11405816674232483, -0.19841118156909943, 0.03399057313799858, -0.05903571844100952, 0.09344257414340973, 0.03450295701622963, 0.020973892882466316], [0.19256368279457092, -0.017827719449996948, -0.09282340109348297, -0.019952083006501198, -0.01130932942032814, -0.02611384727060795, -0.12730421125888824, -0.030243970453739166, -0.12900911271572113, -0.011200297623872757, 0.06488495320081711, 0.02521800808608532, -0.09843368083238602, -0.04277012124657631, -0.01974363625049591, -0.10423507541418076, 0.06036555394530296, -0.05504775792360306, -0.03598521277308464, -0.05844805762171745, -0.027324741706252098, -0.20746752619743347, -0.10187184065580368, -0.07729023694992065], [-0.033031947910785675, -0.023329749703407288, -0.027734750881791115, -0.14094164967536926, -0.14048431813716888, -0.06928499788045883, -0.023260587826371193, 0.03150257468223572, -0.11963827908039093, 0.04121176525950432, 0.03826611489057541, 0.056115299463272095, 0.02400381863117218, 0.0031809064093977213, 0.0284265223890543, 0.05613715574145317, 0.039116308093070984, 0.04006584361195564, 0.22460973262786865, 0.04391651600599289, -0.04547099396586418, 0.0379021130502224, 0.0007217460079118609, -0.15049417316913605], [0.03417859598994255, 0.19312112033367157, -0.13319586217403412, 0.17670172452926636, -0.07238662242889404, -0.029464367777109146, 0.04779414087533951, -0.04898122325539589, -0.125837042927742, -0.052576325833797455, 0.10159893333911896, -0.1129237711429596, 0.08824670314788818, -0.0542498342692852, 0.05846605449914932, -0.06986546516418457, 0.03807816654443741, -0.017460867762565613, 0.02052304893732071, 0.1861674189567566, 0.0105085838586092, 0.038216933608055115, -0.25565412640571594, 0.042625345289707184], [-0.002145182341337204, -0.04491526633501053, 0.07780423015356064, -0.05183545872569084, 0.14105693995952606, -0.15839841961860657, 0.035494107753038406, -0.16313517093658447, -0.015430634841322899, -0.0257584098726511, -0.05027322471141815, -0.08218561857938766, -0.016542019322514534, -0.08320969343185425, 0.02403280697762966, -0.09998056292533875, 0.19727548956871033, -0.04217766597867012, 0.006516997702419758, -0.15643729269504547, -0.024702927097678185, -0.1661892831325531, 0.10979017615318298, 0.09585574269294739], [-0.01934499852359295, -0.12100604176521301, -0.14552631974220276, -0.18736478686332703, -0.034659866243600845, -0.053762298077344894, -0.014119070954620838, 0.03194278106093407, -0.013537012040615082, -0.0220571830868721, 0.19740939140319824, -0.016697663813829422, 0.028195053339004517, 0.07487201690673828, -0.0872887521982193, -0.08146166056394577, -0.08224862068891525, 0.11637002229690552, -0.07831604778766632, 0.03681213781237602, -0.08555233478546143, -0.1430904120206833, -0.14911894500255585, 0.11050688475370407], [-0.01793702132999897, -0.0100778853520751, -0.004056907724589109, -0.0061605931259691715, -0.06782857328653336, -0.08066457509994507, 0.06372763961553574, -0.027249865233898163, -0.15195243060588837, 0.10689052194356918, -0.05804618075489998, -0.24803048372268677, 0.07294145226478577, 0.10067399591207504, 0.056207913905382156, 0.031133439391851425, -0.08873539417982101, -0.02700411155819893, -0.16727130115032196, -0.15220127999782562, 0.04127337783575058, -0.07125624269247055, -0.04977831989526749, 0.008654079400002956], [0.11743450164794922, -0.16602329909801483, 0.013636619783937931, -0.0372137576341629, -0.08432909101247787, 0.08601370453834534, -0.022871781140565872, -0.12616558372974396, -0.08920186758041382, 0.08218543231487274, -0.0776074007153511, -0.13464833796024323, 0.016997914761304855, 0.09615179151296616, 0.07515906542539597, -0.05988052487373352, -0.0024210792034864426, 0.021247122436761856, -0.09858367592096329, 0.02234743908047676, 0.08313566446304321, 0.10737912356853485, 0.06577464938163757, 0.0036997150164097548], [0.01550175342708826, 0.0046714358031749725, -0.004009549506008625, -0.033212579786777496, 0.059079114347696304, 0.13327303528785706, 0.06971263140439987, 0.18975786864757538, -0.04925447702407837, -0.12388624250888824, 0.07590505480766296, 0.026999425143003464, 0.05136406049132347, 0.031144682317972183, -0.02709643729031086, -0.03073860891163349, 0.02146970108151436, -0.00931378360837698, 0.09975861757993698, 0.07675661891698837, -0.14527179300785065, 0.05655047670006752, 0.03926556184887886, 0.08937568962574005], [0.16919206082820892, 0.05368760973215103, -0.040780339390039444, 0.12914252281188965, -0.006025043316185474, -0.12978026270866394, 0.004483131226152182, 0.036094170063734055, -0.02326350472867489, -0.1471613347530365, 0.04258904233574867, 0.06480664759874344, -0.08145437389612198, 0.16303522884845734, 0.22096525132656097, 0.055244266986846924, -0.1814270168542862, 0.051941849291324615, 0.08159370720386505, -0.04116108641028404, 0.21986788511276245, -0.07849304378032684, -0.00992591679096222, -0.18272697925567627], [-0.038544975221157074, -0.1370706856250763, 0.06407168507575989, -0.02788122557103634, -0.07042643427848816, 0.010227330029010773, -0.11191996932029724, 0.007266365457326174, -0.0051424819976091385, 0.014905337244272232, -0.06617580354213715, -0.05221705511212349, -0.07474923133850098, 0.04273856058716774, 0.03503298759460449, 0.07033166289329529, -0.03349365293979645, 0.03217707946896553, -0.015459184534847736, 0.041673727333545685, -0.13212555646896362, 0.04164150357246399, 0.01804487593472004, 0.01459441240876913], [-0.07649502158164978, -0.09415321797132492, -0.06241156905889511, 0.14587801694869995, -0.13196514546871185, 0.03359142690896988, 0.1177760437130928, -0.020117122679948807, 0.0621560700237751, -0.003263175953179598, 0.030846992507576942, -0.027018453925848007, 0.01818470098078251, 0.016371287405490875, 0.06557577103376389, -0.22821511328220367, 0.03286440297961235, -0.15873906016349792, 0.1401890367269516, -0.022817008197307587, -0.14887890219688416, -0.09696091711521149, 0.06751614809036255, 0.1408669650554657], [0.01720978319644928, 0.009152933023869991, 0.004862215835601091, -0.005086385644972324, 0.06433980911970139, -0.13403761386871338, -0.04644455015659332, -0.020618347451090813, -0.014744985848665237, 0.0009787839371711016, 0.07074467837810516, 0.1847706288099289, -0.0941188633441925, 0.1535119116306305, 0.13721144199371338, -0.03562372922897339, -0.07307352870702744, -0.18410943448543549, -0.18296171724796295, -0.03348270803689957, 0.037407614290714264, 0.025847965851426125, -0.00322412489913404, 0.047310858964920044], [-0.03972771018743515, -0.048071809113025665, -0.13214541971683502, 0.03876744583249092, 0.01689751073718071, -0.11665333807468414, 0.05771966651082039, 0.04383870214223862, -0.010888569988310337, -0.013896219432353973, 0.09954238682985306, 0.1086789071559906, -0.038795970380306244, 0.08948976546525955, 0.05244657024741173, -0.04172535240650177, -0.033637914806604385, 0.0018544982885941863, 0.14671559631824493, -0.11251260340213776, 0.07585935294628143, 0.1059618815779686, 0.010090405121445656, 0.08140780031681061], [0.0941423699259758, -0.02539716102182865, 0.014682674780488014, -0.0658118948340416, -0.1377183496952057, -0.08133818209171295, -0.20703433454036713, -0.14250655472278595, -0.1796935647726059, 0.013257583603262901, -0.05598709359765053, 0.0015303964028134942, 0.04432380944490433, -0.08363045006990433, -0.07355046272277832, -0.06513991206884384, -0.13568060100078583, -0.05757030099630356, -0.17571227252483368, 0.09200549870729446, -0.006188486702740192, 0.13612981140613556, -0.025587977841496468, -0.05240171402692795], [-0.044424209743738174, -0.15663781762123108, 0.13532869517803192, -0.09231653809547424, -0.060218289494514465, 0.18646776676177979, -0.07609928399324417, -0.008946320042014122, -0.0773545354604721, 0.14602643251419067, 0.08687087893486023, -0.10110829025506973, -0.028727229684591293, 0.09474248439073563, -0.10060601681470871, -0.25915583968162537, -0.12068545073270798, 0.061175137758255005, -0.09283025562763214, -0.014114039950072765, -0.08922548592090607, 0.09955241531133652, -0.0607265904545784, 0.14929203689098358], [-0.09111592173576355, 0.052947163581848145, 0.15334947407245636, -0.01796415075659752, -0.0071699474938213825, -0.09392748773097992, -0.06943664699792862, 0.04544829949736595, -0.1690683811903, -0.04830719530582428, 0.06734507530927658, 0.14850397408008575, 0.11758321523666382, -0.04373498633503914, -0.08255863934755325, -0.03658917546272278, 0.04921586811542511, -0.12238360196352005, -0.06338611245155334, -0.08804691582918167, 0.16447819769382477, 0.01979784481227398, -0.014449887908995152, -0.08222851157188416], [-0.062445610761642456, -0.09460602700710297, -0.015904640778899193, 0.14317965507507324, -0.049948252737522125, 0.06781678646802902, -0.07625813782215118, 0.013879619538784027, 0.08140847831964493, 0.036922842264175415, 0.09782836586236954, 0.04466674476861954, 0.04066695645451546, -0.015110344626009464, 0.04242755472660065, -0.16517409682273865, 0.09154786914587021, 0.09844660758972168, -0.07879502326250076, 0.07869621366262436, 0.11991631239652634, 0.011179372668266296, -0.03147885948419571, 0.07422132790088654], [0.03139534220099449, -0.038871657103300095, 0.026879023760557175, -0.2627783417701721, -0.14300717413425446, -0.05753505975008011, -0.028738275170326233, -0.016453679651021957, 0.0537811815738678, -0.06485791504383087, -0.12837916612625122, 0.030281011015176773, 0.013652579858899117, -0.05309469997882843, 0.007883504033088684, -0.045914191752672195, 0.06595323979854584, -0.2167736440896988, 0.09123005717992783, -0.21842698752880096, -0.04507937282323837, -0.07262717187404633, 0.05895838513970375, 0.005024841520935297], [-0.02270994521677494, 0.16941991448402405, 0.026624077931046486, 0.05571385845541954, -0.10016031563282013, 0.07406356185674667, 0.007481472101062536, 0.10493510216474533, -0.04140704497694969, -0.18043766915798187, -0.10436756908893585, -0.03253553807735443, 0.02569088153541088, -0.012375854887068272, -0.1175084188580513, 0.12407557666301727, 0.07056400924921036, 0.016835732385516167, 0.06872887164354324, 0.11606395244598389, -0.009193760342895985, 0.029507549479603767, 0.007241920102387667, -0.08527203649282455], [0.049186691641807556, -0.056032709777355194, 0.03784508258104324, -0.055824387818574905, 0.009000446647405624, 0.02400219812989235, 0.15871752798557281, 0.014826666563749313, 0.140782430768013, 0.029397640377283096, -0.015399332158267498, -0.034195464104413986, -0.1609436720609665, 0.07432562112808228, 0.026799995452165604, -0.018997853621840477, -0.1062564104795456, 0.06029421463608742, 0.06588917970657349, -0.132833793759346, 0.2609410285949707, -0.046083901077508926, -0.021227993071079254, 0.012723620049655437], [0.10207515954971313, -0.0746912956237793, 0.1519940197467804, -0.09733108431100845, 0.00871515553444624, -0.021006980910897255, -0.1485297828912735, 0.06897147744894028, 0.16483107209205627, -0.0011931487824767828, 0.14829176664352417, 0.08712182193994522, 0.09619563817977905, 0.008909816853702068, 0.15956880152225494, -0.042086608707904816, 0.022859027609229088, -0.07413947582244873, 0.10540129244327545, -0.20063824951648712, 0.013162133283913136, 0.08126545697450638, -0.034106429666280746, 0.08050180226564407], [-0.14928880333900452, -0.05371248349547386, -0.10757603496313095, 0.03247972950339317, -0.007265829481184483, -0.05968232825398445, 0.08172708749771118, -0.07952059060335159, 0.10432808846235275, 0.005143205169588327, 0.008056150749325752, -0.10168629139661789, 0.023532943800091743, 0.0946192666888237, 0.05495624244213104, 0.04538373649120331, -0.12996742129325867, 0.03871738538146019, -0.17858123779296875, -0.06359261274337769, 0.11352283507585526, -0.021220635622739792, 0.09699147939682007, 0.061066195368766785], [0.12120957672595978, 0.06576235592365265, 0.07064014673233032, -0.0652361661195755, -0.0827154740691185, -0.0813610702753067, 0.06910894811153412, 0.04228941351175308, 0.12327387928962708, -0.023667963221669197, 0.02995983138680458, -0.010915575549006462, 0.14491529762744904, -0.17467911541461945, 0.09463700652122498, 0.05892878770828247, 0.2126062512397766, -0.0626223012804985, -0.22695524990558624, 0.0840885117650032, -0.08287771791219711, -0.018666844815015793, 0.0441334992647171, -0.0041341520845890045], [0.0007233736105263233, -0.13713963329792023, 0.10361189395189285, 0.08393077552318573, -0.11895999312400818, -0.09697335958480835, 0.005813366733491421, 0.039757583290338516, 0.09691528230905533, -0.08776535093784332, -0.031442154198884964, -0.005689550191164017, 0.11181629449129105, 0.07646019756793976, -0.07539855688810349, -0.036366477608680725, -0.12251508235931396, -0.008304736576974392, -0.08438634127378464, 0.1424855887889862, 0.055332884192466736, 0.09692983329296112, 0.10458771884441376, 0.0872880071401596], [-0.05940381437540054, 3.2745199860073626e-05, -0.08781643211841583, 0.0067396038211882114, -0.11726190894842148, 0.0966319888830185, -0.004904407076537609, 0.002454651053994894, 0.006230559665709734, -0.15813931822776794, 0.1289825439453125, -0.1885366588830948, 0.028503384441137314, 0.0902213454246521, -0.0475156307220459, -0.0422537587583065, 0.0542326420545578, -0.0056650713086128235, 0.14794734120368958, 0.03652656078338623, 0.13674026727676392, 0.050095874816179276, -0.11819871515035629, -0.03165633603930473], [0.07734839618206024, 0.11264315992593765, 0.017476757988333702, 0.08310562372207642, 0.09092305600643158, -0.10058964043855667, 0.028049975633621216, 0.12132665514945984, 0.17604437470436096, -0.057476598769426346, 0.00873675849288702, -0.04619172215461731, 0.010198327712714672, -0.0395105704665184, 0.18556508421897888, 0.02787155658006668, -0.1787721961736679, -0.12436596304178238, -0.009368868544697762, 0.1336343139410019, -0.12408160418272018, 0.06689175963401794, -0.00480762030929327, 0.10247831791639328], [0.023501994088292122, -0.11456046253442764, -0.1986016035079956, -0.12954644858837128, 0.08555551618337631, -0.05065621808171272, 0.06560935080051422, -0.11647943407297134, -0.02159891277551651, -0.1973717212677002, 0.12115820497274399, 0.038298554718494415, 0.011838662438094616, -0.1047113910317421, -0.09272816777229309, -0.059091780334711075, -0.07663820683956146, -0.10444033145904541, 0.01422268245369196, 0.1441471427679062, 0.08181799203157425, -0.13855719566345215, -0.017211653292179108, -0.017521673813462257], [-0.07027535885572433, -0.09444404393434525, -0.042765408754348755, -0.03199097141623497, -0.07100369781255722, -0.0002547635231167078, 0.12467976659536362, -0.18677492439746857, 0.17791005969047546, 0.02907915599644184, 0.0928305834531784, -0.006909950636327267, 0.11278947442770004, -0.013294839300215244, 0.0966000184416771, 0.006389605812728405, -0.16195224225521088, 0.0171203650534153, -0.011864875443279743, -0.1599925309419632, 0.11878714710474014, 0.12783481180667877, -0.11231464147567749, -0.009464039467275143], [-0.0057572550140321255, -0.06114577874541283, 0.10143306106328964, 0.1340143084526062, 0.03215784952044487, -0.09560238569974899, 0.07527762651443481, -0.030508963391184807, 0.12454304099082947, -0.043406035751104355, -0.10839969664812088, 0.0007626557489857078, -0.004657013341784477, 0.08412201702594757, 0.07034792006015778, 0.017627960070967674, -0.0023428229615092278, 0.09553707391023636, -0.007188107818365097, 0.10114708542823792, -0.12947778403759003, 0.05184932053089142, -0.10492538660764694, -0.3699045777320862], [0.04884032905101776, 0.14606082439422607, 0.12004398554563522, -0.19705212116241455, -0.07780300080776215, 0.06998375058174133, 0.10245521366596222, -0.0863543227314949, -0.1080075055360794, -0.003409748198464513, -0.019523615017533302, -0.09546874463558197, -0.10460471361875534, -0.029498247429728508, 0.06608711183071136, -0.015345473773777485, -0.13386774063110352, -0.10711909830570221, 0.10507217794656754, -0.08462567627429962, -0.05552951246500015, -0.022156955674290657, -0.001388617092743516, 0.023484647274017334], [-0.029614193364977837, 0.07052607089281082, -0.1940242499113083, 0.07395348697900772, -0.021390432491898537, 0.003626549383625388, -0.04549526423215866, 0.036773137748241425, 0.02935970388352871, 0.05887588486075401, -0.029307227581739426, -0.01922720856964588, 0.10703133046627045, 0.0191328302025795, -0.1418081670999527, -0.023714082315564156, 0.12636224925518036, -0.10686329007148743, 0.05509225279092789, -0.16799476742744446, 0.03128517046570778, -0.007965385913848877, 0.018131107091903687, 0.0029720324091613293], [-0.017349902540445328, 0.040595658123493195, -0.06827425211668015, 0.04078458994626999, 0.03793669492006302, 0.06574325263500214, 0.09528564661741257, -0.04210064187645912, -0.05793313309550285, 0.02606666088104248, -0.03536990284919739, -0.030957553535699844, -0.08151257038116455, -0.11755141615867615, 0.086581289768219, -0.13785821199417114, -0.017022842541337013, -0.08938427269458771, -0.15898269414901733, -0.0598176009953022, 0.027972770854830742, -0.01189421582967043, 0.12293791025876999, -0.06112649291753769], [0.039267681539058685, 0.09010792523622513, -0.104834645986557, -0.03986096754670143, -0.03323516622185707, 0.07945442199707031, -0.034457191824913025, 0.01222991943359375, -0.04293676093220711, -0.09829407930374146, -0.036695696413517, 0.04445652291178703, -0.02385835535824299, 0.12031657248735428, 0.07033667713403702, -0.14152878522872925, 0.0371018648147583, 0.0242694653570652, 0.040994029492139816, 0.11588973551988602, -0.10724429041147232, -0.048627518117427826, 0.13057275116443634, -0.1395808905363083], [-0.09709347784519196, 0.2818484902381897, -0.05816243588924408, -0.049248114228248596, 0.022038128226995468, 0.025271296501159668, 0.08154840767383575, -0.015306864865124226, 0.019526716321706772, 0.07626139372587204, 0.09226498007774353, -0.03973086178302765, -0.05352889373898506, 0.055326808243989944, 0.11479374021291733, 0.0029314416460692883, 0.06707991659641266, 0.04647123068571091, 0.009264501743018627, 0.03280317783355713, 0.09889174997806549, 0.1017884835600853, 0.036687321960926056, 0.0018324522534385324], [-0.11418868601322174, -0.05523519217967987, -0.040225591510534286, 0.07155677676200867, 0.02260405197739601, -0.08629767596721649, -0.04069528356194496, 0.021263547241687775, 0.08919157832860947, 0.03905453160405159, 0.05802401900291443, 0.0023363775108009577, 0.03246413543820381, 0.10650823265314102, 0.06621242314577103, 0.05846463143825531, -0.05823981761932373, -0.21051836013793945, 0.11364348977804184, 0.06949029862880707, -0.044842030853033066, 0.0324927382171154, 0.009697601199150085, -0.09088952839374542], [0.07617869228124619, -0.09003950655460358, 0.012377366423606873, 0.2088049352169037, 0.12228602170944214, 0.11306537687778473, 0.15611548721790314, 0.2124285101890564, 0.0010705302702262998, -0.015423617325723171, -0.033432770520448685, 0.05759871006011963, -0.05727095529437065, 0.021060900762677193, -0.02945307455956936, -0.13747070729732513, 0.0038835846353322268, 0.03411154821515083, 0.10834317654371262, 0.02129621058702469, 0.012043517082929611, -0.07049954682588577, 0.04701654613018036, 0.04229168966412544], [-0.04884398728609085, -0.01269493903964758, 0.0926220715045929, -0.04929644614458084, 0.007635483518242836, -0.0703488364815712, -0.07855277508497238, -0.027672339230775833, -0.08706346154212952, -0.055040646344423294, -0.1483772248029709, 0.07298514246940613, -0.10721569508314133, 0.05035175010561943, 0.12171224504709244, -0.008642257191240788, 0.03410142660140991, 0.13625302910804749, 0.04699672758579254, 0.030726803466677666, 0.048048265278339386, 0.05479605868458748, -0.027929872274398804, -0.010126323439180851], [0.21759133040905, -0.150351881980896, 0.07686185836791992, -0.058342013508081436, 0.08940794318914413, -0.13602451980113983, -0.047558363527059555, 0.04157324507832527, 0.08432695269584656, -0.17113927006721497, 0.06782732903957367, -0.025997813791036606, 0.04840966314077377, -0.13519226014614105, -0.06503459811210632, 0.03397813066840172, -0.00707173440605402, 0.06450910866260529, -0.03797615319490433, 0.05627268925309181, 0.0405753031373024, 0.17714771628379822, -0.03483349457383156, 0.05521246790885925], [-0.11366669088602066, -0.00858598668128252, 0.07547514885663986, 0.15831930935382843, -0.10260076820850372, -0.13786505162715912, 0.05980971083045006, 0.0919329896569252, 0.052894242107868195, 0.07111930102109909, -0.16952241957187653, -0.2725847065448761, -0.0627158060669899, -0.08558401465415955, -0.17164084315299988, 0.15574169158935547, -0.017118234187364578, 0.014425492845475674, 0.152023047208786, 0.0431673601269722, -0.09523184597492218, 0.062047142535448074, 0.046631962060928345, -0.10201629251241684], [0.08455561101436615, 0.10540932416915894, 0.011185579933226109, 0.1921996772289276, -0.009325617924332619, 0.042109906673431396, -0.05872514843940735, -0.08979840576648712, 0.03243841603398323, 0.03217191621661186, -0.21738098561763763, 0.01510092243552208, -0.03474636375904083, 0.03721348196268082, 0.01334346178919077, 0.02311568520963192, 0.0094010503962636, 0.1493130922317505, -0.15537002682685852, -0.003522208658978343, 0.16565418243408203, 0.07154446095228195, 0.05946151912212372, 0.11776897311210632], [-0.014679377898573875, 0.012298500165343285, 0.08846555650234222, -0.14620791375637054, -0.1650167554616928, 0.05869987979531288, -0.024698104709386826, 0.0807301253080368, 0.09734570980072021, -0.1007351353764534, -0.042871881276369095, 0.00479039316996932, -0.11880861222743988, -0.036446712911129, -0.025383969768881798, 0.033839959651231766, -0.012207640334963799, -0.0938362330198288, 0.03191814944148064, -0.04641054943203926, 0.04433569684624672, -0.021602770313620567, -0.06960824877023697, -0.028356989845633507], [-0.0031617956701666117, 0.05701395496726036, -0.018167901784181595, 0.07692618668079376, -0.012160480953752995, 0.08688206970691681, 0.18408448994159698, -0.21141086518764496, 0.002594367368146777, 0.1692434847354889, 0.06467891484498978, -0.05822247266769409, -0.08731294423341751, 0.02545386552810669, 0.02201961539685726, -0.08837945759296417, -0.007154602091759443, -0.03739626705646515, 0.06637057662010193, 0.07484890520572662, -0.19569872319698334, 0.04601411148905754, 0.03642735630273819, -0.025686906650662422], [-0.04701773077249527, -0.15012644231319427, 0.0002806457341648638, -0.07560862600803375, 0.06921881437301636, -0.018267814069986343, 0.07274103909730911, 0.14512324333190918, 0.008109680376946926, 0.08391984552145004, -0.021441321820020676, -0.2259950041770935, 0.16193173825740814, -0.2401706874370575, 0.14179664850234985, 0.03447704017162323, -0.01680000312626362, -0.07391921430826187, -0.0620969757437706, 0.13084106147289276, -0.1472620666027069, 0.02033226564526558, 0.05977080017328262, 0.026894353330135345], [-0.06011936441063881, 0.07239368557929993, 0.07745146751403809, 0.09614978730678558, -0.02999802678823471, -0.02051417902112007, -0.1246456652879715, -0.05420345813035965, 0.028540126979351044, 0.031161464750766754, 0.080720454454422, 0.01957874558866024, 0.02653459459543228, 0.02233639545738697, 0.08501005917787552, -0.1029590368270874, 0.1076553612947464, -0.019217176362872124, 0.034006789326667786, -0.12902985513210297, 0.01874746009707451, 0.021398145705461502, 0.02755785547196865, 0.049279697239398956], [-0.13805904984474182, 0.011677263304591179, -0.018904605880379677, 0.018107285723090172, 0.09935694187879562, -0.042085785418748856, 0.2005309760570526, 0.07100671529769897, -0.12767887115478516, 0.09765876084566116, 0.1695159524679184, 0.12187938392162323, 0.02079053223133087, 0.05589677765965462, -0.03646373003721237, -0.020303621888160706, 0.054614875465631485, 0.024624010547995567, 0.03746376186609268, 0.09222397208213806, 0.014326563104987144, 0.1529649794101715, -0.021967753767967224, -0.02774190343916416], [0.06104562059044838, -0.015436812303960323, -0.04737156257033348, -0.03711695969104767, 0.017023159191012383, 0.03590051084756851, 0.08617973327636719, -0.06108161062002182, -0.08874394744634628, -0.05111270770430565, -0.018678687512874603, -0.07169190049171448, 0.014527907595038414, -0.0022517992183566093, 0.02827874757349491, 0.2074899971485138, 0.029095662757754326, -0.11966796964406967, -0.05663352459669113, 0.1120506003499031, 0.09346044063568115, -0.06415442377328873, -0.07826962321996689, 0.12528149783611298], [0.004878022242337465, 0.025034522637724876, 0.00627753185108304, 0.004195841494947672, -0.11468538641929626, -0.0070154317654669285, -0.019252492114901543, 0.2134549468755722, 0.08517714589834213, 0.05049854516983032, 0.16604827344417572, -0.02904854342341423, 0.02315162681043148, 0.08888515830039978, 0.05807286873459816, 0.14135311543941498, 0.1320461630821228, -0.0949370265007019, 0.004843418952077627, 0.10614427179098129, 0.034182775765657425, -0.09518694877624512, -0.1728179007768631, 0.07295190542936325], [-0.02287745662033558, -0.009081530384719372, 0.07452711462974548, 0.07244381308555603, -0.07043305784463882, -0.0018137418664991856, -0.05022886395454407, -0.11699904501438141, -0.07497704774141312, 0.08345703035593033, -0.12592481076717377, 0.05297304317355156, 0.001308779581449926, -0.09749161452054977, -0.044662121683359146, -0.017361126840114594, 0.038895074278116226, -0.087869793176651, 0.03221341595053673, -0.011822553351521492, 0.03608620539307594, -0.12575528025627136, -0.04938855022192001, 0.06682338565587997], [-0.05096441134810448, 0.121668241918087, -0.00380605086684227, -0.020759036764502525, 0.09794341772794724, -0.18433716893196106, 0.08386798948049545, -0.11462604254484177, 0.04468463733792305, -0.022758031263947487, 0.0602482408285141, 0.05329367518424988, -0.046557992696762085, 0.1156693771481514, -0.03669792041182518, 0.12351909279823303, 0.002304656431078911, 0.1710236817598343, -0.08133168518543243, 0.1285383701324463, 0.07684480398893356, 0.1418108493089676, 0.040454696863889694, 0.04040004312992096], [-0.01584186963737011, 0.06172524392604828, 0.1030440554022789, 0.06313133984804153, 0.01816195249557495, 0.1106153279542923, -0.04385967180132866, -0.07244472205638885, -0.040480419993400574, -0.15593403577804565, 0.16114461421966553, 0.03753934055566788, -0.00037817953852936625, -0.09772543609142303, -0.07509426772594452, 0.22895634174346924, 0.022842811420559883, -0.055021982640028, 0.0519617460668087, -0.03706176578998566, 0.1574702113866806, 0.050442200154066086, 0.22190342843532562, -0.04413660988211632], [0.10037848353385925, -0.014183386228978634, -0.028630994260311127, -0.16065670549869537, 0.02760475128889084, 0.04528087377548218, 0.025998324155807495, 0.08516903221607208, -0.040926218032836914, -0.06138378009200096, -0.0005314896116033196, -0.10722115635871887, 0.14647367596626282, 0.14906655251979828, 0.015370874665677547, 0.023483766242861748, -0.00013485400995705277, 0.1384587287902832, -0.1195778176188469, -0.14667972922325134, -0.08170542120933533, 0.007711448241025209, -0.03643369674682617, -0.04448334127664566], [-0.020101407542824745, 0.08456218987703323, 0.06276506930589676, 0.06599868834018707, -0.07927858084440231, -0.030836109071969986, 0.07449814677238464, -0.0019386513158679008, -0.047050297260284424, 0.03437012806534767, -0.060640934854745865, 0.020537205040454865, 0.08517976850271225, 0.02432957850396633, 0.0011440744856372476, -0.04447183758020401, -0.04384516552090645, 0.05388475954532623, 0.06729205697774887, -0.038811273872852325, -0.0540773831307888, 0.19561506807804108, 0.018353590741753578, -0.0349731482565403], [-0.008727030828595161, 0.08292366564273834, 0.003939369693398476, -0.08294974267482758, 0.14535340666770935, 0.02652888558804989, 0.04872489720582962, -0.06544776260852814, 0.0009602129575796425, -0.031460098922252655, -0.06239410862326622, 0.10788487643003464, -0.11899878829717636, -0.05767600238323212, 0.03340806066989899, -0.027878444641828537, -0.07616797089576721, -0.17343343794345856, -0.01847892999649048, -0.006703794933855534, -0.006607068236917257, -0.06537923961877823, 0.017652997747063637, 0.07599978148937225], [0.09688857942819595, 0.09784204512834549, 0.11729200184345245, -0.034107498824596405, -0.030555138364434242, -0.11361292749643326, 0.02066204696893692, 0.14760954678058624, -0.19225268065929413, 0.1099407821893692, -0.09773093461990356, -0.12211308628320694, -0.04626258462667465, 0.05869191139936447, -0.024279603734612465, -0.012248954735696316, 0.0727011114358902, -0.04557782784104347, -0.010036989115178585, 0.053346164524555206, 0.12824362516403198, 0.041163668036460876, 0.024832624942064285, 0.04643284156918526], [0.1389545351266861, 0.15791940689086914, -0.009131397120654583, -0.1215536892414093, 0.16045600175857544, -0.003591452958062291, -0.009367143735289574, 0.0602317750453949, -0.12214116007089615, 0.07828129827976227, -0.08277680724859238, 0.04394954442977905, 0.0630672499537468, -0.02845817618072033, 0.1476753205060959, 0.0676472932100296, -0.07146994769573212, -0.0044616456143558025, -0.025485428050160408, -0.04122191667556763, -0.14620034396648407, 0.00027743412647396326, -0.047162458300590515, 0.0731702372431755], [0.1143021509051323, -0.10235410928726196, -0.06351223587989807, 0.0817330926656723, 0.06993518024682999, -0.055626191198825836, 0.0076995473355054855, 0.04864093288779259, -0.08822526782751083, -0.12807965278625488, 0.09389012306928635, -0.03991760313510895, -0.0023243683390319347, 0.1638239473104477, -0.1630222499370575, 0.05287281051278114, 0.03944455087184906, -0.11414866149425507, -0.1114111840724945, 0.036315128207206726, -0.033804215490818024, 0.06829466670751572, 0.06273320317268372, -0.2175026684999466], [-0.0028788757044821978, 0.026980647817254066, -0.01445138268172741, 0.15351934731006622, -0.05682048201560974, 0.06007571145892143, -0.08062442392110825, 0.06186146289110184, 0.0008598387939855456, 0.14543816447257996, 0.039941322058439255, 0.010988002642989159, -0.05700599029660225, 0.09852425009012222, -0.14622363448143005, 0.0481194444000721, 0.08443733304738998, 0.11618642508983612, -0.13888534903526306, 0.17897480726242065, -0.11491997539997101, -0.0046407077461481094, -0.09649251401424408, 0.14365720748901367], [0.03841506689786911, -0.006750354077666998, -0.07200539112091064, -0.05453035607933998, 0.0022497018799185753, 0.1315797120332718, -0.0327032245695591, -0.013050376437604427, -0.02480396442115307, 0.10332946479320526, -0.031727444380521774, 0.12165151536464691, 0.10888010263442993, 0.09936456382274628, -0.18312981724739075, -0.17943982779979706, 0.028358707204461098, 0.022605950012803078, 0.17871712148189545, 0.032073069363832474, -0.09963730722665787, -0.16757792234420776, -0.005455009173601866, -0.09532743692398071], [-0.05466734990477562, -0.03343990072607994, 0.11380227655172348, 0.13500747084617615, -0.08773268759250641, 0.04733004420995712, 0.18327274918556213, -0.04919993504881859, 0.0312202125787735, -0.011643010191619396, 0.04649066552519798, 0.036064065992832184, 0.022547435015439987, -0.08062254637479782, 0.0075384085066616535, -0.023246141150593758, -0.055589549243450165, -0.09105506539344788, -0.21277515590190887, -0.08491619676351547, -0.010937950573861599, -0.013972746208310127, -0.01389181800186634, -0.05979570001363754], [0.06304305046796799, 0.08501944690942764, -0.03225430101156235, -0.0058466712944209576, -0.1993965059518814, -0.08183056116104126, 4.0172351873479784e-05, 0.0003558269527275115, 0.11567100882530212, 0.002023025183007121, -0.0457659587264061, 0.04705885052680969, 0.040377240628004074, 0.013202452100813389, -0.07767772674560547, 0.009914600290358067, -0.09775198996067047, -0.028846316039562225, 0.01468660682439804, -0.004895334132015705, -0.0037268102169036865, -0.09122226387262344, 0.03365980461239815, 0.22776728868484497], [-0.016834359616041183, -0.05850040540099144, -0.1702839434146881, 0.19961825013160706, 0.08503635227680206, -0.08989092707633972, -0.01594923809170723, -0.05645187571644783, 0.022022880613803864, -0.20873059332370758, -0.05090838298201561, -0.025439588353037834, 0.0017795038875192404, -0.09431524574756622, 0.03339066356420517, 0.0775727927684784, 0.03588065505027771, 0.010441944003105164, 0.024180663749575615, -0.011605150997638702, -0.12622720003128052, -0.13593485951423645, 0.045260608196258545, 0.06651376187801361], [-0.05116458982229233, 0.12143953889608383, -0.16081924736499786, -0.0234509389847517, -0.0937182754278183, -0.08515619486570358, -0.10818897187709808, 0.14496633410453796, 0.03586949035525322, -0.06488748639822006, 0.1122480258345604, -0.02902132272720337, -0.13454028964042664, -0.009221361950039864, -0.01009406615048647, -0.05040242522954941, 0.012013277970254421, 0.021453991532325745, -0.12935729324817657, -0.037315454334020615, -0.10744541883468628, 0.024468429386615753, 0.07718314230442047, -0.2548180818557739], [-0.03809349238872528, 0.1249639093875885, -0.16514863073825836, 0.13151919841766357, 0.09581010788679123, 0.11956627666950226, -0.17351022362709045, -0.07058100402355194, 0.04221345856785774, -0.12288974970579147, 0.10047230869531631, 0.0322759784758091, 0.03529563546180725, -0.11523611843585968, 0.002667077351361513, 0.050998516380786896, 0.08297260850667953, -0.02582898922264576, 0.13063237071037292, -0.005770730786025524, 0.01240366417914629, -0.16789069771766663, -0.03494710475206375, -0.0005127873737365007], [0.009128434583544731, -0.019215457141399384, -0.03884509205818176, 0.11728737503290176, 0.004633745644241571, 0.03886115923523903, -0.06873947381973267, 0.05087032914161682, -0.08948738873004913, 0.08231491595506668, -0.0630352571606636, -0.033030956983566284, -0.09933799505233765, 0.13498835265636444, -0.030316170305013657, -0.02063715271651745, -0.09467665106058121, -0.15910016000270844, -0.050778478384017944, -0.10267620533704758, 0.08832672983407974, -0.14066648483276367, -0.03326593339443207, -0.1073877364397049], [0.05650610849261284, 0.04910563305020332, -0.1417960375547409, 0.004634674172848463, 0.044641099870204926, 0.10005849599838257, -0.16022053360939026, -0.03615189343690872, 0.05435911566019058, 0.08395753800868988, 0.07108508050441742, 0.05973771959543228, -0.16047213971614838, -0.10055074095726013, 0.016226602718234062, 0.021211618557572365, 0.05603419989347458, -0.09317583590745926, -0.026591859757900238, -0.022015845403075218, -0.12362580746412277, -0.010647576302289963, 0.018717439845204353, 0.07426804304122925], [0.05915448069572449, 0.11160144954919815, 0.07343395054340363, -0.07917472720146179, 0.03935794159770012, -0.02666550502181053, -0.008963402360677719, 0.007643441203981638, -0.044420089572668076, 0.036990437656641006, -0.027695445343852043, -0.053594790399074554, -0.10539672523736954, 0.07965800166130066, 0.08530880510807037, 0.01415196992456913, 0.0394597053527832, -0.02172619104385376, 0.0895371288061142, 0.12722772359848022, -0.04563416168093681, 0.0783662274479866, 0.05477039888501167, -0.04117743670940399], [0.10718614608049393, 0.07599522918462753, -0.0726282149553299, 0.0367409773170948, -0.15788967907428741, 0.005646613892167807, 0.012044060043990612, -0.157895028591156, 0.09697888791561127, -0.12056427448987961, -0.023173067718744278, -0.005189415067434311, 0.005556340795010328, -0.06641759723424911, -0.061087142676115036, 0.009333874098956585, 0.0003368733450770378, 0.12930071353912354, -0.016846178099513054, -0.06475892663002014, 0.09985971450805664, 0.024749990552663803, 0.110527902841568, 0.04904606193304062], [0.07654725015163422, -0.020406827330589294, 0.037670426070690155, -0.06550131738185883, 0.11164331436157227, 0.055174943059682846, -0.03411577269434929, 0.14454840123653412, -0.19342993199825287, 0.11800239980220795, 0.001784054678864777, 0.029714416712522507, 0.09434622526168823, -0.20436513423919678, -0.0421377532184124, 0.04991762340068817, -0.01317648682743311, -0.09122712910175323, 0.12185941636562347, -0.027946200221776962, 0.011289113201200962, 0.02647910825908184, -0.0982549861073494, -0.09554751217365265], [-0.17314422130584717, 0.05205424875020981, -0.014466086402535439, -0.0028168363496661186, 0.013352492824196815, -0.06486138701438904, -0.10648427903652191, -0.17611074447631836, -0.2316577434539795, -0.008340895175933838, 0.07640457898378372, -0.12135934829711914, -0.05224243924021721, -0.06323444843292236, 0.004502074792981148, 0.046056196093559265, -0.11121772229671478, -0.04956252500414848, 0.14189133048057556, 0.07312142848968506, 0.11819101870059967, 0.007664994336664677, -0.07122277468442917, 0.09462491422891617], [0.019213441759347916, -0.004442920908331871, 0.05985968932509422, 0.029856979846954346, -0.02785554900765419, -0.09377472847700119, 0.1770954728126526, 0.005557759664952755, 0.1726856529712677, -0.0012238809140399098, 0.03002488799393177, 0.19862504303455353, -0.014933341182768345, 0.17141298949718475, -0.21508120000362396, -0.047329556196928024, 0.09086578339338303, 0.028319813311100006, 0.017008084803819656, 0.07399675995111465, -0.09558874368667603, -0.08415388315916061, -0.11441885679960251, -0.0529056154191494], [0.040524885058403015, 0.04960450530052185, 0.056819409132003784, -0.020954355597496033, 0.053942710161209106, 0.07873708009719849, 0.09136400371789932, -0.1289954036474228, 0.022560952231287956, -0.03868000954389572, 0.04915113002061844, -0.05578475072979927, 0.05019010603427887, -0.09211260825395584, -0.015153590589761734, -0.05820651352405548, -0.059313107281923294, -0.09342809021472931, -0.02117803879082203, -0.05259402468800545, 0.02557847462594509, 0.08405504375696182, 0.021109599620103836, -0.0999661386013031], [0.005020533222705126, -0.033088892698287964, 0.019393976777791977, -0.09164685755968094, -0.12845821678638458, 0.06880415230989456, 0.05756978690624237, 0.05904591456055641, -0.0389462485909462, -0.10432016849517822, 0.057729221880435944, -0.03536394238471985, -0.044162649661302567, 0.11037545651197433, -0.10619872063398361, -0.10657572001218796, 0.06874525547027588, -0.12974177300930023, -0.15551821887493134, -0.06684142351150513, 0.11836858838796616, -0.10038796067237854, 0.07126122713088989, -0.0700085237622261], [0.17583633959293365, -0.09705571830272675, -0.0803382620215416, 0.07124397903680801, -0.12511828541755676, -0.04319791868329048, -0.13023781776428223, -0.04061616212129593, 0.14949287474155426, -0.014427315443754196, 0.05035238340497017, 0.11461497098207474, -0.18512874841690063, -0.018084369599819183, 0.12763920426368713, 0.003920975141227245, -0.10055094212293625, 0.011635040864348412, -0.030859801918268204, -0.04756685718894005, -0.009322027675807476, 0.07776422053575516, 0.04333299770951271, -0.1349828839302063], [0.029033390805125237, -0.07713931798934937, 0.033652398735284805, 0.002167547820135951, -0.04936009645462036, 0.09039152413606644, 0.017786206677556038, -0.011790959164500237, 0.07139938324689865, 0.06356276571750641, 0.018704349175095558, -0.015947751700878143, 0.0945115014910698, -0.009328538551926613, -0.12999042868614197, 0.018662532791495323, 0.09068428725004196, -0.03108225017786026, -0.07512088119983673, -0.051508914679288864, -0.1298772394657135, 0.09313583374023438, -0.035934027284383774, 0.015213721431791782], [-0.009688416495919228, 0.024853797629475594, 0.07630887627601624, -0.18454399704933167, -0.07769011706113815, -0.05820724368095398, 0.07086783647537231, -0.010972601361572742, -0.04055573418736458, -0.08068361133337021, -0.15332867205142975, -0.10332219302654266, -0.021760793402791023, 0.0867689922451973, 0.009841338731348515, -0.13136781752109528, 0.03861706331372261, -0.03410051390528679, 0.03060767985880375, 0.03878924250602722, -0.04991927370429039, 0.06573131680488586, -0.12014011293649673, -0.03679560497403145], [-0.05951134115457535, -0.013825738802552223, -0.03280804306268692, -0.19857731461524963, 0.1315460056066513, 0.09212875366210938, -0.16691328585147858, -0.10176750272512436, 0.12622900307178497, -0.06325232237577438, 0.13925786316394806, -0.2909366488456726, 0.08224864304065704, -0.04527156054973602, -0.013795076869428158, 0.027896294370293617, -0.026710251346230507, 0.008873619139194489, -0.03969581797719002, 0.11422242224216461, 0.10517503321170807, -0.06307252496480942, -0.05529063194990158, -0.14127802848815918], [0.07663094997406006, -0.005446865689009428, 0.13151732087135315, -0.12546247243881226, 0.02400214597582817, 0.06235805153846741, 0.0952644944190979, -0.01355857402086258, 0.015017902478575706, -0.17544697225093842, -0.03372049704194069, 0.025590267032384872, -0.10622096061706543, 0.10552744567394257, -0.07096491754055023, -0.002343113301321864, 0.1250970959663391, 0.15135584771633148, 0.11566933244466782, -0.054912813007831573, 0.05805037543177605, -0.02866961434483528, -0.03265649825334549, 0.04441405460238457], [0.11555027216672897, -0.018580324947834015, 0.05371297150850296, 0.08368292450904846, 0.016815954819321632, 0.01603328064084053, -0.061359792947769165, 0.026218026876449585, 0.08443307876586914, 0.037424515932798386, -0.044710922986269, -0.07031810283660889, 0.09734529256820679, -0.0683385580778122, 0.1109139546751976, 0.05905359983444214, -0.06573934108018875, 0.06650996953248978, 0.08676255494356155, 0.016016580164432526, -0.11994654685258865, -0.04677993431687355, 0.08515661209821701, 0.015820203348994255], [0.04376392439007759, 0.12127090245485306, 0.02548668161034584, 0.02888065204024315, 0.038965966552495956, 0.0042544458992779255, 0.022818129509687424, -0.1353873759508133, 0.1596352458000183, 0.1506250500679016, 0.047970905900001526, -0.03920413553714752, 0.08088098466396332, 0.10788360238075256, 0.005110905040055513, -0.01914876326918602, 0.12143214046955109, -0.08395615220069885, -0.23076964914798737, 0.08645492792129517, 0.03599093109369278, -0.13404259085655212, 0.05925707891583443, -0.07232046127319336], [-0.02587874047458172, 0.1440373957157135, 0.04420122131705284, 0.015018531121313572, 0.001600970863364637, 0.10683096200227737, 0.13741302490234375, 0.284101665019989, -0.05352461338043213, -0.027470311149954796, -0.076082244515419, -0.03442111611366272, -0.0888565257191658, 0.02138754352927208, -0.006872046738862991, -0.1063230037689209, 0.019777150824666023, -0.14584758877754211, -0.021352427080273628, 0.0704122856259346, 0.12846095860004425, -0.1414051055908203, 0.11446531862020493, -0.10926910489797592], [-0.004040375351905823, 0.13279587030410767, 0.10769512504339218, 0.07828299701213837, -0.052421923726797104, 0.05971229821443558, 0.11702538281679153, -0.04183800145983696, 0.13588955998420715, -0.07640383392572403, 0.04714777693152428, 0.001510589849203825, -0.07657031714916229, -0.12550444900989532, 0.013118738308548927, -0.109681636095047, -0.038909245282411575, 0.1443294882774353, -0.06624463200569153, 0.23490028083324432, -0.14094892144203186, 0.0808999240398407, 0.07482302933931351, -0.026329638436436653], [-0.005560846067965031, -0.11345486342906952, 0.07961220294237137, 0.13991396129131317, -0.02614237554371357, 0.02443987876176834, -0.1631666123867035, -0.006601064465939999, -0.08931168913841248, -0.031133582815527916, -0.1704484224319458, 0.07824577391147614, -0.025131024420261383, -0.07909311354160309, -0.09290537238121033, 0.0908946543931961, 0.027016179636120796, 0.08106277883052826, 0.04623350501060486, 0.08283182978630066, -0.1439160853624344, 0.1122792512178421, -0.04324006289243698, 0.0116331921890378], [-0.06274497509002686, -0.03083043359220028, -0.024475451558828354, -0.037319038063287735, 0.15968482196331024, -0.11910666525363922, 0.07073917984962463, -0.03061125986278057, -0.08183280378580093, -0.04519607871770859, 0.02807547152042389, -0.04447202757000923, -0.07424555718898773, 0.1636020690202713, -0.13151587545871735, -0.07298922538757324, 0.014990676194429398, 0.11224330216646194, -0.1025678962469101, -0.07995505630970001, -0.002655806252732873, 0.05871371924877167, -0.03054186888039112, 0.015784408897161484], [0.02792837843298912, -0.007678290829062462, -0.05084652826189995, 0.014788486063480377, -0.11407651752233505, -0.008369161747395992, 0.15377599000930786, -0.0003295392671134323, -0.07562161237001419, -0.047545164823532104, 0.014308027923107147, 0.05352889001369476, -0.04334612190723419, -0.0743551105260849, 0.06266620755195618, 0.11977303773164749, 0.06101561337709427, 0.04937583953142166, 0.04269156977534294, -0.039834413677453995, -0.09528019279241562, 0.05458580330014229, -0.12722247838974, -0.0565732978284359], [0.06374837458133698, -0.03653572499752045, -0.036078207194805145, -0.08959368616342545, 0.0074318484403193, 0.13186505436897278, -0.012228519655764103, -0.14576144516468048, 0.013380597345530987, -0.1485624611377716, -0.038740646094083786, 0.038693178445100784, -0.07326101511716843, 0.12201846390962601, 0.013449628837406635, 0.012338930740952492, 0.17498473823070526, 0.04112863913178444, -0.0009424578165635467, -0.040819719433784485, 0.025493107736110687, -0.053129710257053375, -0.11112983524799347, -0.04627961292862892], [-0.01411763671785593, 0.08127244561910629, 0.017071740701794624, 0.09108568727970123, 0.01598925143480301, -0.10931132733821869, -0.08202114701271057, 0.1208542138338089, 0.0032175832893699408, 0.11588409543037415, -0.05322251468896866, 0.05183626338839531, -0.05141895264387131, 0.06378831714391708, 0.06537655740976334, -0.04693764075636864, 0.07930496335029602, -0.07512263208627701, 0.15313507616519928, -0.020758362486958504, -0.08758626133203506, -0.0029807393439114094, 0.043489035218954086, 0.2195746749639511], [0.0873519629240036, -0.0427861250936985, -0.10438860207796097, 0.07715339213609695, 0.16208747029304504, -0.05710817128419876, -0.029959961771965027, -0.04188884422183037, 0.023838508874177933, 0.04385910555720329, 0.009426922537386417, 0.03401029482483864, 0.045377060770988464, -0.21532730758190155, -0.004502838011831045, 0.013147268444299698, 0.07396993041038513, -0.04786132648587227, -0.03081810660660267, 0.01297674048691988, 0.15541169047355652, 0.026223380118608475, -0.010602748021483421, -0.08141068369150162], [-0.03728026524186134, 0.030065452679991722, 0.03884028270840645, 0.046093955636024475, 0.10004379600286484, -0.10253915190696716, -0.036739565432071686, 0.13643136620521545, -0.09435125440359116, 0.02406267262995243, -0.1163255050778389, 0.04393063485622406, -0.049460943788290024, -0.05743935704231262, -0.19507960975170135, 0.04430588707327843, 0.16530191898345947, 0.13593700528144836, -0.0593460351228714, 0.031818121671676636, 0.009881625883281231, 0.05746873840689659, 0.019492821767926216, -0.08529174327850342], [-0.045545145869255066, -0.0986618921160698, -0.044730205088853836, 0.10129021108150482, -0.01953548565506935, 0.021453961730003357, -0.10280260443687439, 0.04374963045120239, 0.060058120638132095, -0.0999201238155365, -0.0924123153090477, 0.08966191858053207, 0.1741276979446411, 0.21474017202854156, 0.17408277094364166, -0.09456851333379745, -0.15052539110183716, -0.0057167899794876575, 0.1204783096909523, -0.06368698179721832, 0.056724388152360916, -0.0823252722620964, 0.026516184210777283, -0.009663272649049759], [0.09450175613164902, 0.02936711348593235, -0.1447836011648178, 0.008932341821491718, 0.11061468720436096, -0.05845785140991211, -0.011245785281062126, 0.015325784683227539, 0.14328330755233765, 0.0657089501619339, -0.007166039198637009, -0.059970758855342865, -0.08185146003961563, -0.05746512860059738, -0.0632869154214859, -0.11058973520994186, -0.0585675984621048, -0.1086840033531189, -0.013902436941862106, 0.033308763056993484, 0.029035352170467377, 0.03239030763506889, 0.09342648833990097, -0.018352283164858818], [-0.003287479979917407, 0.027731293812394142, 0.01280320342630148, -0.0165582112967968, -0.023928994312882423, -0.05422287434339523, -0.20917631685733795, 0.07740229368209839, 0.12198114395141602, -0.08083481341600418, 0.10094528645277023, -0.09406574815511703, -0.14408116042613983, -0.034614261239767075, -0.12743890285491943, -0.06425714492797852, -0.03593244403600693, 0.06406211853027344, 0.042075835168361664, -0.0010690708877518773, -0.07132218778133392, 0.03744350001215935, -0.09128459542989731, -0.08681821078062057], [-0.06866347044706345, 0.07605046778917313, 0.1610783040523529, -0.14712092280387878, 0.13076776266098022, 0.03253283351659775, 0.04751414805650711, -0.06710244715213776, -0.09561584144830704, -0.022419629618525505, 0.07116268575191498, 0.063254714012146, 0.12418381124734879, -0.031317658722400665, -0.024555159732699394, -0.00022150870063342154, -0.08840560168027878, -0.04930420592427254, 0.03185972943902016, 0.024769622832536697, -0.1397988200187683, -0.02309873141348362, -0.10679370909929276, -0.09972798079252243], [-0.1285458356142044, -0.07659388333559036, 0.16394837200641632, 0.16400296986103058, 0.019424213096499443, -0.05741438269615173, 0.005435775965452194, -0.06085151433944702, 0.11920538544654846, 0.018423965200781822, 0.115735724568367, -0.18758079409599304, -0.025234535336494446, 0.05807299539446831, -0.14936046302318573, -0.031492218375205994, 0.14436259865760803, -0.10229919105768204, -0.051952894777059555, -0.041003260761499405, 0.023597558960318565, 0.02362610027194023, -0.018405243754386902, 0.012422403320670128], [-0.041825197637081146, 0.11561477184295654, 0.026983944699168205, 0.06297755986452103, 0.028142135590314865, -0.08253943920135498, 0.021880952641367912, -0.06552326679229736, -0.08490130305290222, 0.04394065588712692, -0.11380921304225922, -0.14772406220436096, -0.16730356216430664, -0.08917098492383957, 0.013539916835725307, -0.07251095771789551, 0.017010070383548737, -0.009890459477901459, -0.02184758521616459, -0.04200423136353493, 0.0817236453294754, -0.004733001347631216, 0.048276387155056, 0.04005925729870796], [0.18263621628284454, 0.08517660945653915, 0.08357272297143936, 0.016281133517622948, -0.10944099724292755, 0.03375034034252167, -0.03541845083236694, -0.0018140141619369388, -0.009356113150715828, 0.11959425359964371, 0.10307251662015915, -0.11454129964113235, 0.05162100866436958, 0.02658766694366932, -0.013060093857347965, -0.04280288517475128, 0.01584002934396267, 0.055143631994724274, -0.0007427134551107883, 0.14859439432621002, -0.0036363694816827774, 0.08784069865942001, 0.04369311034679413, -0.019849743694067], [0.06089700385928154, 0.06250528991222382, -0.011612785048782825, 0.14036796987056732, 0.07079702615737915, 0.2137732356786728, -0.15946656465530396, -0.04865778610110283, -0.0458584763109684, 0.06720121204853058, 0.2897968590259552, 0.08830338716506958, -0.02888415940105915, -0.016394823789596558, 0.030081989243626595, 0.021279320120811462, -0.007014860399067402, 0.041015420109033585, -0.02493869699537754, -0.09387599676847458, -0.01615080051124096, 0.11099258065223694, -0.05570200830698013, 0.13308797776699066], [0.10015513747930527, -0.04424840211868286, 0.01799994893372059, -0.06674057245254517, 0.013482533395290375, 0.0076416656374931335, 0.04433213174343109, -0.07807356864213943, -0.12264426052570343, 0.03762149438261986, 0.07036339491605759, 0.020861783996224403, 0.04528128728270531, -0.025465456768870354, 0.07347533106803894, 0.048883385956287384, -0.01623670756816864, -0.08464384078979492, -0.0665445625782013, 0.032357584685087204, 0.15152977406978607, 0.12360596656799316, -0.03776111826300621, 0.17957720160484314], [-0.0902276486158371, -0.020312095060944557, -0.036943014711141586, 0.16001203656196594, -0.06359060108661652, 0.16994190216064453, -0.020782560110092163, 0.012508131563663483, 0.10124680399894714, 0.11627528071403503, -0.028407391160726547, 0.07743409276008606, 0.038825273513793945, 0.03177495300769806, -0.043377555906772614, 0.08179367333650589, -0.10830150544643402, -0.07809661328792572, -0.1428733617067337, -0.021545443683862686, 0.14141732454299927, -0.05598284304141998, 0.0029852509032934904, -0.1556362509727478], [0.09192831814289093, -0.010520684532821178, -0.04450967162847519, 0.06172842159867287, 0.000804190814960748, 0.09907220304012299, 0.10517984628677368, 0.010930127464234829, 0.049344468861818314, -0.04976845160126686, -0.16433800756931305, 0.0482429601252079, 0.1349649280309677, -0.07774031907320023, 0.06469254940748215, 0.023434635251760483, -0.12293540686368942, 0.09002036601305008, -0.10477356612682343, 0.03210502490401268, 0.10218286514282227, -0.10295131057500839, -0.005097561981528997, -0.07530677318572998], [-0.0646846666932106, 0.05426261946558952, 0.009849988855421543, -0.08549673110246658, 0.02333114668726921, -0.012518370524048805, -0.08969704061746597, 0.016647225245833397, 0.0503738671541214, -0.0567789264023304, 0.015665989369153976, -0.061113812029361725, -0.012520906515419483, 0.01427028700709343, 0.10436339676380157, 0.03110688179731369, 0.15618500113487244, -0.04040834680199623, -0.19756463170051575, -0.06604906171560287, -0.027683760970830917, -0.03049679659307003, 0.011818514205515385, -0.07694239169359207], [0.09236878156661987, -0.06043212488293648, -0.061340782791376114, -0.023763690143823624, -0.02551477588713169, -0.028628848493099213, -0.1851748377084732, -0.009225846268236637, 0.008296126499772072, -0.08903200924396515, -0.17409324645996094, -0.09087663143873215, -0.05774228274822235, 0.01376871857792139, -0.07422000169754028, -0.22172941267490387, -0.051740724593400955, 0.018892792984843254, -0.06644463539123535, -0.0022925592493265867, -0.13182173669338226, -0.0805835947394371, 0.12410058826208115, -0.002825025934726], [0.016982965171337128, 0.07845462113618851, -0.01718134619295597, 0.026653138920664787, -0.03435859829187393, 0.04950641840696335, 0.14981137216091156, 0.05210040509700775, 0.09502706676721573, 0.1225847601890564, 0.0347810722887516, 0.028438424691557884, -0.026788199320435524, -0.1658184975385666, 0.0015266695991158485, -0.06619849056005478, -0.13414202630519867, 0.10522495955228806, 0.007989882491528988, 0.11038779467344284, 0.1298150271177292, -0.015627283602952957, -0.13043852150440216, 0.029610175639390945], [-0.13891193270683289, 0.017172742635011673, 0.07124284654855728, 0.02776845544576645, 0.0644712895154953, 0.010001547634601593, -0.04893936216831207, -0.15543504059314728, -0.031491681933403015, -0.06541089713573456, 0.051107052713632584, -0.029122553765773773, -0.019618922844529152, 0.00392816262319684, -0.12057720869779587, 0.041769251227378845, 0.019191190600395203, -0.20831060409545898, -0.04545731842517853, 0.12452948838472366, -0.08391913026571274, 0.05220174044370651, -0.0719352588057518, 0.07344114780426025], [0.14507950842380524, -0.08462746441364288, 0.09333108365535736, 0.07007841020822525, 0.11175599694252014, -0.1155041828751564, -0.07912293076515198, 0.04422544315457344, 0.15820489823818207, 0.02711929939687252, 0.08386572450399399, -0.019294526427984238, -0.04792116582393646, -0.15502507984638214, -0.10135813057422638, -0.007432122249156237, 0.06944303214550018, -0.1482360064983368, -0.10152821987867355, -0.1530836820602417, 0.027529126033186913, -0.15051084756851196, -0.03772149980068207, 0.05684325098991394], [-0.05073407664895058, 0.11793230473995209, -0.07050229609012604, -0.07396140694618225, -0.08641756325960159, -0.07779018580913544, -0.051430538296699524, 0.2689635157585144, -0.047546084970235825, 0.09977148473262787, 0.059866417199373245, 0.03805011510848999, -0.062240805476903915, 0.048574600368738174, -0.007984470576047897, -0.07955960184335709, -0.014661489985883236, -0.056852031499147415, 0.043973371386528015, -0.12495287507772446, -0.15207184851169586, 0.08246500045061111, -0.007137893699109554, -0.08751600980758667], [-0.07834514230489731, -0.005010431632399559, -0.13477927446365356, -0.0011480656685307622, 0.016529399901628494, -0.03692945837974548, 0.06573498249053955, -0.0740036740899086, 0.019204996526241302, 0.026170890778303146, 0.046969544142484665, 0.08192520588636398, -0.022800158709287643, 0.021168190985918045, 0.04148905351758003, -0.012875877320766449, -0.07087324559688568, 0.006963928695768118, 0.13753655552864075, 0.027402102947235107, -0.10804074257612228, -0.06387145817279816, -0.023748131468892097, -0.15702350437641144], [0.006975100375711918, 0.03152026981115341, 0.16816549003124237, 0.08493019640445709, -0.11148837953805923, 0.0977543368935585, -0.046111222356557846, -0.016806697472929955, -0.008022984489798546, -0.018769659101963043, -0.032143376767635345, 0.000646838394459337, -0.13273583352565765, 0.020278753712773323, -0.16118893027305603, -0.03180842846632004, 0.0009379860712215304, 0.14441491663455963, 0.06730268895626068, 0.11241625249385834, -0.06112992390990257, 0.1123403012752533, -0.0007864091312512755, -0.0011480737011879683], [0.07138562947511673, -0.1243247538805008, -0.036312300711870193, -0.03445925563573837, -0.024346206337213516, -0.012541549280285835, 0.10098368674516678, 0.03592103347182274, -0.004680322483181953, 0.05047757923603058, 0.007766161113977432, 0.09296869486570358, -0.05737784877419472, 0.030432935804128647, -0.02147243171930313, -0.1318317949771881, 0.09898202866315842, 0.08079053461551666, -0.141797736287117, 0.013538181781768799, 0.09864987432956696, -0.011022914201021194, -0.029824525117874146, 0.08043377101421356], [0.0660260021686554, 0.059999383985996246, 0.14667382836341858, 0.04505680501461029, -0.04203403368592262, -0.16287362575531006, 0.06767701357603073, -0.10039366781711578, -0.10460001975297928, 0.08473438024520874, 0.02607697620987892, -0.12547524273395538, 0.14553968608379364, 0.08475469052791595, 0.0391230471432209, 0.09728875011205673, -0.007083002477884293, 0.17907826602458954, -0.07992430776357651, -0.0017315956065431237, -0.14538390934467316, -0.15887102484703064, 0.15465448796749115, -0.03602300211787224], [0.04090597480535507, 0.1489778459072113, -0.06182492896914482, 0.09496839344501495, 0.03000050224363804, -0.09825687855482101, -0.009823890402913094, 0.16168220341205597, 0.11227625608444214, 0.12600374221801758, 0.06032960116863251, -0.0327732153236866, 0.011600466445088387, -0.08541128784418106, -0.17217668890953064, -0.03644317761063576, -0.13601432740688324, -0.005791136063635349, 0.09669271111488342, -0.059919897466897964, 0.022114086896181107, 0.015465340577065945, 0.061698202043771744, 0.10488658398389816], [-0.003175778081640601, -0.04617574065923691, 0.09185583889484406, 0.0012933886609971523, -0.10493061691522598, -0.07633648812770844, -0.006338268518447876, -0.04120668023824692, 0.12173351645469666, 0.003300075652077794, 0.10599977523088455, 0.08771981298923492, 0.0928773358464241, 0.08043745905160904, -0.06790447980165482, -0.057794779539108276, -0.0698268935084343, -0.038786835968494415, -0.07916727662086487, 0.10313038527965546, 0.1260988861322403, 0.023645464330911636, 0.07149209082126617, -0.07999246567487717], [0.13300682604312897, 0.13240815699100494, 0.055972859263420105, 0.0637756958603859, -0.017753101885318756, -0.07274249196052551, 0.06297090649604797, 0.044366255402565, -0.09981509298086166, -0.08304387331008911, 0.0778849795460701, -0.07041023671627045, 0.06327547878026962, -0.05288046598434448, -0.10896051675081253, -0.07398311048746109, -0.11661508679389954, 0.04127087816596031, -0.09093032777309418, -0.06696520000696182, 0.01954592578113079, -0.10623817890882492, -0.10310058295726776, -0.04344029352068901], [-0.03962681069970131, -0.022356083616614342, 0.07591293007135391, 0.0635860487818718, 0.16205614805221558, -0.008268342353403568, 0.0625285655260086, 0.05525318160653114, 0.03443221002817154, 0.023061539977788925, 0.046423714607954025, -0.16377170383930206, 0.01489149872213602, 0.06685394048690796, -0.00830784160643816, 0.10796929150819778, -0.03963111340999603, 0.05142930522561073, 0.08266006410121918, 0.03046834096312523, -0.07066687196493149, -0.014491399750113487, -0.009608631022274494, -0.023387361317873], [0.07399393618106842, -0.17838454246520996, 0.06273886561393738, 0.05981191247701645, 0.1586880087852478, 0.09215634316205978, 0.15423280000686646, -0.024764610454440117, 0.049062326550483704, 0.07881023734807968, 0.06445834785699844, -0.028006207197904587, -0.04335456341505051, -0.12981843948364258, -0.001384344301186502, 0.17184700071811676, -0.04903236776590347, 0.2244391292333603, -0.05318848788738251, 0.014227018691599369, -0.04267575964331627, 0.12093085050582886, 0.06278420984745026, 0.060557492077350616], [0.017958348616957664, -0.025559697300195694, 0.03161092847585678, -0.1443319320678711, -0.022194644436240196, -0.11017084121704102, 0.04765807464718819, 0.02748289331793785, 0.057222820818424225, -0.03468918055295944, -0.04304221644997597, 0.1127225011587143, 0.05703926086425781, -0.04751589894294739, -0.1368013471364975, -0.212275892496109, 0.012154188007116318, -0.10960442572832108, 0.07257597148418427, 0.07637230306863785, -0.04201038181781769, 0.08954586833715439, 0.0618397518992424, 0.013765665702521801], [0.04122835025191307, -0.030758880078792572, 0.13731102645397186, -0.06718919426202774, -0.03359058499336243, 0.1796828806400299, -0.08003558218479156, 0.09999869018793106, -0.04229893162846565, -0.05327426642179489, 0.13656118512153625, 0.003712216392159462, 0.17159968614578247, -0.09086791425943375, -0.011094027198851109, 0.06368379294872284, -0.04960081726312637, -0.17457705736160278, -0.10605211555957794, -0.03629747033119202, -0.13415715098381042, -0.1006961464881897, -0.0887029767036438, -0.0629311129450798], [-0.09388371556997299, 0.15685899555683136, -0.06632103025913239, -0.07599274814128876, -0.0370204895734787, -0.1469828188419342, -0.09669260680675507, 0.0020078644156455994, 0.05371418595314026, -0.103830486536026, -0.09060285985469818, -0.046348266303539276, -0.05255432054400444, 0.005145530216395855, 0.0301169715821743, -0.04625870659947395, -0.045495375990867615, 0.12173125892877579, -0.011252637952566147, -0.060046106576919556, -0.030365465208888054, -0.08498989045619965, -0.2176544964313507, 0.16327638924121857], [-0.11966356635093689, 0.023033592849969864, -0.01748000457882881, 0.0811016783118248, 0.021436527371406555, -0.0911109521985054, 0.058669015765190125, -0.13801391422748566, 0.007483368273824453, -0.01648373156785965, -0.011085515841841698, 0.018052130937576294, 0.05855964124202728, -0.060687847435474396, 0.0876854807138443, -0.07010015845298767, 0.024572063237428665, 0.027498435229063034, -0.20562207698822021, 0.16442441940307617, -0.015328079462051392, -0.06893225759267807, -0.11075213551521301, -0.11014688014984131], [-0.03410729020833969, -0.07274413853883743, 0.0747169703245163, 0.009984984993934631, -0.058176834136247635, 0.2592073976993561, 0.18969689309597015, 0.08329664170742035, -0.06784211099147797, -0.12271963804960251, -0.07164283096790314, 0.0880589559674263, -0.059451356530189514, -0.004962467588484287, -0.019792594015598297, -0.0007989724981598556, 0.08456789702177048, -0.029316596686840057, 0.02299078367650509, -0.13765521347522736, -0.04721776768565178, -0.06387542188167572, 0.14044594764709473, -0.047556858509778976], [-0.04677621275186539, -0.12111728638410568, -0.09806011617183685, 0.06827419251203537, -0.022384680807590485, 0.07131769508123398, 0.02554263360798359, 0.118336521089077, 0.031537167727947235, 0.012957640923559666, 0.002963260281831026, -0.2303050309419632, -0.08767258375883102, 0.02500874735414982, -0.040910668671131134, -0.036110956221818924, 0.05025036633014679, -0.06902125477790833, 0.019660718739032745, -0.02230658195912838, -0.0060392399318516254, -0.14216026663780212, -0.13070763647556305, 0.16232626140117645], [0.17358843982219696, 0.15764625370502472, 0.02796025015413761, -0.10331461578607559, -0.138961523771286, -0.031424589455127716, -0.08415567874908447, 0.008943136781454086, -0.013024543412029743, -0.0377093106508255, 0.14945916831493378, -0.05121411010622978, 0.08845316618680954, 0.015548687428236008, 0.012611820362508297, -0.06851674616336823, 0.10202730447053909, -0.04879796877503395, -0.014476479031145573, -0.10723914951086044, -0.12601083517074585, 0.16579681634902954, 