{"obs_dim": 24, "act_dim": 2, "court": {"width": 8.23, "net_y": 11.885, "margin": 0.3, "net_margin": 2.0}, "layers": [{"type": "linear_layernorm_tanh", "W": [[-0.045608047395944595, -0.05400704964995384, -0.12413648515939713, -0.03891982138156891, 0.043536193668842316, 0.033691514283418655, -0.1749173253774643, 0.03309320658445358, 0.0968441367149353, 0.04710116237401962, 0.03218696638941765, 0.0707126036286354, -0.1139262318611145, 0.13461197912693024, -0.005652835592627525, 0.04445049539208412, 0.05154728144407272, 0.055641598999500275, -0.1045142263174057, -0.18670199811458588, -0.013901431113481522, 0.050704475492239, 0.07221422344446182, 0.07189388573169708], [-0.04760731756687164, -0.06829646974802017, -0.0504300519824028, -0.025703592225909233, 0.03002990409731865, 0.12234362214803696, 0.044822145253419876, 0.004592768382281065, 0.03582761064171791, 0.12403126060962677, -0.05801777169108391, -0.20148542523384094, -0.17620021104812622, -0.010453714057803154, 0.1446102261543274, -0.07550381124019623, 0.014905431307852268, -0.03654651716351509, 0.1511252075433731, -0.1602000594139099, 0.19149933755397797, 0.023003188893198967, 0.004546030890196562, -0.035334862768650055], [0.07819155603647232, 0.05274185538291931, 0.006057572551071644, -0.115496426820755, 0.13873639702796936, 0.07841676473617554, -0.17302709817886353, -0.13092011213302612, -0.03720210865139961, 0.015304782427847385, 0.025954807177186012, 0.16239243745803833, -0.08477701991796494, 0.1168130561709404, -0.06418068706989288, -0.17942696809768677, -0.00875166803598404, 0.06148364394903183, -0.0066981264390051365, -0.14772754907608032, -0.056841421872377396, 0.04651205986738205, -0.21796859800815582, 0.02205302193760872], [0.11425704509019852, -0.10793610662221909, -0.2146455943584442, 0.12369109690189362, -0.04683564975857735, -0.015979023650288582, -0.14516746997833252, 0.17779594659805298, -0.02872769720852375, 0.22243933379650116, 0.1361793577671051, 0.025219155475497246, 0.10169380903244019, 0.10380101948976517, -0.06266766041517258, 0.06445347517728806, -0.11907762289047241, -0.08072854578495026, -0.0761779248714447, 0.11555206030607224, -0.002657666802406311, -0.1475718766450882, 0.03290020301938057, 0.0037645078264176846], [0.09423845261335373, 0.04177650064229965, 0.15922211110591888, 0.07037448137998581, -0.08785872161388397, -0.13875368237495422, -0.05807940661907196, 0.041306834667921066, 0.02094201184809208, -0.08162033557891846, 0.00909348763525486, -0.12626615166664124, 0.0618913508951664, 0.14684811234474182, -0.08588432520627975, 0.041824229061603546, -0.0656617060303688, 0.06521622836589813, 0.21400928497314453, -0.035844217985868454, -0.04858752340078354, 0.11472372710704803, -0.012863359414041042, -0.11925096064805984], [0.02844519354403019, -0.06862666457891464, 0.06644654273986816, -0.038057222962379456, 0.10074588656425476, -0.21398894488811493, 0.028285440057516098, 0.032709527760744095, 0.12359970062971115, 0.024696070700883865, -0.06948093324899673, 0.12845595180988312, 0.09059382975101471, -0.09075918048620224, -0.15028515458106995, 0.12450949102640152, -0.17758356034755707, -0.056155357509851456, 0.09266304224729538, 0.05534334108233452, -0.04900669679045677, -0.15309596061706543, -0.04810139909386635, 0.25355100631713867], [0.0074783917516469955, 0.11498605459928513, 0.009937218390405178, -0.08594315499067307, 0.009236018173396587, 0.009125463664531708, -0.01986544206738472, 0.18077383935451508, -0.0649004578590393, 0.10048843175172806, 0.04489652439951897, -0.03361278399825096, 0.0482923686504364, -0.008764076977968216, -0.07910539954900742, 0.14609147608280182, -0.07420043647289276, -0.0717882290482521, -0.1512662023305893, 0.08582672476768494, -0.054300371557474136, 0.048214782029390335, 0.013120409101247787, 0.2507442533969879], [0.1489114761352539, 0.09185004234313965, 0.21143098175525665, 0.005791458301246166, 0.13364309072494507, -0.10049597173929214, -0.10265786200761795, 0.02362685836851597, -0.020679332315921783, -0.13490842282772064, -0.07938892394304276, -0.02987660840153694, -0.015089490450918674, 0.12379453331232071, 0.02990366891026497, -0.003839421784505248, -0.1127905398607254, 0.04221009835600853, 0.028187861666083336, 0.07336488366127014, -0.09781458228826523, 0.05840533226728439, -0.010711485520005226, 0.019060421735048294], [0.18816852569580078, 0.012767815962433815, -0.12124375253915787, 0.03126950189471245, -0.021723944693803787, 0.09028184413909912, 0.038277558982372284, -0.010613779537379742, -0.07519880682229996, 0.10796446353197098, 0.20102117955684662, 0.04462338984012604, 0.03049127757549286, 0.004404000472277403, 0.11231184005737305, 0.07134681940078735, -0.07339664548635483, 0.17704372107982635, 0.0016235552029684186, 0.09500785917043686, 0.01800224371254444, -0.0628194585442543, 0.1309460550546646, -0.13898642361164093], [-0.046938616782426834, -0.14006023108959198, -0.18713384866714478, -0.01761920191347599, -0.02302202396094799, -0.2013901323080063, 0.02230195142328739, -0.04299677908420563, 0.07937288284301758, -0.15534111857414246, -0.024867210537195206, 0.04795246943831444, 0.1002417653799057, -0.25242310762405396, 0.08242668956518173, -0.08709987252950668, -0.04203805699944496, -0.03358805924654007, 0.07768021523952484, 0.06800747662782669, -0.03605131432414055, -0.05224929377436638, -0.08914345502853394, -0.05545424297451973], [-0.04289781302213669, -0.0950140729546547, 0.008707394823431969, -0.1493409276008606, -0.05575093626976013, -0.031205616891384125, -0.08601424098014832, 0.031154442578554153, 0.011337998323142529, 0.06159844994544983, 0.03987394645810127, -0.04709015041589737, -0.023378705605864525, 0.03603658825159073, -0.030856449156999588, 0.08189369738101959, -0.24820809066295624, -0.11389514058828354, 0.07161785662174225, 0.03661717474460602, 0.17706117033958435, 0.08752676099538803, -0.022337274625897408, -0.21038717031478882], [0.06437746435403824, -0.08146685361862183, -0.08049793541431427, -0.08910690248012543, -0.06013442575931549, -0.00495873624458909, -0.02843536250293255, -0.18512186408042908, -0.042726583778858185, 0.0053823115304112434, 0.04157571867108345, -0.018040312454104424, 0.154416024684906, 0.1450335830450058, 0.04055830091238022, 0.08920767158269882, -0.09722696244716644, -0.00312627712264657, -0.025467567145824432, -0.32721614837646484, -0.0719798356294632, 0.03358272463083267, -0.04260387271642685, 0.05356279015541077], [-0.036556318402290344, -0.08108053356409073, 0.08819124102592468, -0.08246563374996185, 0.03974292427301407, -0.15442082285881042, 0.06933005154132843, -0.019102435559034348, 0.06306545436382294, 0.029446667060256004, -0.09471415728330612, 0.0003185709356330335, 0.011665210127830505, -0.008539803326129913, -0.14010675251483917, 0.1937316656112671, -0.04882120341062546, 0.044428564608097076, 0.09190147370100021, -0.19207891821861267, -0.07512036710977554, -0.09893651306629181, 0.10198932886123657, -0.06544588506221771], [0.08247072249650955, 0.08515460044145584, 0.05006036534905434, -0.2081519514322281, -0.030876100063323975, 0.12159960716962814, -0.07837626338005066, 0.06417825818061829, -0.15324348211288452, -0.05099160224199295, 0.09585163742303848, -0.14505399763584137, 0.009406719356775284, -0.06252829730510712, 0.09357955306768417, -0.0662011206150055, 0.07826269418001175, -0.05704892799258232, -0.07426244765520096, -0.174923375248909, -0.01086045615375042, 0.1501380056142807, -0.07257776707410812, -0.006593281403183937], [0.04550183564424515, 0.022008929401636124, -0.20405438542366028, 0.1218762919306755, -0.14652250707149506, -0.06874721497297287, -0.024805234745144844, 0.1110866442322731, -0.12081737071275711, 0.02458127774298191, 0.03487328439950943, 0.06026909872889519, -0.1090223491191864, 0.11605926603078842, 0.17180009186267853, 0.23622854053974152, 0.0769791528582573, -0.20389416813850403, 0.024628473445773125, -0.22775009274482727, 0.14889287948608398, -0.06446092575788498, -0.1148139238357544, -0.08057571202516556], [0.042635854333639145, -0.033813875168561935, 0.025421682745218277, -0.08502782136201859, -0.05130283161997795, -0.057878561317920685, 0.10566319525241852, -0.08787158131599426, 0.029356973245739937, 0.0037874197587370872, -0.014757886528968811, -0.12367426604032516, -0.05198799818754196, -0.006055541802197695, 0.08277493715286255, -0.07134963572025299, -0.016976041719317436, -0.029803484678268433, 0.07179293036460876, -0.05051587149500847, -0.12130793184041977, -0.05819457769393921, -0.020825326442718506, -0.0012520569143816829], [-0.09897176921367645, 0.09414364397525787, -0.04322107508778572, -0.0878845825791359, 0.04784975200891495, 0.1933215856552124, -0.0012612869031727314, 0.20073647797107697, -0.011851193383336067, 0.15052556991577148, 0.058180153369903564, 0.1328367292881012, -0.10835631191730499, 0.12391874194145203, -0.0794253721833229, 0.09276360273361206, -0.07555843144655228, 0.10019642859697342, -0.0348249226808548, -0.09481122344732285, -0.06893964856863022, 0.05905241519212723, -0.04041462391614914, -0.008714796975255013], [0.023616597056388855, 0.10542402416467667, -0.032784976065158844, -0.10775996744632721, -0.04647865891456604, 0.05695686861872673, 0.05370594933629036, 0.2652556002140045, 0.04984632134437561, 0.0007744970498606563, -0.02670948952436447, -0.07232941687107086, 0.04303687810897827, 0.11826437711715698, 0.09789593517780304, -0.008316170424222946, -0.09992053359746933, 0.07256989926099777, 0.11937615275382996, 0.09929250925779343, -0.002329088980332017, 0.017865624278783798, -0.023313341662287712, -0.05882978439331055], [0.02384858764708042, -0.05051639303565025, -0.1275269091129303, 0.005651439074426889, 0.07121802121400833, 0.0110431844368577, 0.047993745654821396, -0.04622090235352516, 0.005441059824079275, -0.09422915428876877, -0.19131523370742798, -0.1798231452703476, 0.0579134076833725, -0.02620452456176281, -0.08609049767255783, -0.013524499721825123, -0.00992575567215681, 0.23340198397636414, 0.011955236084759235, 0.08349556475877762, -0.05419672280550003, -0.026538526639342308, -0.1876593828201294, -0.10459034144878387], [0.11325189471244812, -0.05375026911497116, 0.1793968826532364, -0.001446418697014451, -0.05422893911600113, -0.0504283644258976, -0.09005677700042725, 0.02008739486336708, -0.07456842809915543, -0.026037588715553284, 0.0014559690607711673, 0.05338207632303238, -0.014831241220235825, 0.10523608326911926, 0.06112750619649887, -0.00250991596840322, -0.024751586839556694, -0.1388622373342514, -0.05530981719493866, 0.005699938628822565, 0.02336813695728779, 0.060090016573667526, -0.14052274823188782, 0.028401866555213928], [0.039472099393606186, -0.051409970968961716, -0.024109795689582825, 0.019362526014447212, 0.02218925952911377, 0.0038502055685967207, 0.201812744140625, 0.017747020348906517, 0.08392547816038132, 0.04261677712202072, -0.008295029401779175, 0.047394368797540665, -0.06130431964993477, -0.021856172010302544, 0.0633625015616417, -0.0651215985417366, -0.12153417617082596, 0.06457463651895523, -0.0475025475025177, 0.33856722712516785, 0.014214791357517242, -0.01283477246761322, 0.21210266649723053, 0.023791413754224777], [0.04070734977722168, -0.035872749984264374, -0.011906664818525314, 0.17521502077579498, 0.03237031772732735, 0.02025546506047249, -0.14982426166534424, -0.26935020089149475, -0.06791526824235916, 0.1082625761628151, 0.18924649059772491, -0.14964261651039124, 0.024988383054733276, 0.009638243354856968, -0.11039150506258011, 0.12430616468191147, 0.003124595619738102, -0.0963456854224205, -0.033887989819049835, -0.10612639784812927, -0.10806383192539215, 0.13478010892868042, 0.021028494462370872, -0.04053345322608948], [-0.18096040189266205, 0.06533455848693848, -0.0873531773686409, -0.185471311211586, 0.11905959993600845, -0.07450710982084274, -0.22883443534374237, -0.1716671586036682, 0.05491546168923378, 0.042604174464941025, 0.16180706024169922, -0.0477575808763504, 0.011789883486926556, 0.07524021714925766, 0.16733919084072113, 0.08096691966056824, 0.012706274166703224, 0.2035219669342041, -0.059718020260334015, -0.06126146391034126, 0.20487457513809204, 0.09967188537120819, 0.13366374373435974, -0.07386503368616104], [0.01612422987818718, 0.08622954040765762, 0.032517220824956894, -0.03862038627266884, 0.04301070421934128, 0.06946942955255508, -0.1302466243505478, -0.13224127888679504, -0.03298028185963631, -0.02417738176882267, 0.011906388215720654, -0.08356940001249313, 0.11310328543186188, 0.09276388585567474, -0.12303844839334488, 0.01687026396393776, 0.023351872339844704, -0.010184821672737598, -0.08639579266309738, 0.027382228523492813, -0.15092703700065613, 0.06684517115354538, 0.11924008280038834, -0.04354415461421013], [0.005449125077575445, 0.08719459176063538, 0.12816709280014038, -0.006314271595329046, 0.034926608204841614, 0.012093231081962585, 0.0836290493607521, -0.06389120221138, 0.026020502671599388, 0.060595929622650146, 0.02147578075528145, -0.1522582322359085, -0.07754743099212646, -0.1034141555428505, 0.004163774196058512, 0.0483175590634346, -0.01372821070253849, -0.12773163616657257, -0.09863441437482834, 0.2831985652446747, -0.034239012748003006, -0.03402603417634964, -0.023516040295362473, -0.0469173900783062], [0.05222016200423241, 0.050383780151605606, 0.0011527423048391938, 0.07517673820257187, 0.06910542398691177, 0.03153427690267563, -0.11422457545995712, 0.12875963747501373, 0.02008845843374729, -0.13903510570526123, 0.022645378485322, -0.09197048097848892, 0.011816304177045822, 0.06652238219976425, -0.03220652788877487, -0.12332295626401901, -0.14988303184509277, -0.1434658020734787, 0.06147580221295357, -0.16872663795948029, -0.19374576210975647, -0.02694825641810894, -0.0507192425429821, 0.1072862520813942], [0.031111696735024452, 0.01250615157186985, -0.05535854026675224, 0.11150473356246948, -0.022718634456396103, -0.04546869918704033, -0.02663140371441841, 0.10809382051229477, -0.10984223335981369, 0.07477331906557083, -0.08537202328443527, 0.049644432961940765, 0.004214506130665541, -0.008205619640648365, 0.017655782401561737, 0.14127445220947266, 0.09402383863925934, 0.03782559558749199, -0.03275327757000923, 0.047502245754003525, 0.0445912666618824, 0.01736629754304886, -0.07903392612934113, -0.07995052635669708], [0.008562441915273666, 0.14052394032478333, -0.0042191194370388985, -0.03796396031975746, 0.07114668935537338, 0.09814398735761642, 0.1410541534423828, 0.011417178437113762, -0.04532058164477348, -0.03186335787177086, -0.11230912804603577, 0.04307994619011879, -0.06413984298706055, -0.012661648914217949, -0.028801755979657173, -0.09131336957216263, 0.027732519432902336, 0.017897354438900948, -0.11619315296411514, -0.0193940382450819, -0.04272837191820145, 0.2647455632686615, -0.002751583931967616, 0.01437632367014885], [0.11876357346773148, -0.15001390874385834, 0.22275415062904358, 0.1013323962688446, -0.02009996771812439, 0.058885980397462845, 0.022082297131419182, -0.14526383578777313, -0.03834819793701172, -0.10690723359584808, 0.15973612666130066, -0.048712968826293945, -0.04072510823607445, -0.09207496047019958, -0.08239530026912689, -0.012779558077454567, -0.010939661413431168, 0.0528312548995018, -0.012538828887045383, 0.13771788775920868, 0.022025613114237785, 0.12271331250667572, -0.042123112827539444, 0.05015677958726883], [-0.08076907694339752, 0.015155441127717495, 0.09878335893154144, -0.0035820454359054565, -0.10945933312177658, -0.017642594873905182, -0.021124156191945076, -0.013493986800312996, 0.05027081072330475, -0.04376304894685745, 0.10321687906980515, 0.14218451082706451, 0.0716751217842102, 0.1242738664150238, -0.06765783578157425, 0.1950606256723404, -0.009797384031116962, 0.02069777250289917, 0.010107101872563362, 0.06083669513463974, 0.05827954784035683, 0.10052601993083954, -0.04744512960314751, -0.01293384563177824], [-0.08516713976860046, 0.035357195883989334, -0.06645623594522476, -0.011761361733078957, 0.03702933341264725, 0.06210920959711075, -0.02955487184226513, -0.007231689523905516, 0.023095017299056053, -0.05364558845758438, -0.04428335651755333, -0.024737626314163208, -0.05101369321346283, 0.01843365468084812, -0.037653643637895584, -0.003860250348225236, 0.041429635137319565, -0.016463203355669975, -0.138000026345253, -0.21909809112548828, -0.08058804273605347, -0.009859789162874222, -0.011118405498564243, 0.04156454652547836], [0.09680186212062836, -0.048050858080387115, 0.05126423388719559, 0.10745197534561157, -0.06678609549999237, -0.17987650632858276, 0.03102922812104225, 0.1550685465335846, -0.032131072133779526, 0.049270011484622955, -0.05864499881863594, -0.04821772128343582, -0.11784739792346954, 0.1528450846672058, 0.05738381668925285, 0.09471146762371063, -0.1454622745513916, -0.13859044015407562, 0.041067443788051605, 0.0022807656787335873, -0.029477205127477646, -0.24033595621585846, 0.08542300015687943, -0.0015202128561213613], [-0.023306502029299736, 0.030246088281273842, 0.05933517590165138, 0.0049763829447329044, -0.050231896340847015, -0.059407174587249756, 0.0851593166589737, -0.13898460566997528, 0.034436069428920746, 0.12299569696187973, 0.015472841449081898, -0.14895781874656677, -0.007742668967694044, 0.11559664458036423, -0.024067742750048637, -0.12460785359144211, 0.04734672233462334, -0.06849485635757446, -0.033078670501708984, -0.17444577813148499, 0.016027044504880905, 0.11098752170801163, 0.02576489932835102, -0.07014301419258118], [-0.07016277313232422, 0.07065735012292862, 0.031162109225988388, -0.05514771491289139, 0.0005744165391661227, -0.10337520390748978, 0.047423165291547775, -0.05994581803679466, 0.04364612698554993, -0.057460300624370575, 0.009244587272405624, 0.20396701991558075, -0.12772536277770996, 0.0007358440780080855, 0.08783815801143646, -0.15470896661281586, 0.009471678175032139, -0.058208320289850235, 0.013796557672321796, 0.31798237562179565, 0.06565287709236145, 0.09313277900218964, 0.047433141618967056, 0.03274846822023392], [0.04935269430279732, -0.0058471765369176865, -0.05792432278394699, -0.04977506771683693, 0.033576663583517075, -0.06307883560657501, -0.09305969625711441, 0.03208339586853981, -0.06944196671247482, -0.09138078987598419, 0.07351680099964142, 0.0003177401376888156, 0.004302899353206158, -0.09847398847341537, 0.16483934223651886, 0.028721245005726814, 0.017899740487337112, -0.14790132641792297, -0.043218519538640976, -0.1916039139032364, 0.18776798248291016, -0.08626597374677658, 0.05189733952283859, -0.027233632281422615], [0.09126519411802292, 0.0008687113877385855, 0.05357976257801056, -0.205664724111557, -0.22788196802139282, 0.05679804086685181, -0.1303219050168991, -0.12038455903530121, 0.09846379607915878, -0.03190759941935539, -0.12793369591236115, -0.09680219739675522, -0.07599276304244995, -0.11372632533311844, 0.12155836075544357, 0.11718182265758514, -0.07736677676439285, -0.14699473977088928, 0.01173897460103035, 0.10033015161752701, -0.06472538411617279, 0.02385346032679081, -0.06865626573562622, -0.20202365517616272], [-0.011651169508695602, 0.07196277379989624, -0.02402183599770069, -0.03794114291667938, 0.0211640577763319, 0.0073509723879396915, -0.0009935928974300623, 0.000378517055651173, -0.06909164041280746, -0.18232251703739166, 0.2743622958660126, -0.013827307149767876, -0.004123239777982235, 0.008762966841459274, 0.0634644404053688, -0.12022761255502701, -0.03300420194864273, -0.022489866241812706, -0.09508480131626129, 0.03137640282511711, -0.004220282193273306, -0.20135492086410522, 0.056576892733573914, -0.029814841225743294], [-0.14437155425548553, -0.01209723949432373, 0.024337440729141235, -0.047590650618076324, -0.10069084167480469, -0.15875430405139923, -0.011600731872022152, 0.14659956097602844, 0.1550097018480301, 0.023110033944249153, -0.09864369034767151, -0.0141817731782794, 0.11548704653978348, -0.07399263232946396, -0.11504863202571869, 0.014407881535589695, -0.09837433695793152, -0.06246621906757355, -0.22619473934173584, -0.22222907841205597, -0.2275562286376953, -0.11272718012332916, 0.0993124321103096, -0.052068937569856644], [-0.049904465675354004, 0.10679031163454056, -0.05661655589938164, -0.007676100358366966, 0.10066378861665726, -0.03432881459593773, 0.0036115869879722595, -0.015293114818632603, -0.003865360515192151, 0.04260222241282463, 0.16568365693092346, 0.08798670768737793, -0.012443773448467255, 0.11046619713306427, -0.0219725389033556, 0.17252646386623383, -0.002387108514085412, 0.06297678500413895, 0.03808865696191788, 0.015253002755343914, 0.12172365933656693, 0.08098763972520828, 0.10335101932287216, -0.001054229331202805], [0.006998908706009388, -0.04711984097957611, -0.022473597899079323, 0.11769414693117142, -0.14934879541397095, 0.05877302587032318, -0.06857682764530182, 0.19372092187404633, -0.09007033705711365, 0.1438109129667282, 0.03893887251615524, -0.0314955860376358, 0.12964001297950745, 0.12230893969535828, -0.15352888405323029, 0.02743254415690899, 0.003479903331026435, 0.08649137616157532, 0.029809532687067986, 0.03411192074418068, 0.15730911493301392, 0.15373578667640686, 0.1521281898021698, 0.04073866456747055], [-0.0029746524523943663, -0.0010384219931438565, 0.01594494841992855, 0.09605851769447327, 0.12263570725917816, -0.1896856427192688, 0.11823751777410507, -0.03810574859380722, 0.074509397149086, 0.10817420482635498, -0.1018633022904396, -0.22231221199035645, -0.06434623897075653, 0.1315399408340454, 0.08077765256166458, -0.06776534020900726, -0.11443666368722916, -0.03664134442806244, 0.22592508792877197, 0.2590175271034241, -0.015164357610046864, 0.11455892771482468, 0.0027563541661947966, 0.1392032504081726], [0.06729914993047714, 0.04240161180496216, 0.02268725261092186, 0.18956440687179565, 0.10741383582353592, -0.03447640687227249, -0.05930608510971069, 0.05315554514527321, -0.053561680018901825, -0.04209195449948311, -0.2367420792579651, 0.011960570700466633, -0.03386247530579567, -0.015226570889353752, 0.06509240716695786, -0.24064846336841583, 0.016811229288578033, 0.06627212464809418, -0.18540839850902557, 0.29683515429496765, 0.10223931074142456, -0.013799993321299553, 0.11007364094257355, -0.011745411902666092], [0.048963986337184906, 0.07457476109266281, -0.03132462874054909, -0.11124461144208908, -0.1095321998000145, -0.13104665279388428, 0.055011454969644547, 0.12232775241136551, 0.03468388691544533, -0.01532939076423645, -0.10065009444952011, -0.18865250051021576, -0.05398573726415634, -0.10851369053125381, 0.03510040417313576, 0.08307753503322601, 0.16478590667247772, -0.1473563313484192, 0.08336884528398514, -0.03412257879972458, -0.12321197241544724, -0.0691721960902214, 0.12112865597009659, -0.01251478586345911], [0.08131999522447586, 0.12201303243637085, 0.04653078690171242, 0.022180749103426933, 0.11182604730129242, 0.060977041721343994, -0.20846278965473175, -0.1414603292942047, -0.09821031987667084, 0.18984809517860413, -0.07560815662145615, 0.16863425076007843, 0.05813870579004288, 0.054278504103422165, -0.19709835946559906, -0.07382732629776001, 0.134115070104599, -0.05263308808207512, -0.1520088016986847, -0.1609196662902832, -0.08855722844600677, 0.13437296450138092, -0.1756983995437622, 0.020202456042170525], [-0.13677054643630981, 0.030883658677339554, -0.04020196571946144, -0.21949400007724762, -0.07317950576543808, -0.053840283304452896, -0.14860832691192627, -0.13027171790599823, -0.001449009869247675, -0.08703852444887161, 0.04634254053235054, 0.016720425337553024, 0.008490554057061672, 0.08746247738599777, -0.13597925007343292, 0.07999902218580246, -0.22737137973308563, -0.05981949344277382, -0.06515619158744812, -0.2087799459695816, 0.07433626800775528, 0.1486072540283203, -0.03486829996109009, -0.05345733463764191], [-0.007482857443392277, 0.1807374805212021, 0.08175454288721085, 0.20158126950263977, -0.23187968134880066, 0.05306905508041382, 0.19165466725826263, -0.007897728122770786, 0.18286854028701782, 0.07690506428480148, -0.023754162713885307, -0.02318049781024456, 0.03639485314488411, 0.18690572679042816, 0.07735852897167206, -0.061542462557554245, 0.010477086529135704, 0.1090639978647232, 0.0805649533867836, 0.05370572954416275, 0.21476830542087555, -0.17904038727283478, 0.028274381533265114, -0.045610006898641586], [-0.011751598678529263, 0.013154401443898678, -0.18393981456756592, -0.10815009474754333, 0.05444042384624481, 0.11506103724241257, -0.02853926084935665, -0.19280174374580383, 0.050075821578502655, -0.002355355303734541, -0.08605090528726578, -0.05748870223760605, 0.025346197187900543, -0.03547526150941849, -0.17127691209316254, -0.08970827609300613, 0.0071143764071166515, 0.08521547168493271, -0.006113497074693441, 0.030815891921520233, -0.06979729235172272, 0.2500416934490204, 0.03531429171562195, 0.07876256853342056], [0.09200821816921234, 0.04215920343995094, -0.05515596270561218, 0.03340088576078415, -0.03863799571990967, -0.1419060230255127, 0.07279626280069351, -0.1042206734418869, 0.01729973591864109, -0.01595018245279789, -0.14387176930904388, 0.08828569203615189, -0.2180987000465393, 0.13098159432411194, -0.05612276867032051, 0.10054032504558563, 0.05196111276745796, -0.08955457806587219, -0.07014961540699005, -0.2059558629989624, -0.19585779309272766, -0.18400660157203674, 0.07354265451431274, 0.07088333368301392], [0.00575668690726161, -0.07641038298606873, 0.044443096965551376, -0.026665695011615753, 0.019645752385258675, 0.002554636914283037, -0.1017027348279953, 0.09797699004411697, 0.04717222973704338, 0.04118996113538742, -0.07994512468576431, 0.07960891723632812, -0.09539254754781723, 0.04704980552196503, -0.1437864750623703, -0.0022106023970991373, -0.03428807854652405, -0.01637551188468933, 0.1579906940460205, 0.013574306853115559, 0.09366992115974426, 0.07278317958116531, 0.03245474398136139, 0.004964616149663925], [-0.003989902790635824, -0.06093905493617058, 0.062176842242479324, -0.10217569023370743, -0.08560445159673691, -0.04427441954612732, 0.16461141407489777, 0.0382852628827095, 0.01332063227891922, 0.10334146022796631, -0.0020475275814533234, 0.0019498798064887524, 0.03547948971390724, 0.15794223546981812, -0.04108033329248428, -0.03827032819390297, 0.02017321065068245, 0.0979699194431305, -0.01842961460351944, -0.04197258874773979, 0.027141094207763672, 0.19761890172958374, 0.03992345929145813, -0.018876798450946808], [-0.16676591336727142, 0.052932243794202805, 0.037966515868902206, -0.09080912172794342, -0.09710599482059479, -0.06677841395139694, 0.16857683658599854, 0.04744300618767738, 0.03538425639271736, 0.04609130322933197, 0.07173144072294235, -0.04417920857667923, 0.06400012969970703, 0.04630167409777641, -0.017567278817296028, 0.033717043697834015, 0.16669002175331116, -0.12724073231220245, 0.009844058193266392, 0.012336689978837967, -0.02759484201669693, -0.006637379992753267, -0.006581156048923731, -0.09825770556926727], [0.059919439256191254, 0.13227587938308716, 0.10965839773416519, 0.06620969623327255, -0.017415301874279976, 0.05773331597447395, -0.07392436265945435, 0.10214634239673615, 0.14992719888687134, 0.005331018939614296, 0.09557446092367172, -0.14549286663532257, 0.05003111809492111, -0.002741789910942316, 0.07157939672470093, -0.08264623582363129, -0.1198207214474678, 0.15359966456890106, -0.12001822143793106, -0.010104185901582241, 0.04739111289381981, 0.10931843519210815, 0.07882139086723328, -0.09462348371744156], [-0.04826685041189194, 0.07608826458454132, -0.09772354364395142, -0.02549654431641102, -0.09684762358665466, -0.02336438000202179, 0.06553088873624802, -0.11224229633808136, 0.05077169090509415, -0.19071924686431885, -0.14903756976127625, -0.10201483219861984, 0.001419904176145792, -0.16414368152618408, -0.0420139916241169, 0.006001562345772982, -0.04460196569561958, -0.02091793715953827, -0.010860378853976727, 0.11926876753568649, 0.10986579209566116, -0.18405133485794067, 0.18861441314220428, 0.030758000910282135], [-0.11367062479257584, 0.045134276151657104, 0.12725123763084412, -0.0856907069683075, 0.06580933928489685, -0.029778188094496727, 0.07797294855117798, -0.03341061249375343, 0.04109824448823929, -0.00180430815089494, 0.12059195339679718, -0.30911198258399963, -0.05628722161054611, 0.21745723485946655, 0.05998476967215538, -0.14576898515224457, 0.06395960599184036, -0.030890602618455887, 0.05334357172250748, -0.22831277549266815, -0.028752585873007774, 0.04321516305208206, -0.11098722368478775, -0.1596575230360031], [0.19792012870311737, 0.08836948871612549, -0.031094618141651154, 0.006052573677152395, -0.1372714787721634, -0.017175549641251564, -0.08895017206668854, 0.04276507347822189, -0.11609043926000595, 0.020478839054703712, 0.09795159101486206, 0.011189875192940235, 0.14723291993141174, 0.038867805153131485, -0.14622503519058228, -0.04710708186030388, -0.09620033204555511, 0.05684381723403931, -0.11976220458745956, 0.0008378654019907117, 0.001265619182959199, 0.1428193747997284, -0.004807841964066029, -0.172010600566864], [-0.01941327378153801, -0.034991305321455, -0.1530553251504898, 0.17497749626636505, -0.06469494104385376, 0.09638062119483948, 0.07674023509025574, 0.2680027484893799, -0.027680637314915657, 0.029038390144705772, 0.12118658423423767, -0.13299760222434998, 0.02395743504166603, -0.03665050119161606, 0.03103935532271862, -0.21464532613754272, 0.033730849623680115, 0.10662747919559479, -0.022990375757217407, 0.12045548856258392, 0.05899529531598091, -0.10253912210464478, 0.04332851991057396, -0.010316996835172176], [-0.002940569305792451, -0.04428818076848984, 0.125411719083786, -0.04752541705965996, -0.027004733681678772, -0.001626832876354456, 0.006684616673737764, -0.09036877751350403, -0.016814015805721283, -0.09987971931695938, 0.10701640695333481, -0.04585734382271767, -0.0039054006338119507, -0.00830917339771986, 0.048796504735946655, 0.09607114642858505, 0.07614126056432724, 0.14491093158721924, -0.003520276630297303, 0.052695803344249725, 0.0020164011511951685, 0.1122172474861145, -0.024927893653512, 0.04362417384982109], [-0.06777577847242355, -0.20103716850280762, 0.04201840981841087, -0.020585665479302406, -0.027317898347973824, -0.025265619158744812, -0.09332351386547089, 0.06933421641588211, -0.04085177183151245, 0.009879738092422485, -0.019959939643740654, 0.04462626948952675, -0.04804467037320137, -0.12415600568056107, 0.05897369980812073, 0.0027516507543623447, 0.08673257380723953, -0.025226816534996033, -0.05544305592775345, 0.04875316098332405, 0.08915183693170547, -0.23384663462638855, 0.03712041303515434, -0.006112114526331425], [-0.057341575622558594, -0.033704712986946106, 0.1064707487821579, 0.024780532345175743, -0.0008349881391040981, 0.0738539770245552, 0.053019437938928604, 0.2617743909358978, 0.093597412109375, 0.019874218851327896, 0.024814888834953308, -0.09882552176713943, 0.01906026154756546, 0.061204567551612854, 0.028038708493113518, 0.02084137313067913, 0.03644946962594986, 0.1988707333803177, -0.02319321036338806, -0.052034031599760056, 0.10745687782764435, 0.013710010796785355, -0.1446205973625183, 0.07518845051527023], [-0.0024658567272126675, 0.14283598959445953, 0.2119443118572235, 0.02020133100450039, 0.027682537212967873, 0.11344525218009949, -0.1669510453939438, 0.08594416826963425, -0.10470947623252869, 0.13279810547828674, -0.11763899773359299, -0.07875767350196838, -0.0009421155555173755, 0.057735152542591095, -0.012475441209971905, 0.10630977153778076, 0.015639467164874077, 0.018965790048241615, 0.0038214614614844322, -0.08340442180633545, -0.09486498683691025, 0.05893537402153015, -0.026671042665839195, -0.15826907753944397], [-0.09320726990699768, -0.0017381336074322462, -0.10197046399116516, -0.08718353509902954, -0.10700055956840515, 0.08298799395561218, 0.006832587998360395, -0.010710997506976128, -0.03449750691652298, -0.1381453275680542, 0.004309972282499075, 0.12784764170646667, -0.005142645910382271, -0.06734908372163773, 0.0457155741751194, -0.08427014946937561, -0.07638004422187805, 0.07332497835159302, 0.1505705714225769, -0.2573809027671814, -0.02369677647948265, 0.00019139217329211533, 0.11822985857725143, -0.07063384354114532], [0.044968437403440475, 0.01831396296620369, -0.012621774338185787, 0.033771928399801254, -0.019501488655805588, 0.12296736240386963, -0.06345736235380173, -0.1789592057466507, 0.1136745736002922, 0.10649551451206207, 0.05552860349416733, -0.09134559333324432, -0.1377006322145462, 0.008775160647928715, -0.042922623455524445, -0.005491848103702068, -0.058123569935560226, 0.03796583414077759, -0.04415648803114891, 0.12575659155845642, -0.06964879482984543, -0.13852718472480774, 0.05592073127627373, 0.050555355846881866], [-0.025636067613959312, -0.011660315096378326, 0.0523558035492897, 0.10939570516347885, 0.11024380475282669, -0.13189852237701416, -0.039431117475032806, 0.0472610779106617, -0.1254095733165741, -0.036869410425424576, -0.039270542562007904, 0.07930201292037964, 0.08727719634771347, -0.004803715739399195, -0.02301696129143238, -0.2977921664714813, 0.01040036603808403, 0.10088370740413666, -0.15362782776355743, -0.07364276796579361, 0.16667556762695312, 0.08922726660966873, 0.03362032771110535, -0.04610038548707962], [-0.00752562191337347, 0.2514094412326813, 0.009736523032188416, 0.09984004497528076, 0.02550811506807804, -0.06716841459274292, -0.0001876692404039204, -0.017676731571555138, 0.09746050089597702, 0.10420264303684235, -0.08482873439788818, 0.020936347544193268, -0.029444700106978416, -0.02848700061440468, -0.06739885360002518, 0.024936499074101448, -0.14831969141960144, 0.09700487554073334, 0.007579453755170107, 0.11981058865785599, 0.029206249862909317, 0.09704012423753738, 0.1458728313446045, 0.08756078034639359], [-0.11464401334524155, 0.031484294682741165, -0.012846325524151325, 0.1105259582400322, -0.03953595831990242, -0.043815698474645615, -0.0175411868840456, -0.008062990382313728, 0.01600451022386551, -0.05174832046031952, -0.11309074610471725, -0.21659910678863525, -0.004114948213100433, 0.11934558302164078, 0.02743738330900669, -0.16849485039710999, 0.10709310322999954, -0.029499303549528122, -0.06422805041074753, 0.024915942922234535, -0.17985272407531738, -0.039446115493774414, -0.09663783013820648, 0.05530708655714989], [0.06243129074573517, -0.08040683716535568, 0.0719403326511383, -0.1442236751317978, 0.0732477456331253, 0.11383835971355438, -0.07812371850013733, 0.0049406494945287704, -0.09086106717586517, -0.031871166080236435, 0.08041858673095703, -0.004022576380521059, -0.12953266501426697, -0.12898831069469452, 0.02705102413892746, 0.24779891967773438, 0.018775494769215584, 0.08194660395383835, -0.11002767086029053, 0.06912360340356827, 0.011744534596800804, -0.11306777596473694, 0.04944518953561783, -0.0013513746671378613], [-0.04300546646118164, 0.10383410006761551, 0.17745301127433777, -0.25283434987068176, 0.03301428258419037, -0.04005629941821098, 0.1454068422317505, -0.02535928785800934, -0.04085979238152504, 0.0001303761819144711, -0.0319378562271595, -0.2480066418647766, -0.0006908086943440139, 0.050226204097270966, 0.025379715487360954, 0.0229149479418993, 0.08696166425943375, 0.015528813004493713, 0.0032846680842339993, 0.02675728313624859, -0.03698750585317612, -0.039789773523807526, 0.006628600414842367, -0.04997236654162407], [0.05190790817141533, -0.08151056617498398, -0.11002987623214722, -0.1911516785621643, 0.023210948333144188, -0.049670252948999405, -0.043814580887556076, 0.10079240053892136, -0.04612546041607857, -0.1424894630908966, -0.09205085784196854, 0.19080877304077148, 0.02914830856025219, 0.022103462368249893, -0.05001088231801987, 0.06496161222457886, -0.05271834507584572, 0.013324028812348843, 0.031942229717969894, 0.1733759045600891, 0.15974877774715424, -0.22753648459911346, 0.014306392520666122, 0.10343185812234879], [-0.14495180547237396, 0.07308362424373627, 0.0039433701895177364, 0.17737461626529694, 0.06062541529536247, -0.012660331092774868, -0.14166881144046783, 0.11001133918762207, 0.029838962480425835, -0.04720058664679527, -0.07581447064876556, 0.05443304777145386, 0.05195320397615433, 0.0612197108566761, -0.003053599037230015, 0.08816154301166534, -0.02947290614247322, 0.13340796530246735, 0.034493304789066315, -0.0477445125579834, 0.1544221043586731, 0.19465328752994537, -0.0018552517285570502, -0.039194729179143906], [-0.05419483408331871, -0.005302197299897671, 0.02662445418536663, -0.032354969531297684, -0.07517634332180023, -0.040494222193956375, 0.0035595709923654795, -0.05435304343700409, 0.04433056712150574, -0.03097115084528923, -0.018394548445940018, 0.16771475970745087, 0.1082381159067154, 0.05497541278600693, 0.0013287306064739823, 0.01027558371424675, 0.12221768498420715, 0.13563695549964905, -0.009597844444215298, 0.0414385162293911, -0.18088747560977936, 0.062160421162843704, -0.0520952045917511, -0.07707983255386353], [-0.027639886364340782, -0.08450506627559662, -0.09131330996751785, -0.01252643670886755, -0.10701902210712433, -0.07810523360967636, -0.1515015810728073, 0.017775749787688255, 0.1265697181224823, 0.019693417474627495, 0.010614070110023022, 0.1288730651140213, -0.019439084455370903, 0.1491670459508896, 0.0540212020277977, 0.08198624104261398, 0.033759839832782745, -0.004832562990486622, -0.1336374580860138, 0.0068527343682944775, -0.052864618599414825, -0.27375859022140503, 0.08361441642045975, 0.033124394714832306], [-0.09961292892694473, 0.071193166077137, 0.10564489662647247, 0.027905110269784927, 0.078351229429245, 0.13468997180461884, 0.09389308094978333, -0.013552036136388779, 0.020162178203463554, 0.22358162701129913, 0.06260460615158081, 0.19422923028469086, 0.21705861389636993, 0.021630628034472466, -0.011229150928556919, 0.016540946438908577, 0.1384941190481186, -0.056895893067121506, -0.06525019556283951, -0.06354004889726639, 0.0065426575019955635, 0.0315498486161232, -0.2039724439382553, 0.11504831910133362], [-0.14214973151683807, -0.048383928835392, 0.016699455678462982, -0.17276634275913239, 0.05548412352800369, 0.10707192867994308, 0.027350766584277153, 0.029947610571980476, -0.03495144471526146, -0.2462611198425293, -0.04624531790614128, -0.02460315264761448, -0.023445548489689827, -0.10736556351184845, 0.15941859781742096, -0.09583894163370132, -0.03492321819067001, -0.018062157556414604, -0.06630470603704453, 0.0950690284371376, 0.025089597329497337, -0.0659714788198471, 0.003400261513888836, 0.0010888702236115932], [-0.06346277892589569, -0.1699606329202652, -0.1145016998052597, -0.014723888598382473, -0.12014497816562653, -0.10583793371915817, -0.06726054847240448, -0.1515919715166092, 0.037621378898620605, -0.07010995596647263, -0.09171359986066818, -0.32259711623191833, -0.018950900062918663, -0.045027874410152435, 0.11608937382698059, -0.03367862105369568, -0.04689255356788635, 0.036020465195178986, 0.029844291508197784, -0.07306023687124252, 0.07096639275550842, 0.0155554860830307, -0.015278324484825134, 0.221858948469162], [-0.024326736107468605, 0.09984442591667175, 0.026260292157530785, -0.02513624168932438, 0.22193750739097595, -0.02853262424468994, 0.07477665692567825, 0.17232562601566315, 0.0470493845641613, 0.08636268973350525, -0.2933504283428192, 0.07654491811990738, 0.008329599164426327, 0.024322504177689552, -0.079361692070961, 0.06943082064390182, -0.035162553191185, 0.10196209698915482, 0.10798601061105728, 0.06273683905601501, -0.0354524701833725, -0.12160245329141617, 0.017390742897987366, 0.059584133327007294], [-0.09999106079339981, 0.00876251608133316, 0.20081979036331177, 0.07753662019968033, 0.022118592634797096, 0.10475467890501022, -0.06067910045385361, 0.023340320214629173, 0.11909448355436325, -0.06659042835235596, -0.12348221242427826, -0.039425574243068695, -0.03801184892654419, -0.07887037843465805, 0.09963465481996536, -0.011282231658697128, -0.03544429689645767, -0.04071817174553871, -0.1921287328004837, -0.10813143104314804, -0.00297421682626009, 0.16471627354621887, -0.007795044220983982, -0.024206899106502533], [0.08871917426586151, 0.2358320951461792, -0.027741260826587677, -0.2759177088737488, -0.11354225873947144, 0.16220228374004364, 0.04208831489086151, 0.07636956870555878, -0.1121913269162178, 0.007199245039373636, 0.08803808689117432, -0.037914253771305084, -0.201814204454422, 0.025033265352249146, 0.027223149314522743, -0.053987566381692886, 0.076195128262043, 0.01580970734357834, 0.15561167895793915, -0.29083251953125, -0.006398323457688093, -0.03284560143947601, 0.17948758602142334, 0.018996894359588623], [0.01171348337084055, 0.035406794399023056, 0.0007713097147643566, 0.13367418944835663, 0.04857794567942619, 0.07965192943811417, -0.01635209657251835, 0.006642084568738937, -0.05249190703034401, -0.14378666877746582, 0.07517734169960022, 0.010893630795180798, 0.098250612616539, -0.05292539298534393, 0.07354778796434402, 0.1418645679950714, 0.062057290226221085, 0.11607179790735245, 0.05456295982003212, -0.20787973701953888, -0.05845930427312851, 0.12828636169433594, 0.06660261005163193, -0.007870476692914963], [0.05222829431295395, -0.012339632026851177, -0.13449090719223022, -0.03642173111438751, -0.015286793932318687, -0.03978082537651062, 0.09281899034976959, 0.05520375818014145, -0.03874438256025314, 0.06733271479606628, 0.030054088681936264, 0.024711504578590393, 0.042096097022295, -0.042468197643756866, -0.03850482776761055, -0.06345381587743759, 0.004354498349130154, 0.04768325760960579, -0.1063319742679596, -0.15456604957580566, -0.026286736130714417, 0.22349146008491516, 0.1522747278213501, -0.013308120891451836], [-0.031139882281422615, -0.08886308968067169, -0.07373150438070297, 0.039308980107307434, 0.13983553647994995, 0.09211350232362747, 0.02037082426249981, 0.07520110160112381, -0.05672549456357956, 0.005032255779951811, 0.03315841779112816, 0.14323997497558594, -0.006953124422580004, 0.07620570063591003, 0.04932042211294174, 0.08568519353866577, 0.05282861739397049, -0.07706166803836823, -0.013830079697072506, 0.001243320875801146, 0.07739268243312836, -0.3410134017467499, -0.05336398258805275, 0.07082486152648926], [-0.08301511406898499, 0.03991449996829033, -0.054681070148944855, -0.05111486464738846, -0.06597217172384262, 0.06454343348741531, 0.022160595282912254, 0.050416409969329834, 0.07637335360050201, 0.047578491270542145, 0.025964317843317986, -0.14117947220802307, 0.02522691711783409, -0.04044559225440025, 0.17779941856861115, -0.056784793734550476, -0.03436785936355591, -0.15552249550819397, 0.04967477545142174, -0.27140194177627563, -0.004407372325658798, -0.02358916960656643, 0.01926121860742569, -0.0261716116219759], [-0.10455694049596786, -0.08975406736135483, 0.14317752420902252, 0.05519598349928856, 0.04378420114517212, -0.0186447910964489, -0.08466234803199768, 0.08123250305652618, 0.04413311555981636, -0.017508964985609055, 0.18632198870182037, 0.17846697568893433, -0.060002464801073074, -0.11128800362348557, 0.004974011797457933, 0.017969630658626556, 0.08606645464897156, 0.09783666580915451, 0.19921590387821198, 0.12525339424610138, -0.02161332778632641, -0.11583611369132996, -0.0569906122982502, -0.07021450996398926], [-0.005958144087344408, -0.0801357552409172, -0.12764309346675873, 0.030474459752440453, 0.12915772199630737, 0.12419696897268295, -0.09928615391254425, 0.12187284231185913, 0.03432949259877205, -0.058758143335580826, 0.17638204991817474, -0.11416716873645782, -0.10167410969734192, -0.09059736132621765, 0.057025425136089325, -0.041959475725889206, -0.13919168710708618, -0.15485450625419617, 0.1402774602174759, -0.11983952671289444, -0.1810171902179718, 0.2335406094789505, 0.15926583111286163, 0.10612399876117706], [-0.1304156482219696, 0.052093181759119034, -0.18608428537845612, -0.24774903059005737, 0.10551624745130539, 0.04182746633887291, -0.046026743948459625, -0.14607931673526764, -0.12492286413908005, 0.06531473249197006, -0.08974944800138474, -0.12078620493412018, 0.043588340282440186, 0.12665195763111115, -0.16920173168182373, -0.04229183495044708, -0.1071438416838646, 0.13032862544059753, -0.02604258619248867, 0.1441691368818283, -0.06652267277240753, 0.095338836312294, -0.07302196323871613, -0.02080158144235611], [-0.09301804006099701, 0.11261419951915741, 0.09059003740549088, -0.07250802218914032, 0.06898531317710876, 0.02516229636967182, 0.18149051070213318, -0.14178837835788727, -0.024476855993270874, 0.026455827057361603, -0.053002819418907166, -0.0023092094343155622, 0.12261486053466797, -0.09140338003635406, 0.017960311844944954, -0.2369604855775833, -0.04799358546733856, 0.046148430556058884, 0.05791992321610451, -0.05681585147976875, 0.17031897604465485, 0.17383374273777008, -0.0258799996227026, -0.11432178318500519], [-0.06322617828845978, 0.19074006378650665, 0.11947937309741974, 0.019595352932810783, -0.07198796421289444, 0.11954649537801743, 0.11590071767568588, -0.06280504912137985, 0.009890555404126644, 0.10114769637584686, -0.16794362664222717, -0.04043585807085037, -0.05696583911776543, 0.06469579041004181, -0.096316859126091, -0.06509464234113693, 0.1046854630112648, 0.06529507786035538, -0.1443912535905838, 0.08441874384880066, -0.08286520093679428, 0.13124772906303406, -0.00728727038949728, 0.01647237502038479], [-0.013475033454596996, -0.04656805098056793, -0.027405871078372, -0.06648778915405273, 0.028802597895264626, -0.12021549046039581, 0.08196678012609482, -0.12574686110019684, 0.08391115069389343, -0.056816261261701584, 0.15099360048770905, 0.15318673849105835, -0.10322944074869156, -0.06884659826755524, -0.06988254934549332, 0.04142792150378227, -0.10390983521938324, -0.050309501588344574, -0.05976010113954544, 0.15437719225883484, 0.10288334637880325, -0.07703491300344467, 0.08818946033716202, -0.07321766018867493], [-0.0537378191947937, -0.1580524444580078, 0.06983444839715958, 0.0080261854454875, 0.14622797071933746, -0.03026214987039566, -0.018734047189354897, 0.15644851326942444, 0.10219508409500122, -0.05632700026035309, -0.009986154735088348, -0.1362900286912918, -0.15962736308574677, -0.17825362086296082, -0.12004982680082321, 0.07402245700359344, -0.07328270375728607, -0.038669388741254807, -0.0064976876601576805, 0.01875392533838749, 0.03590049967169762, -0.2598266303539276, 0.06359611451625824, -0.0414898619055748], [-0.06423026323318481, 0.009285814128816128, 0.08247984945774078, -0.014168797992169857, 0.10083205252885818, 0.1472664773464203, 0.09906868636608124, 0.09978941828012466, 0.014589602127671242, -0.046272341161966324, 0.03488343581557274, 0.10511980950832367, 0.1402766853570938, 0.029212016612291336, 0.03665134310722351, 0.06111196428537369, -0.10181687027215958, 0.005092246923595667, 0.04932538792490959, 0.11867285519838333, 0.30008453130722046, -0.21366623044013977, -0.10397941619157791, -0.12175312638282776], [0.12400802224874496, 0.12526074051856995, -0.08695860207080841, -0.06531482189893723, 0.04882022738456726, -0.007366908248513937, 0.05744272843003273, -0.0058952015824615955, 0.015854492783546448, -0.006028155796229839, 0.008053082972764969, 0.09483077377080917, -0.04613568261265755, -0.01567627117037773, 0.015976469963788986, 0.14185763895511627, -0.12690404057502747, 0.029288096353411674, -0.0130716348066926, -0.06744283437728882, -0.005657571367919445, -0.013453809544444084, 0.20202285051345825, 0.03518788889050484], [-0.08088028430938721, 0.058662135154008865, -0.19883796572685242, 0.1748073548078537, 0.03003324382007122, -0.06337776780128479, -0.03545326739549637, -0.0035197678953409195, 0.03292965516448021, -0.09244457632303238, 0.22101472318172455, 0.01577567495405674, 0.07306966930627823, 0.06453276425600052, -0.2995038628578186, 0.004030897282063961, 0.014010231010615826, 0.050613004714250565, -0.13630418479442596, 0.14115895330905914, -0.04817654937505722, 0.026258012279868126, -0.04605819284915924, 0.15786993503570557], [0.0022368270438164473, -0.03367192670702934, 0.05897132679820061, -0.06704326719045639, 0.046704232692718506, 0.06891126930713654, -0.05451614037156105, -0.02883964031934738, -0.02098960615694523, 0.19157849252223969, -0.14387129247188568, -0.060287367552518845, -0.024163387715816498, 0.03348616138100624, 0.07529699057340622, -0.12399259954690933, -0.02760186232626438, 0.07105085253715515, -0.05848338454961777, -0.13686850666999817, 0.13342410326004028, 0.06478459388017654, 0.10976321995258331, -0.049236543476581573], [0.01044552680104971, 0.10652574896812439, -0.06614428013563156, -0.0933297723531723, 0.0054209595546126366, 0.11095385998487473, 0.09878399968147278, -0.022950343787670135, 0.0032750230748206377, 0.1315937638282776, -0.017452137544751167, -0.01660674624145031, -0.019078128039836884, -0.0249346811324358, 0.0021785208955407143, -0.14872680604457855, 0.043128810822963715, -0.09881925582885742, -0.01697356440126896, 0.018329141661524773, 0.003109457204118371, 0.12410899251699448, -0.022904884070158005, 0.04752472788095474], [-0.12265478074550629, 0.05589040368795395, 0.06940394639968872, 0.14393779635429382, -0.12230107188224792, 0.17095007002353668, 0.09598907083272934, 0.08871812373399734, -0.007969914935529232, 0.01900947280228138, -0.09986583143472672, 0.0703267976641655, -0.022969111800193787, 0.00442130072042346, -0.0954500138759613, 0.004608425311744213, 0.1288539618253708, 0.15781843662261963, 0.1292896419763565, 0.17641089856624603, -0.046441733837127686, 0.07497408986091614, -0.035477347671985626, -0.006964749190956354], [-0.006142559461295605, -0.006745116785168648, 0.07161369919776917, -0.034745145589113235, -0.12408355623483658, 0.06497985869646072, 0.1400168389081955, -0.33312347531318665, 0.014243930578231812, 0.0623750165104866, -0.047412678599357605, 0.1054839938879013, 0.02656637318432331, 0.026295987889170647, -0.02678365260362625, -0.11449307948350906, 0.004047525115311146, 0.02328093722462654, 0.022513387724757195, -0.22214838862419128, 0.08501826226711273, 0.1882537603378296, -0.013657196424901485, 0.0717300996184349], [0.11362108588218689, -0.05872885510325432, -0.10395240038633347, 0.055905185639858246, -0.0016295253299176693, -0.09245265275239944, -0.12115994840860367, 0.05310143902897835, -0.03738294541835785, -0.13807068765163422, 0.0339566133916378, -0.1497417539358139, 0.013288904912769794, 0.0312222670763731, 0.08048758655786514, 0.08786989003419876, 0.05855448544025421, 0.08109323680400848, -0.12622366845607758, 0.29620543122291565, -0.17183953523635864, -0.04367693513631821, 0.22865110635757446, 0.04752463474869728], [0.012121477164328098, -0.03782811760902405, 0.08697904646396637, -0.18365827202796936, -0.041682325303554535, -0.04459843412041664, -0.04536466300487518, 0.002645231317728758, 0.012207329273223877, -0.03741685673594475, -0.009573852643370628, 0.09686509519815445, 0.08935818821191788, 0.031412336975336075, 0.10112875699996948, -0.12060675770044327, 0.07788453251123428, 0.07570092380046844, -0.15065373480319977, -0.03926149383187294, -0.0724700540304184, 0.1593855321407318, 0.12936893105506897, -0.011092429980635643], [-0.08396731317043304, -0.020253559574484825, -0.19405709207057953, -0.10198955237865448, -0.0018886900506913662, -0.0029505945276468992, 0.09409062564373016, 0.13413137197494507, 0.019927889108657837, -0.08503569662570953, 0.044131089001894, 0.023991284891963005, 0.1442822962999344, -0.003120100125670433, -0.03346101567149162, 0.07748164981603622, 0.011566517874598503, -0.08156175911426544, 0.051104187965393066, -0.05639524385333061, 0.028378907591104507, -0.19400633871555328, -0.22391566634178162, -0.06180217117071152], [0.20525316894054413, -0.06741078943014145, -0.060770291835069656, -0.1435783952474594, 0.006931370589882135, -0.010289764031767845, 0.0009697473724372685, -0.19744591414928436, -0.15517763793468475, -0.033037979155778885, 0.20927201211452484, -0.0686304122209549, -0.08724790811538696, 0.0884707123041153, -0.047533050179481506, -0.12812523543834686, 0.16196034848690033, 0.08333849906921387, 0.010360478423535824, -0.07399412244558334, -0.22041375935077667, 0.09999331086874008, -0.01915189065039158, -0.10345778614282608], [0.03953684866428375, 0.14444394409656525, 0.11048759520053864, 0.07961646467447281, 0.07101944088935852, -0.015729442238807678, -0.027046792209148407, 0.18815737962722778, 0.04464469477534294, -0.019342482089996338, 0.016656534746289253, 0.07740924507379532, -0.04704679548740387, 0.099443219602108, -0.14460165798664093, 0.10430356115102768, -0.12118609249591827, 0.030999796465039253, -0.16926907002925873, -0.08580956608057022, 0.030073031783103943, -0.15662001073360443, 0.005642380099743605, 0.010851326398551464], [-0.02376442216336727, 0.09439710527658463, 0.06837913393974304, -0.01692267507314682, 0.16018380224704742, 0.09992016106843948, -0.15019364655017853, 0.0671367347240448, 0.09629795700311661, -0.05227106809616089, 0.22278344631195068, -0.13662943243980408, -0.104525126516819, 0.003874958725646138, -0.005276804324239492, -0.026861095800995827, -0.04924198240041733, 0.0609549805521965, 0.08119689673185349, 0.038706690073013306, 0.011498409323394299, 0.09889226406812668, 0.005232415162026882, 0.09406530112028122], [-0.11724795401096344, 0.09051541239023209, 0.008046391420066357, -0.052746109664440155, 0.12115516513586044, 0.006239964626729488, 0.00862471479922533, -0.0007385473581962287, 0.007745490409433842, -0.0014821405056864023, 0.09284523129463196, -0.03980344533920288, -0.15336965024471283, -0.0009160795598290861, -0.023798424750566483, -0.0060158283449709415, 0.0678912028670311, -0.02689526602625847, -0.044913556426763535, 0.00024057814152911305, 0.04885892942547798, -0.19343146681785583, -0.0012894377578049898, 0.0048156240954995155], [0.07291233539581299, 0.07620927691459656, 0.08761746436357498, -0.0005213560652919114, -0.13266046345233917, -0.04776965081691742, 0.19592811167240143, -0.05946136638522148, -0.09556938707828522, 0.015164014883339405, 0.08380189538002014, 0.07874830812215805, 0.03957425057888031, 0.051901254802942276, 0.02260959893465042, -0.044413935393095016, -0.058154016733169556, -0.010708714835345745, 0.06418341398239136, -0.007969292812049389, 0.15227019786834717, 0.15201784670352936, -0.045652877539396286, 0.05481123551726341], [-0.05911214277148247, -0.24240437150001526, 0.02108878642320633, -0.009761685505509377, 0.04812030866742134, 0.11121638119220734, -0.13654488325119019, -0.0454295352101326, 0.12854008376598358, -0.001471689436584711, -0.08008455485105515, 0.07739388197660446, -0.06486110389232635, -0.03684189170598984, -0.04167742654681206, 0.07552050799131393, -0.09740316867828369, 0.088546521961689, 0.012731418944895267, -0.27430176734924316, 0.03907080367207527, 0.04249808192253113, -0.06594330072402954, -0.03698711097240448], [0.06658555567264557, -0.10476213693618774, 0.026236603036522865, -0.1637638956308365, 0.020305078476667404, -0.1472187638282776, -0.0013043370563536882, 0.055266719311475754, 0.10142242908477783, -0.05462682992219925, -0.05997360497713089, 0.08325199782848358, -0.09405101835727692, -0.057121094316244125, 0.07202224433422089, 0.00696498854085803, 0.09446147084236145, -0.09177117049694061, 0.19195450842380524, -0.25235339999198914, 0.06662522256374359, 0.012316836044192314, 0.01985778473317623, 0.2338830530643463], [-0.038028039038181305, 0.18610741198062897, 0.0040639410726726055, -0.055711839348077774, 0.09082876145839691, 0.10975469648838043, -0.051231201738119125, 0.03433064743876457, 0.09905834496021271, -0.014545684680342674, 0.018462102860212326, 0.08800205588340759, -0.023010702803730965, -0.09412583708763123, 0.008502531796693802, -0.005783139728009701, -0.019941819831728935, 0.19680118560791016, 0.09570033103227615, 0.2682383060455322, 0.03177854046225548, -0.1475813090801239, -0.06914062798023224, -0.18417245149612427], [0.06318378448486328, -0.0038684054743498564, -0.16822132468223572, -0.04387538135051727, 0.05613744258880615, -0.056447722017765045, -0.05176413431763649, -0.11626836657524109, 0.021777739748358727, -0.13957767188549042, -0.18041691184043884, -0.025491369888186455, -0.01757078431546688, -0.04335200414061546, 0.17941762506961823, -0.016669390723109245, -0.002654955955222249, -0.0644116923213005, 0.16436924040317535, 0.07342145591974258, -0.10821735858917236, 0.11913520097732544, 0.0700487419962883, 0.08785439282655716], [-0.07719818502664566, -0.21366260945796967, -0.01361612044274807, -0.15271857380867004, -0.061081428080797195, 0.09066057205200195, -0.27327093482017517, 0.08741606026887894, -0.03080533817410469, -0.03283577039837837, 0.01634160801768303, -0.027571095153689384, -0.03379683569073677, -0.0788305401802063, 0.038481686264276505, -0.21495755016803741, 0.13277475535869598, -0.04169541224837303, -0.0654904916882515, -0.03457781299948692, 0.10423050075769424, 0.08821403980255127, 0.07550495117902756, 0.04218173399567604], [-0.1505078673362732, -0.0777759999036789, 0.04088921099901199, -0.01945047453045845, 0.1053551584482193, -0.03715190291404724, -0.004622826352715492, -0.05017583817243576, 0.1393996626138687, -0.13205473124980927, -0.009888818487524986, -0.17438988387584686, -0.10641340166330338, -0.09094755351543427, -0.06422798335552216, 0.13593067228794098, 0.028075044974684715, 0.005093616899102926, -0.061748676002025604, -0.08327852189540863, 0.01694997400045395, 0.08785609900951385, -0.10133549571037292, -0.014202427119016647], [-0.009167934767901897, -0.0912242904305458, -0.04844185709953308, -0.017917457967996597, -0.05415518581867218, -0.04269317165017128, -0.07451048493385315, -0.0741078108549118, -0.07985365390777588, 0.16882239282131195, -0.08933340013027191, -0.14096175134181976, 0.023622838780283928, -0.09293139725923538, 0.03970123082399368, 0.006397106219083071, 0.05512797087430954, -0.09311129152774811, -0.005336373578757048, 0.22033502161502838, 0.1746649593114853, -0.00395334605127573, -0.01868879795074463, 0.01893724873661995], [-0.1338283270597458, 0.021189820021390915, 0.07333360612392426, -0.1629016101360321, -0.043386008590459824, -0.03862391412258148, -0.06951270252466202, -0.08407868444919586, 0.009619451127946377, -0.00950736552476883, 0.013572510331869125, 0.03574531152844429, -0.04148475080728531, -0.1881241500377655, -0.12370266765356064, 0.05460375174880028, 0.018846973776817322, -0.17553570866584778, 0.010588238947093487, 0.015347380191087723, 0.1133163720369339, 0.06432134658098221, -0.05122821405529976, 0.07796882838010788], [0.06572879105806351, 0.046674132347106934, 0.052550286054611206, -0.08647570759057999, 0.12029731273651123, 0.077956922352314, -0.005632885731756687, -0.07252445816993713, 0.039328183978796005, 0.08749901503324509, -0.0934128686785698, 0.10947581380605698, 0.07570844888687134, 0.024116719141602516, -0.1365290880203247, -0.0839819461107254, -0.019411038607358932, 0.00039292857400141656, -0.02268427610397339, -0.17344099283218384, -0.20775996148586273, 0.2021026462316513, -0.050842635333538055, -0.09272202849388123], [-0.005751829594373703, 0.08417410403490067, -0.1823301613330841, 0.11574053764343262, 0.05685681477189064, 0.09496648609638214, -0.0035428290721029043, -0.05683150887489319, 0.06945040076971054, 0.039358705282211304, 0.039460062980651855, 0.16861312091350555, -0.04627133905887604, 0.06175606697797775, 0.03292347118258476, -0.03024739772081375, 0.036839790642261505, 0.04597751423716545, 0.14293386042118073, 0.22973528504371643, -0.08241899311542511, 0.2077278047800064, -0.005580700933933258, -0.12855660915374756], [-0.09436266869306564, -0.17814956605434418, -0.1006680577993393, -0.19685272872447968, -0.012709452770650387, -0.12963074445724487, 0.1052531972527504, 0.014008519239723682, 0.04497206211090088, -0.08233177661895752, 0.013989678584039211, -0.027223942801356316, -0.0216263085603714, -0.034613266587257385, -0.08986765146255493, -0.04254318028688431, 0.05856247618794441, -0.08485985547304153, -0.17207078635692596, -0.05880331993103027, -0.05492538586258888, 0.13659927248954773, -0.04749435558915138, 0.13900905847549438], [-0.018842097371816635, -0.02878287062048912, 0.21231399476528168, 0.03795107081532478, -0.09341513365507126, 0.05649818107485771, 0.15490256249904633, 0.08726010471582413, 0.06403398513793945, 0.07556357979774475, 0.07154441624879837, 0.13395053148269653, -0.05974850803613663, 0.07020500302314758, -0.025604408234357834, 0.0029129511676728725, -0.04806673526763916, 0.07388970255851746, -0.10365647822618484, -0.056950878351926804, 0.1065661758184433, 0.10562612861394882, 0.056423842906951904, -0.02893887460231781], [0.036327410489320755, -0.08693753927946091, -0.06962496042251587, -0.17722436785697937, 0.10369580239057541, -0.0636531263589859, 0.10343022644519806, -0.04611893743276596, -0.006366969086229801, 0.22407637536525726, -0.08690410107374191, -0.05647091940045357, -0.06460139155387878, 0.153982013463974, 0.08097200840711594, 0.06148497015237808, 0.023694707080721855, 0.15997397899627686, -0.10450120270252228, 0.1764814555644989, 0.004353729076683521, -0.18399891257286072, 0.04370582848787308, -0.12920571863651276], [0.040911901742219925, 0.05989896506071091, -0.15260456502437592, 0.2081163078546524, 0.08004390448331833, -0.01608305424451828, 0.10373269766569138, 0.07702944427728653, -0.028470994904637337, -0.25101783871650696, -0.0037431076634675264, -0.04951635003089905, -0.04632991924881935, -0.25000402331352234, -0.07902295142412186, 0.0059399688616395, -0.005325688514858484, 0.06139715015888214, -0.027623355388641357, 0.1805102825164795, -0.027188142761588097, -0.013225886970758438, 0.023441603407263756, -0.01950373500585556], [0.1752455085515976, -0.12606915831565857, -0.12124267220497131, -0.12239868193864822, -0.13247916102409363, -0.15161241590976715, -0.18545645475387573, 0.14068062603473663, -0.10600954294204712, -0.051308322697877884, 0.09887050837278366, 0.0011041436810046434, -0.18536607921123505, 0.03744054213166237, 0.18297956883907318, 0.012413027696311474, 0.10988869518041611, 0.08528584986925125, -0.1431642323732376, 0.14416302740573883, -0.20285260677337646, 0.10778792947530746, 0.05114369839429855, 0.014576343819499016], [-0.023845989257097244, 0.05394792929291725, -0.07965891063213348, 0.16418157517910004, -0.04336961358785629, -0.022703057155013084, -0.11663943529129028, 0.015364698134362698, 0.03266946226358414, -0.06743913888931274, -0.00534663675352931, 0.08005519211292267, -0.03591066226363182, 0.02425532042980194, -0.15227487683296204, 0.06586015224456787, -0.0705195739865303, -0.0035951598547399044, -0.03612695634365082, -0.0034216823987662792, -0.018628617748618126, -0.1442440152168274, 0.08702477812767029, 0.0024166307412087917], [0.10207925736904144, 0.08072276413440704, -0.1026495099067688, -0.00863813515752554, -0.18140001595020294, 0.10890498012304306, 0.030397474765777588, -0.02580779604613781, -0.05822247639298439, -0.007377947214990854, -0.16160129010677338, -0.0886993333697319, -0.03662002831697464, -0.034970708191394806, 0.08665549010038376, 0.09689110517501831, 0.0236591137945652, -0.10466737300157547, 0.046156659722328186, -0.02426169440150261, 0.07969147711992264, 0.02150462381541729, -0.09146147966384888, -0.046111397445201874], [-0.03751933202147484, 0.031292662024497986, 0.021056395024061203, 0.08404688537120819, -0.12412305176258087, -0.13737232983112335, -0.12975940108299255, 0.15090975165367126, 0.02155163325369358, -0.03712976351380348, -0.0150652090087533, -0.08620985597372055, -0.00414942717179656, -0.09760617464780807, -0.061742570251226425, 0.042286235839128494, -0.018507743254303932, -0.010687465779483318, -0.060983117669820786, -0.05140339955687523, 0.14722274243831635, -0.09962837398052216, 0.12103917449712753, 0.14367806911468506], [-0.07622034102678299, -0.06813010573387146, 0.08362661302089691, -0.007306366693228483, 0.15177805721759796, -0.0788394957780838, 0.10858839005231857, 0.04913845658302307, 0.05171521380543709, 0.05505810305476189, -0.06280127167701721, 0.07021132111549377, 0.06876399368047714, 0.15205538272857666, 0.002592044649645686, 0.10550770908594131, -0.01886001229286194, 0.011365027166903019, -0.07134319841861725, 0.3743640184402466, 0.020414428785443306, -0.008724481798708439, 0.06637563556432724, 0.2366398125886917], [-0.0038174318615347147, -0.08829012513160706, -0.16416767239570618, 0.05724215880036354, 0.25141310691833496, -0.2126963883638382, 0.078887939453125, 0.10546481609344482, -0.08474516123533249, -0.1168181374669075, 0.05404333397746086, 0.05162780359387398, -0.055791452527046204, 0.11769958585500717, 0.17497079074382782, 0.044768400490283966, 0.07701041549444199, 0.08233936876058578, 0.08171477913856506, -0.045483555644750595, 0.14324413239955902, -0.06489964574575424, -0.14411461353302002, -0.05161813274025917], [0.04828784614801407, 0.11074060946702957, 0.07485730946063995, -0.07045935839414597, -0.00154824776109308, -0.06830224394798279, -0.23868724703788757, -0.13542906939983368, -0.056529562920331955, -0.003166777081787586, 0.07400092482566833, -0.049369003623723984, 0.09629397094249725, 0.04924280196428299, 0.07849089801311493, -0.13651727139949799, 0.00838546920567751, 0.25793927907943726, -0.09120509773492813, 0.20314589142799377, -0.046374209225177765, 0.04922004044055939, -0.014368955045938492, 0.17883983254432678], [0.003396030282601714, 0.12276528030633926, 0.03431402146816254, 0.01774785667657852, 0.06252207607030869, -0.06529928743839264, 0.04750218987464905, 0.02345290407538414, -0.027965914458036423, -0.05946241691708565, 0.21602009236812592, -0.07477714121341705, -0.056569769978523254, 0.06477681547403336, 0.14633890986442566, 0.03334834426641464, 0.047129854559898376, -0.05919510871171951, 0.05703834816813469, -0.1658143550157547, 0.03294330835342407, -0.07416505366563797, -0.07060084491968155, -0.10905122011899948], [-0.059695061296224594, 0.05921454355120659, -0.28237465023994446, -0.0018267856212332845, -0.050720106810331345, -0.006128852255642414, -0.006422126200050116, -0.22398978471755981, 0.002412960631772876, -0.11740930378437042, 0.06319526582956314, -0.06279735267162323, 0.08537211269140244, 0.048994675278663635, 0.07481654733419418, -0.06584256142377853, -0.08268424868583679, 0.04785715416073799, -0.038383737206459045, 0.014421667903661728, 0.3677017092704773, 0.03560074791312218, 0.0703570768237114, -0.09123938530683517], [-0.10880710929632187, -0.035285208374261856, 0.08072663843631744, -0.13373912870883942, -0.05975102260708809, -0.04755599424242973, -0.06549638509750366, 0.021901970729231834, -0.060585588216781616, -0.20143571496009827, -0.022843537852168083, 0.028925936669111252, -0.0073755765333771706, 0.017700348049402237, -0.034939732402563095, 0.09494107961654663, -0.02147635631263256, 0.028547849506139755, 0.019692687317728996, -0.008732322603464127, 0.09434797614812851, -0.12178944051265717, 0.04430779442191124, 0.07763560116291046], [0.05775859206914902, 0.01773945614695549, 0.010807217098772526, -0.05854009836912155, -0.01291608065366745, 0.09745223075151443, 0.05431652069091797, 0.029243228957057, -0.03687836229801178, 0.13776855170726776, 0.01160028763115406, -0.1668788343667984, -0.07169493287801743, -0.08161874115467072, -0.07753750681877136, -0.006407056003808975, 0.031245753169059753, 0.05584581568837166, -0.16723386943340302, 0.2458256036043167, 0.06605394184589386, -0.040273331105709076, 0.08646462857723236, -0.06927686929702759], [0.1040755957365036, 0.3155234456062317, -0.047158047556877136, 0.07904121279716492, 0.04050315171480179, 0.15636354684829712, -0.011549201793968678, -0.034725986421108246, 0.012461819685995579, 0.10007350146770477, 0.0283164344727993, -0.2079979032278061, 0.10324224084615707, 0.022042972967028618, -0.09101942926645279, -0.07157675176858902, -0.048393622040748596, -0.0070940000005066395, -0.11566296964883804, 0.034870922565460205, -0.11660202592611313, 0.04310427978634834, -0.06553532928228378, -0.04899642989039421], [0.1358160376548767, -0.17421939969062805, 0.05564844608306885, 0.01380856242030859, 0.08717694878578186, 0.0814032331109047, -0.1647731065750122, -0.16750958561897278, -0.23402346670627594, 0.030339986085891724, -0.06878440082073212, 0.07244300842285156, 0.060228362679481506, -0.068427674472332, 0.009825560264289379, 0.15457120537757874, -0.06394392251968384, 0.030319174751639366, 0.03534437716007233, -0.038593046367168427, -0.028369201347231865, -0.17801828682422638, 0.051010336726903915, -0.13680490851402283], [0.08896278589963913, 0.030443331226706505, 0.12038132548332214, 0.1596270203590393, -0.09381519258022308, 0.10984089225530624, 0.1311817765235901, -0.0818285271525383, -0.07039391994476318, -0.08932899683713913, -0.0057724853977561, 0.05404003709554672, -0.10784168541431427, -0.0732000321149826, -0.11815711110830307, 0.12080293148756027, 0.12721678614616394, 0.0033848804887384176, -0.10988634079694748, -0.06492355465888977, -0.17650175094604492, -0.11662966758012772, -0.01415553130209446, 0.015606162138283253], [0.04925819858908653, 0.18892431259155273, -0.07645557075738907, -0.17414593696594238, 0.14708445966243744, 0.06016470864415169, -0.06573273241519928, 0.022563781589269638, -0.11061713844537735, -0.021363502368330956, 0.12628832459449768, -0.03801402822136879, 0.05925561860203743, 0.018398968502879143, -0.16288158297538757, -0.0784865990281105, -0.02687983401119709, 0.1943465769290924, -0.02234090492129326, 0.03262327238917351, 0.14574211835861206, 0.0220868568867445, 0.08414355665445328, 0.156316339969635], [-0.024643810465931892, 0.08004182577133179, -0.08184071630239487, -0.1402997523546219, -0.07214941084384918, 0.05681905522942543, 0.1570042371749878, 0.12331728637218475, 0.06540585309267044, -0.24454554915428162, -0.11008796840906143, -0.015073982067406178, 0.013082260265946388, -0.021815648302435875, -0.02471317909657955, -0.05810853838920593, -0.020489506423473358, 0.08331602811813354, -0.047796398401260376, -0.09852313250303268, -0.07419704645872116, -0.013808480463922024, -0.036761343479156494, -0.05904246121644974], [0.09279068559408188, 0.04409116879105568, 0.11021485179662704, -0.04223049804568291, 0.023819340392947197, -0.12943950295448303, 0.01762939989566803, -0.12352904677391052, 0.06708972901105881, -0.0933685451745987, -0.03798346966505051, -0.07836925238370895, 0.13093605637550354, 0.1284385323524475, -0.20128795504570007, 0.2196509689092636, 0.08021167665719986, 0.05055617168545723, -0.06624005734920502, 0.06019839644432068, 0.0045304796658456326, -0.04216080531477928, -0.09060119092464447, -0.06718462705612183], [-0.02073064260184765, -0.09576915204524994, 0.04013774171471596, -0.1148340180516243, 0.056912340223789215, 0.13401655852794647, -0.054232485592365265, -0.1445421427488327, 0.042596522718667984, 0.1944163590669632, -0.018247082829475403, -0.019057543948292732, -0.0014200946316123009, 0.1704927384853363, 0.07694022357463837, -0.16271884739398956, 0.040135957300662994, 0.137064129114151, 0.1331634223461151, 0.12532037496566772, -0.11397615075111389, 0.15755926072597504, -0.024069828912615776, 0.019767949357628822], [-0.0848536416888237, -0.081692636013031, -0.10722360759973526, -0.05314125865697861, 0.024438781663775444, -0.08861719816923141, -0.07837878167629242, 0.09290745109319687, -0.008310327306389809, -0.06086861342191696, 0.19635654985904694, -0.13518230617046356, 0.16674594581127167, -0.12972067296504974, -0.012561076320707798, 0.010965409688651562, 0.06486701965332031, -0.07475361973047256, -0.21880605816841125, 0.0032425911631435156, -0.14861145615577698, -0.1702806055545807, 0.14008061587810516, 0.14764925837516785], [-0.06838709861040115, -0.13233159482479095, 0.08260095119476318, -0.0382426492869854, 0.030208606272935867, -0.2069980949163437, 0.01659465581178665, 0.06545749306678772, -0.02060309797525406, 0.054805874824523926, -0.08120177686214447, -0.13215133547782898, 0.01755906641483307, 0.03661122918128967, 0.10946173220872879, -0.005417061038315296, 0.06630586087703705, -0.04676510766148567, -0.07211301475763321, -0.0005577094852924347, -0.03578507900238037, -0.16790041327476501, -0.03101348504424095, 0.024201346561312675], [-0.06279688328504562, 0.14272812008857727, 0.05506717786192894, -0.07780792564153671, -0.012620103545486927, 0.009734546765685081, 0.06404903531074524, 0.012009130790829659, -0.06733167171478271, -0.04007691144943237, -0.05904592201113701, -0.07116957753896713, -0.04117255285382271, 0.20088398456573486, 0.05935727432370186, 0.06375861912965775, -0.008253057487308979, 0.03185797110199928, -0.1747765839099884, -0.017956795170903206, 0.014554498717188835, -0.11746948957443237, 0.062066927552223206, 0.006758103612810373], [0.09490735828876495, -0.029398079961538315, 0.02316863089799881, -0.2942948043346405, -0.08166776597499847, 0.15399794280529022, -0.04350316897034645, -0.021399924531579018, 0.07639861851930618, 0.11307521909475327, -0.01618894189596176, 0.020321236923336983, -0.1596003770828247, -0.013817781582474709, -0.11130473017692566, -0.06859726458787918, 0.0665106549859047, -0.05290118232369423, -0.12017834186553955, 0.15229997038841248, 0.012532168999314308, 0.1343637853860855, 0.06866855919361115, 0.0511355996131897], [0.011464115232229233, 0.158309206366539, 0.09096275269985199, 0.14827239513397217, -0.0023051362950354815, 0.01993240788578987, 0.049380481243133545, -0.0071252379566431046, 0.08143278956413269, 0.0924801379442215, -0.06516420096158981, -0.026400743052363396, 0.07038552314043045, -0.008023113012313843, -0.002048690104857087, -0.08724876493215561, -0.022036535665392876, 0.11394722759723663, 0.12670685350894928, 0.036531999707221985, -0.0910915732383728, 0.20780576765537262, -0.07057157903909683, 0.0705827921628952], [-0.011490673758089542, -0.04269322007894516, 0.001976524479687214, 0.01337672583758831, -0.07566358894109726, 0.2019396275281906, 0.000571955693885684, -0.2627890408039093, -0.031343039125204086, 0.09475768357515335, -0.010740535333752632, -0.06161349266767502, -0.08594270050525665, 0.052862830460071564, -0.035410694777965546, -0.15815912187099457, 0.02414972521364689, 0.007502405438572168, 0.001970152137801051, -0.04393291845917702, 0.12484918534755707, 0.03018765151500702, -0.00874840747565031, -0.07382027059793472], [0.09073207527399063, 0.08211403340101242, -0.1518687754869461, 0.12403701990842819, 0.10354496538639069, -0.0982586070895195, -0.09893713891506195, -0.10537155717611313, -0.11262965202331543, -0.027111880481243134, 0.0865754708647728, 0.15164820849895477, -0.1393003761768341, 0.08673971891403198, 0.10314063727855682, 0.042534880340099335, 0.02171568013727665, -0.030446236953139305, -0.009256093762814999, -0.11659517884254456, 0.02763938717544079, 0.02516155131161213, -0.017814094200730324, -0.057345353066921234], [-0.010257275775074959, -0.07900233566761017, 0.07670325040817261, -0.03334924951195717, -0.04524560272693634, -0.10119623690843582, 0.09273473173379898, -0.041755326092243195, -0.02545255981385708, 0.019932661205530167, 0.03120085969567299, -0.03547540679574013, 0.04803043231368065, 0.13287656009197235, -0.11380479484796524, -0.24233190715312958, 0.08758686482906342, -0.05292079597711563, -0.0171892698854208, 0.007371037267148495, -0.1048523485660553, -0.04924996569752693, -0.08177099376916885, 0.13024389743804932], [-0.002333829877898097, 0.0183878093957901, 0.09161312133073807, -0.06047612056136131, -0.0850420817732811, 0.05886659771203995, -0.05460500717163086, 0.031784795224666595, -0.005041108466684818, -0.036555565893650055, 0.028361929580569267, -0.02645927667617798, 0.12587706744670868, -0.014224627055227757, 0.036238014698028564, -0.1115427315235138, -0.09325087070465088, 0.06679265201091766, -0.17064665257930756, -0.14830957353115082, 0.011217085644602776, 0.02740997076034546, 0.05311831086874008, 0.06122427061200142], [0.0674491822719574, 0.023192334920167923, 0.03128714859485626, 0.016043247655034065, 0.008647805079817772, -0.015125942416489124, 0.09026943892240524, 0.10515757650136948, 0.11853614449501038, -0.04580934718251228, -0.04796585440635681, 0.21880397200584412, 0.059618860483169556, -0.02095961384475231, -0.011583237908780575, 0.06731335818767548, -0.15557610988616943, -0.08588259667158127, 0.14748337864875793, -0.01901942864060402, -0.056047603487968445, -0.07280032336711884, 0.14141987264156342, -0.05341923609375954], [0.004194001667201519, -0.06734033674001694, 0.09826425462961197, -0.038207948207855225, 0.021197212859988213, 0.0060716187581419945, 0.10239224880933762, 0.21044209599494934, 0.017308371141552925, -0.060917772352695465, -0.2103431522846222, -0.08687448501586914, 0.0029155807569622993, 0.025015780702233315, 0.08216079324483871, 0.20254960656166077, -0.04377996549010277, 0.03086429461836815, 0.12627506256103516, -0.31155434250831604, 0.06586136668920517, 0.04916852340102196, 0.05824898183345795, 0.04241323471069336], [-0.08525148034095764, 0.018490534275770187, -0.0586727112531662, 0.07517220824956894, 0.06891542673110962, -0.044041793793439865, 0.051234859973192215, 0.14025229215621948, 0.18855814635753632, 0.011350545100867748, 0.03334320709109306, 0.04106894135475159, 0.0020101452246308327, 0.0472579225897789, -0.0969393253326416, 0.03532363474369049, -0.05559779331088066, -0.13303111493587494, 0.006898005027323961, -0.07115564495325089, -0.08538738638162613, -0.014448514208197594, 0.0785798504948616, -0.021759705618023872], [-0.01142794732004404, 0.06423412263393402, 0.10264837741851807, 0.06424029916524887, -0.06382295489311218, 0.07683143764734268, 0.0707683265209198, 0.05503533035516739, 0.03384225070476532, 0.09610298275947571, 0.09868551790714264, 0.05647890642285347, -0.04136655479669571, 0.03813209384679794, -0.12677209079265594, -0.09391260147094727, 0.03909692168235779, 0.09697027504444122, -0.041923463344573975, -0.01762719638645649, -0.10885472595691681, 0.31679457426071167, 0.09494766592979431, -0.07283206284046173], [-0.03530926629900932, -0.051385872066020966, 0.15740089118480682, -0.11974921077489853, -0.00943832192569971, -0.096748486161232, 0.02347981557250023, 0.002776478184387088, 0.0598476342856884, -0.036864232271909714, 0.08405303210020065, -0.0024961873423308134, -0.10179215669631958, 0.06510326266288757, -0.12337750196456909, 0.15257209539413452, 0.038480244576931, -0.0984412357211113, 0.139068603515625, 0.047360360622406006, -0.008923470973968506, 0.036423079669475555, 0.06539120525121689, 0.09756844490766525], [0.2280047982931137, 0.0884387418627739, 0.019013917073607445, -0.005849718116223812, -0.08882763981819153, -0.010076976381242275, -0.05437003821134567, 0.04309343919157982, -0.10138718038797379, -0.08049842715263367, -0.09243131428956985, -0.10023880004882812, 0.04260746017098427, -0.037988126277923584, 0.04158685356378555, -0.12015895545482635, -0.05879903584718704, -0.16166910529136658, 0.048556894063949585, -0.01221169251948595, -0.09198281168937683, 0.028739294037222862, -0.2024274319410324, 0.09883133322000504], [-0.09082099795341492, 0.017547806724905968, -0.05743402615189552, -0.02851884812116623, 0.0949447974562645, 0.03903074190020561, -0.018994439393281937, 0.17946013808250427, -0.1156722754240036, -0.024088075384497643, -0.04667896777391434, -0.06826892495155334, -0.11789736896753311, 0.06476574391126633, -0.028701864182949066, 0.1314842402935028, 0.09830550849437714, -0.08855996280908585, -0.05043908208608627, 0.0946490466594696, 0.008149264380335808, -0.08925016969442368, -0.017480473965406418, -0.23856030404567719], [0.0127455685287714, 0.005009955260902643, -0.06492383033037186, 0.05646933615207672, 0.051962241530418396, 0.07925299555063248, 0.2004155069589615, -0.1331859827041626, -0.03185875341296196, 0.09632628411054611, -0.10572817921638489, -0.022782009094953537, 0.05383990332484245, 0.07429200410842896, 0.08725138008594513, 0.03828171268105507, -0.10943436622619629, 0.06171290576457977, 0.15542006492614746, 0.1327611207962036, -0.04665149748325348, -0.07610923051834106, 0.21092958748340607, 0.1788337081670761], [-0.011983869597315788, 0.04343068227171898, 0.047533031553030014, -0.02974623441696167, -0.06526888906955719, 0.051125992089509964, -0.016166361048817635, -0.13240349292755127, -0.07998012006282806, -0.05014315992593765, -0.0022486806847155094, -0.10083324462175369, 0.012913276441395283, -0.024651670828461647, 0.08232641220092773, 0.06983350217342377, 0.06970614939928055, 0.06062125787138939, -0.03580811247229576, 0.13519421219825745, 0.08135098218917847, 0.06307943165302277, -0.00024084396136458963, -0.01277612429112196], [0.023594556376338005, -0.020186495035886765, 0.1284395456314087, 0.14757134020328522, 0.05575214698910713, 0.008925197646021843, 0.04767035320401192, 0.04435514658689499, 0.006961595732718706, -0.09708676487207413, -0.012694301083683968, -0.0005478168604895473, -0.10885211825370789, -0.016842518001794815, -0.10524407774209976, -0.13641056418418884, -0.012326852418482304, 0.10317014902830124, 0.09276888519525528, -0.035136058926582336, 0.006958129350095987, 0.05161195248365402, 0.09883833676576614, 0.034372806549072266], [-0.09547969698905945, 0.018086375668644905, -0.027522463351488113, -0.000454219727544114, -0.0578974150121212, 0.06285775452852249, -0.11252304166555405, 0.0347430519759655, -0.016437996178865433, 0.2011488974094391, -0.18765950202941895, -0.050330862402915955, -0.07945556193590164, 0.007883432321250439, 0.0351979024708271, 0.07261178642511368, 0.0519716739654541, -0.028680823743343353, 0.03774569556117058, -0.04097633436322212, -0.170951709151268, 0.09696575254201889, 0.2284225970506668, -0.22321851551532745], [-0.022005006670951843, -0.27225884795188904, 0.11966999620199203, 0.013540126383304596, -0.024967579171061516, -0.07519025355577469, -0.10341721773147583, -0.033515814691782, -0.03785780444741249, -0.111536405980587, 0.1252528727054596, -0.09447561949491501, -0.07625797390937805, -0.18282625079154968, 0.0023210381623357534, 0.026574254035949707, -0.06892412900924683, -0.0088801896199584, -0.04877183586359024, -0.12125519663095474, 0.002733534900471568, -0.30421456694602966, -0.04370494186878204, 0.07718368619680405], [-0.0021199388429522514, 0.03421207144856453, -0.12066351622343063, 0.08906359225511551, 0.0477229543030262, 0.006099910009652376, 0.10584710538387299, -0.2631319761276245, 0.02305227890610695, 0.015824880450963974, -0.12104472517967224, 0.10585050284862518, -0.18345408141613007, -0.04801063612103462, -0.07491499930620193, 0.02812005952000618, -0.00038768001832067966, -0.021095823496580124, -0.07354366779327393, 0.2443559616804123, 0.02149895578622818, 0.14112870395183563, 0.02097293920814991, 0.027885576710104942], [0.05269729346036911, 0.06864580512046814, 0.1256839483976364, -3.426377134019276e-06, -0.08922096341848373, -0.09958091378211975, 0.016846025362610817, 0.07614050805568695, -0.0441952645778656, 0.12494977563619614, -0.0061228093691170216, 0.08830597996711731, -0.06181265041232109, 0.15511581301689148, 0.057786036282777786, -0.13551416993141174, 0.010843127965927124, 0.0823359489440918, 0.07940466701984406, 0.0646653026342392, -0.010256007313728333, 0.3287073075771332, -0.01971898227930069, -0.08620880544185638], [0.018756108358502388, -0.08588872849941254, 0.03688308224081993, -0.07168466597795486, 0.06718108803033829, -0.09792421758174896, 0.03420381620526314, -0.0494464635848999, -0.01751824840903282, 0.03471587970852852, -0.033061083406209946, -0.02841155417263508, 0.14748889207839966, 0.11559902131557465, -0.036997996270656586, -0.06689563393592834, 0.01258937455713749, -0.03349122777581215, 0.024565070867538452, -0.03555954620242119, -0.14704099297523499, -0.08742426335811615, -0.09438392519950867, 0.01595517061650753], [0.1944621503353119, -0.0004946847329847515, -0.06247708573937416, 0.11677968502044678, 0.12604567408561707, -0.019207051023840904, -0.0702575296163559, 0.18659678101539612, -0.03986886888742447, -0.03236936405301094, -0.10979864001274109, -0.14964559674263, -0.0111258989199996, 0.0031032231636345387, 0.03713534027338028, -0.044656507670879364, -0.10952591896057129, 0.16804519295692444, 0.029068436473608017, 0.001055872067809105, -0.03375447541475296, -0.057398971170186996, 0.0022428943775594234, 0.0601215623319149], [-0.05413418635725975, 0.09997192770242691, 0.01990262046456337, 0.028110703453421593, 0.09819166362285614, 0.0870581641793251, 0.10541711747646332, 0.029093215242028236, -0.09814835339784622, 0.07794065773487091, 0.1318645030260086, 0.023251093924045563, -0.10149568319320679, 0.09269525110721588, -0.04980843514204025, 0.03627687320113182, -0.14349080622196198, 0.08370045572519302, 0.042903631925582886, -0.12894119322299957, 0.02987380512058735, 0.024720503017306328, -0.05036918446421623, -0.011230025440454483], [0.0003199834900442511, 0.010189398191869259, 0.022409144788980484, 0.23244847357273102, -0.07537293434143066, -0.0016435369616374373, -0.048542462289333344, 0.16768993437290192, -0.0358375646173954, -0.23388099670410156, 0.04752126708626747, 0.02380325086414814, 0.03741377964615822, 0.13377311825752258, 0.08597256243228912, -0.0828482061624527, 0.011630766093730927, -0.08571627736091614, 0.12216245383024216, -0.21116937696933746, -0.06017147749662399, -0.08249789476394653, 0.003789423266425729, 0.1972639262676239], [-0.029736774042248726, -0.024702170863747597, -0.07872377336025238, 0.111235611140728, 0.01108787301927805, -0.06747952103614807, -0.04785468801856041, 0.07013197243213654, -0.027794556692242622, -0.018757058307528496, -0.033024437725543976, -0.054903917014598846, -0.005914804060012102, 0.0035672662779688835, -0.03301584720611572, 0.020484741777181625, 0.04352083429694176, -0.04511570930480957, -0.08546717464923859, 0.062447696924209595, -0.008013386279344559, -0.21905267238616943, -0.021750546991825104, 0.03436750918626785], [0.05936727300286293, -0.07304953783750534, -0.19018784165382385, 0.09791417419910431, 0.061684802174568176, -0.027984846383333206, -0.07867196202278137, 0.07753448933362961, 0.1100754514336586, -0.07418620586395264, 0.08482072502374649, 0.13543857634067535, -0.1022905558347702, -0.033770956099033356, -0.10823140293359756, 0.030766315758228302, -0.11662493646144867, 0.17288663983345032, -0.005405766423791647, 0.041774850338697433, -0.03094959631562233, -0.05875345692038536, 0.20185203850269318, 0.007162529043853283], [-0.06785358488559723, -0.09353755414485931, 0.05768385902047157, 0.1343923658132553, 0.192656010389328, 0.09767884016036987, 0.12792856991291046, -0.06894678622484207, -0.01650994084775448, 0.055100370198488235, -0.3195643723011017, 0.08655024319887161, 0.2224394530057907, -0.10579074174165726, -0.04590665549039841, 0.13891787827014923, -0.07873113453388214, 0.11930278688669205, 0.018853994086384773, 0.2119738906621933, 0.04489967226982117, 0.1229168027639389, -0.10178941488265991, -0.002566269598901272], [0.03489759936928749, 0.02207282744348049, 0.013824889436364174, -0.06227200850844383, 0.07658455520868301, 0.04090530797839165, -0.00032968437881208956, -0.13084448873996735, -0.0284131970256567, 0.01796639896929264, -0.2005600780248642, 0.3603876829147339, 0.005965691991150379, 0.0453876256942749, -0.02284756489098072, -0.046558089554309845, -0.02613271214067936, -0.21108365058898926, 0.05566001310944557, -0.26577991247177124, -0.08070111274719238, 0.01982089690864086, 0.027117405086755753, -0.05553374066948891], [0.03863824903964996, -0.023516563698649406, -0.089046411216259, 0.07487143576145172, -0.013510658405721188, 0.0642879530787468, -0.05074383318424225, 0.011712194420397282, -0.03261536359786987, 0.10695358365774155, 0.18067894876003265, 0.05074184015393257, 0.01742452196776867, -0.0027084946632385254, 0.02667875587940216, 0.010627178475260735, 0.12040987610816956, 0.06603195518255234, -0.14433373510837555, 0.0038031379226595163, -0.06974153220653534, 0.17810215055942535, -0.08031490445137024, 0.10190955549478531], [0.04454532638192177, -0.08888143301010132, -0.07246250659227371, 0.051074959337711334, 0.05952943116426468, 0.03249475359916687, 0.09520402550697327, -0.1115056574344635, -0.06113870069384575, 0.06593915820121765, -0.03523213788866997, 0.03037380427122116, 0.023982591927051544, 0.01610623486340046, 0.028424015268683434, -0.046670347452163696, 0.0349118635058403, 0.08730922639369965, -0.07167590409517288, -0.1978088617324829, -0.11458172649145126, 0.3213122487068176, -0.04743162542581558, -0.029041089117527008], [0.06452040374279022, 0.028959576040506363, -0.05677192658185959, -0.10693909972906113, 0.0961056724190712, 0.1192544475197792, 0.10982504487037659, 0.03417738899588585, -0.13519902527332306, 0.03251867741346359, 0.028528131544589996, -0.004061631392687559, -0.031316567212343216, -0.050312332808971405, -0.1605326533317566, 0.28447383642196655, 0.024117691442370415, -0.01285453699529171, 0.11083585768938065, 0.07810714095830917, 0.05979014188051224, -0.031588535755872726, -0.006977675016969442, 0.06751075387001038], [-0.07648542523384094, 0.04395291581749916, 0.08320648968219757, -0.10349290072917938, 0.0004062651423737407, -0.09113948792219162, 0.09701612591743469, -0.09751962125301361, 0.08933257311582565, -0.0380290187895298, -0.0015549425734207034, 0.09935996681451797, 0.015638507902622223, 0.1704523116350174, -0.03445890173316002, -0.017455214634537697, 0.024155128747224808, -0.023979777470231056, 0.035788822919130325, -0.0012680768268182874, -0.06395552307367325, 0.11274246126413345, 0.12545990943908691, -0.020006272941827774], [-0.018442979082465172, 0.07475483417510986, 0.1410180926322937, 0.008738195523619652, -0.017171863466501236, -0.017846064642071724, -0.0027270903810858727, -0.0751124918460846, -0.03770645335316658, 0.03126754239201546, -0.011858558282256126, 0.15023347735404968, -0.004316266160458326, -0.008427822962403297, 0.194678395986557, -0.009821620769798756, -0.158254936337471, -0.11149770021438599, -0.009360878728330135, 0.13058415055274963, 0.13992075622081757, -0.04023929685354233, 0.11940506845712662, 9.615581075195223e-05], [0.03880194202065468, 0.05954459682106972, 0.026798522099852562, -0.01465030387043953, -0.12660494446754456, 0.1207055151462555, -0.029458478093147278, 0.029951948672533035, 0.0407034270465374, -0.1048341765999794, -0.10658001899719238, -0.15377676486968994, -0.0755850300192833, -0.010241365991532803, 0.14098407328128815, -0.07913364470005035, 0.10122090578079224, -0.013945470564067364, -0.05767107009887695, -0.09737057983875275, -0.339040607213974, -0.13132987916469574, -0.06388197094202042, -0.06587939709424973], [-0.04400143399834633, -0.08739273250102997, 0.10918933898210526, -0.16440533101558685, -0.06868014484643936, 0.16473664343357086, 0.0606868714094162, -0.11643876135349274, -0.03779037669301033, -0.05101504549384117, 0.037537992000579834, 0.09603491425514221, 0.058992836624383926, 0.0171780064702034, 0.01007148064672947, 0.13097384572029114, -0.0034195641055703163, -0.01049564965069294, 0.10523979365825653, -0.013059508055448532, -0.11028215289115906, 0.145647332072258, 0.12674051523208618, -0.00654620211571455], [0.017725298181176186, 0.054825589060783386, 0.1969183087348938, 0.07562122493982315, -0.134003147482872, 0.1272285431623459, 0.007333165034651756, -0.13276569545269012, 0.13969013094902039, 0.04739140346646309, -0.093000128865242, 0.12408965826034546, 0.09142124652862549, 0.03193715959787369, -0.06472145766019821, -0.051030125468969345, -0.12009669095277786, 0.18705429136753082, -0.011923435144126415, -0.007780237123370171, -0.2754775285720825, 0.015115954913198948, -0.021737700328230858, -0.051057714968919754], [0.12228081375360489, -0.0182547215372324, -0.033952780067920685, 0.1328715682029724, -0.07088220864534378, 0.19699467718601227, 0.02900022268295288, 0.005964822601526976, 0.038737453520298004, 0.20991279184818268, -0.14036890864372253, 0.022341080009937286, 0.05138280615210533, 0.04651908576488495, -0.02121039293706417, -0.006041205022484064, -0.12633433938026428, 0.045242734253406525, 0.0459519624710083, -0.13050785660743713, 0.030984319746494293, 0.09795761108398438, -0.06864723563194275, -0.11826191842556], [-0.07298576831817627, -0.02672659419476986, -0.05426986142992973, -0.07988153398036957, 0.049206215888261795, -0.047599103301763535, -0.22491109371185303, 0.109132781624794, 0.02383723109960556, -0.041722413152456284, 0.03982110694050789, 0.08104769885540009, 0.019613945856690407, -0.0036436307709664106, -0.10171448439359665, 0.17442089319229126, 0.08791116625070572, -0.08946239203214645, -0.023566102609038353, 0.05057523772120476, 0.05236346647143364, -0.13662196695804596, -0.00029688936774618924, 0.038649313151836395], [-0.0637396052479744, 0.14235951006412506, -0.1177096739411354, -0.008270379155874252, -0.053438641130924225, 0.1796019971370697, -0.21201525628566742, -0.017592649906873703, 0.001024411991238594, -0.0015603138599544764, 0.026053184643387794, -0.004261087626218796, -0.05210534855723381, -0.10647463798522949, 0.12273649871349335, -0.04014043137431145, 0.07853323221206665, 0.124721959233284, 0.08449122309684753, -0.10989125818014145, 0.09933917224407196, -0.10102234035730362, -0.03256659954786301, -0.040295764803886414], [-0.006146643776446581, 0.043559134006500244, 0.11343701183795929, 0.0665578842163086, 0.13728953897953033, -0.06243870034813881, 0.04541563615202904, -0.08133777230978012, -0.07580059766769409, -0.09824107587337494, -0.16047996282577515, 0.0575784295797348, -0.0036552781239151955, -0.052497006952762604, 0.003000312251970172, -0.1631772369146347, 0.05275240167975426, -0.09924530237913132, 0.007909025996923447, -0.07827798277139664, 0.08680230379104614, -0.04114917665719986, 0.03372698277235031, -0.09729582816362381], [-0.07263646274805069, 0.09298565238714218, -0.01423604041337967, 0.23898158967494965, -0.111143097281456, 0.09897620975971222, -0.1295723170042038, 0.04609912261366844, 0.02378808706998825, -0.009616969153285027, 0.015696585178375244, -0.008712338283658028, 0.0906715840101242, 0.0023438753560185432, 0.13972175121307373, 0.014208483509719372, 0.056403424590826035, -0.02510286308825016, -0.18570317327976227, -0.16815489530563354, -0.023593921214342117, -0.14395928382873535, 0.009334329515695572, 0.08305645734071732], [0.14645697176456451, 0.058222297579050064, 0.037226300686597824, -0.17348358035087585, -0.09619295597076416, -0.08555436879396439, -0.18451888859272003, -0.021614566445350647, -0.07824955135583878, 0.023726848885416985, 0.08158319443464279, 0.19513028860092163, -0.04977666586637497, -0.002371234819293022, -0.1234315037727356, -0.013968924060463905, 0.05056161433458328, 0.1789056658744812, 0.0882221907377243, 0.02373742125928402, 0.1042492464184761, -0.19838108122348785, -0.11115924268960953, 0.10784807801246643], [0.08355049043893814, 0.08942993730306625, -0.09685607254505157, 0.10698705911636353, -0.07168160378932953, 0.10494744032621384, 0.15177536010742188, 0.06705108284950256, -0.006477430462837219, 0.07128829509019852, -0.021000273525714874, 0.06323696672916412, 0.022170040756464005, 0.09924925118684769, -0.02821880392730236, 0.10111453384160995, -0.12477336078882217, 0.02880765125155449, 0.06508380174636841, 0.043418142944574356, 0.10387183725833893, 0.0773710384964943, -0.0057645817287266254, -0.03734782710671425], [-0.010017660446465015, 0.050954125821590424, 0.1139819547533989, 0.1268131285905838, -0.004134257789701223, 0.018862968310713768, 0.22474552690982819, -0.04215141385793686, -0.04280078411102295, 0.07465624064207077, 0.12010961771011353, -0.17395223677158356, 0.04354238882660866, 0.01736307330429554, 0.018333468586206436, 0.026897551491856575, 0.06812150776386261, 0.11919618397951126, 0.1085968092083931, 0.08764005452394485, -0.04516417160630226, -0.10613510012626648, 0.09422855079174042, 0.034571100026369095], [-0.04782392084598541, 0.11712370812892914, 0.1992458701133728, -0.06373000890016556, -0.06856556981801987, -0.013680024072527885, 0.03432270884513855, -0.004976371303200722, 0.1408051997423172, 0.028808139264583588, 0.05093700438737869, -0.032920386642217636, -0.050151582807302475, 0.10838421434164047, -0.12371746450662613, 0.034573622047901154, -0.07410360872745514, -0.014681686647236347, 0.08349219709634781, -0.08945957571268082, 0.14022672176361084, 0.15666906535625458, 0.16085167229175568, 0.07294047623872757], [-0.08847679197788239, -0.08716079592704773, -0.012489672750234604, -0.03354673832654953, 0.06142011657357216, -0.18335780501365662, -0.10786382853984833, 0.0337550975382328, 0.058600910007953644, -0.11772668361663818, 0.020249633118510246, -0.043957218527793884, 0.007737534120678902, -0.02282259427011013, -0.06690029054880142, -0.008582028560340405, 0.010226795449852943, -0.1507227122783661, 0.06902937591075897, 0.16729657351970673, 0.10333310067653656, -0.25767019391059875, -0.0038448062259703875, 0.04956192150712013], [-0.020568547770380974, 0.0542442761361599, 0.01016625389456749, 0.06490112841129303, 0.03406651318073273, -0.060644954442977905, 0.004748938605189323, -0.020085426047444344, 0.011772334575653076, -0.004718344192951918, 0.1658274084329605, 0.0618429072201252, 0.03450402244925499, 0.07432812452316284, 0.005474210716784, 0.010650006122887135, 0.03911726921796799, -0.008216604590415955, 0.015915874391794205, 0.05661488696932793, -0.042939238250255585, -0.18153703212738037, 0.03997715935111046, -0.026000693440437317], [0.09461137652397156, -0.043964140117168427, 0.1545334905385971, -0.027508322149515152, -0.04498256742954254, -0.16156351566314697, 0.10791326314210892, -0.0023422425147145987, -0.11358954012393951, -0.03941879794001579, -0.04558494687080383, -0.03228981792926788, -0.17384091019630432, -0.14348149299621582, -0.06891809403896332, 0.2429494708776474, 0.1065295934677124, -0.07406143844127655, 0.09998758137226105, -0.05206288769841194, 0.021639222279191017, -0.04244792461395264, -0.10015421360731125, 0.021298173815011978], [0.043212421238422394, 0.03613010421395302, -0.16888919472694397, 0.2187308520078659, 0.020748313516378403, 0.0017193442909047008, -0.07049661874771118, -0.04094308987259865, 0.012996898964047432, 0.20942002534866333, 0.08122577518224716, -0.03070562146604061, -0.038356661796569824, 0.019153403118252754, 0.07904810458421707, -0.05020541697740555, -0.09523691982030869, -0.06507604569196701, 0.1155412495136261, -0.02519376203417778, 0.047885097563266754, 0.024443013593554497, 0.0763363316655159, 0.08356654644012451], [-0.13300997018814087, -0.07670704275369644, 0.012241389602422714, -0.16876839101314545, -0.013368142768740654, 0.062129952013492584, -0.049823395907878876, -0.0018780598184093833, -0.08862774819135666, -0.10521405935287476, 0.05520811304450035, 0.19256730377674103, -0.037625327706336975, 0.030036374926567078, 0.051981713622808456, -0.0917401909828186, -0.12406130880117416, -0.13908351957798004, 0.09563159942626953, -0.17559534311294556, 0.022802742198109627, -0.10819893330335617, -0.03379932790994644, 0.05286957696080208], [0.10931195318698883, -0.03525562584400177, 0.0874691903591156, -0.12093564122915268, -0.20537275075912476, -0.047186318784952164, 0.09844119101762772, 0.013251584023237228, -0.11971983313560486, -0.17634335160255432, -0.07834208011627197, 0.01050424762070179, 0.1402282863855362, 0.011819111183285713, 0.04409532621502876, 0.0574553906917572, -0.008076840080320835, -0.04008782282471657, 0.16009876132011414, 0.0388205423951149, 0.056229569017887115, 0.02885538525879383, 0.1383752077817917, -0.012382082641124725], [0.04284687712788582, 0.12347223609685898, 0.06855441629886627, -0.010067234747111797, -0.07427425682544708, -0.0715022161602974, 0.11081230640411377, -0.010545676574110985, -0.06981119513511658, 0.14559341967105865, -0.19420211017131805, -0.01114096399396658, 0.02931358478963375, 0.009075961075723171, 0.03679259866476059, 0.11869797855615616, 0.08524943143129349, 0.09109154343605042, -0.016217457130551338, 0.10308697819709778, 0.03806563839316368, -0.0037789216730743647, -0.04768168553709984, -0.0008691331022419035], [-0.07125444710254669, 0.08549915999174118, 0.06306822597980499, -0.2301197499036789, -0.021491030231118202, 0.030321376398205757, 0.01870894804596901, -0.16674423217773438, 0.11235292255878448, 0.05897391960024834, -0.01860899105668068, 0.016567181795835495, -0.03189053386449814, -0.13064195215702057, 0.029266826808452606, -0.24071791768074036, 0.021503174677491188, -0.04066019505262375, -0.01924159936606884, 0.04462280124425888, 0.012402163818478584, 0.038777898997068405, -0.04339384287595749, -0.09939003735780716], [0.05235237628221512, -0.04344673454761505, 0.10556066036224365, 0.015171529725193977, -0.038138482719659805, -0.1489904820919037, 